tree
version=v4
num_class=1
num_tree_per_iteration=1
label_index=0
max_feature_idx=17
objective=binary sigmoid:1
feature_names=Column_0 Column_1 Column_2 Column_3 Column_4 Column_5 Column_6 Column_7 Column_8 Column_9 Column_10 Column_11 Column_12 Column_13 Column_14 Column_15 Column_16 Column_17
feature_infos=[20:90] [0:1] [0:1] [0:3333.3333333333335] [5:2010] [7.5999999999999996:15.6] [44:470] [2.6299999999999999:19.440000000000001] [24:70.599999999999994] [0.88:2.5600000000000001] [78:302] [6:64] [2.2999999999999998:4.7000000000000002] [11:180] [6:209] [0.40999999999999998:5.5499999999999998] [128:147] [3:5.2999999999999998]
tree_sizes=9915 9975 9981 9983 10027 10020 9991 10048 10029 10032 10056 10104 10097 10128 10100 10071 10107 10073 10128 10123 10119 10072 10129 10117 10126 10118 10166 10172 10188 10179 10190 10196 10198 10219 10211 10221 10211 10225 10208 10262 10261 10252 10238 10245 10264 10256 10272 10294 10298 10275 10264 10291 10306 10331 10315 10302 10333 10308 10335 10297 10340 10305 10318 10360 10296 10289 10339 10302 10311 10356 10323 10357 10351 10347 10393 10345 10385 10360 10345 10389 10385 10366 10390 10374 10415 10410 10392 10417 10421 10447 10446 10447 10414 10490 10433 10439 10484 10450 10493 10471 10480 10501 10509 10493 10528 10455 10517 10499 10550 10555 10550 10559 10501 10574 10561 10550 10572 10565 10547 10554 10580 10607 10577 10584 10586 10591 10516 10620 10573 10621 10577 10588 10601 10569 10617 10617 10606 10615 10641 10633 10567 10598 10630 10582 10643 10671 10650 10643 10661 10611 10616 10657 10627 10620 10674 10639 10717 10698 10704 10697 10663 10656 10737 10708 10730 10681 10726 10733 10724 10723 10788 10711 10720 10785 10740 10749 10794 10767 10769 10777 10739 10778 10807 10780 10802 10826 10812 10840 10863 10855 10800 10839 10821 10814 10837 10893 10803 10877 10831 10820 10844 10854 10853 10833 10867 10858 10879 10881 10830 10852 10907 10884 10900 10917 10860 10892 10848 10900 10903 10877 10888 10910 10890 10917 10933 10939 10950 10936 10886 10921 10899 10915 10945 10931 10949 10955 10892 10959 10964 10979 10976 10973 10979 10984 10994 10967 10960 11021 11036 10994 11015 10998 11059 11052 11040 11039 11015 10999 11023 11039 11031 11038 11034 11052 11057 11055 10663 10948 10705 10041 10354 9799 10018 9556 9450 8805 9239 9172 9263 8990 8942 8325 8460 8241 7967 7990 7781 7886 7743 7530 7181 7515 7055 6623 6965 6852 6640 6730 6748 6393 6501 6496 5940 6392 5917 5807 6054 5836 6042 5704 5367 5817 5262 5246 5690 5362 5140 5240 5485 5007 5129 5138 5476 5119 4998 4904 5008 4799 4543 4680 4675 4657 4563 4574 4422 4682 4303 4551 4447 4419 4090 3959 4289 4217 4224 4321 3973 4105 3970 3984 4099 3949

Tree=0
num_leaves=95
num_cat=0
split_feature=12 11 8 13 0 10 16 12 13 16 7 3 9 13 10 9 5 10 6 16 9 16 7 8 16 8 7 14 14 10 10 8 6 3 5 6 14 3 14 6 3 3 10 2 13 17 6 0 13 5 9 0 1 13 10 0 10 12 3 6 9 7 13 17 9 3 12 8 10 8 1 5 0 5 11 6 1 3 3 9 6 3 3 7 2 8 13 7 8 0 11 5 8 6
split_gain=1518.85 865.169 620.882 359.328 534.066 324.288 321.573 305.425 404.392 276.915 256.6 252.066 364.909 270.804 222.971 221.174 522.868 967.325 188.877 179.122 163.291 161.245 158.6 180.932 128.096 215.071 210.179 118.866 116.325 134.725 102.435 371.396 100.448 257.468 293.358 267.578 83.2044 74.4405 72.3727 76.4436 71.2419 132.306 63.8464 152.387 168.401 369.801 91.4631 59.7075 56.4481 53.9586 134.062 49.2739 62.5507 40.1268 112.521 58.1808 142.484 28.3546 26.928 26.1829 50.2427 95.2598 183.715 24.8295 24.4978 24.442 89.5612 23.1055 19.9025 19.4226 18.3715 18.2481 16.9975 15.3522 14.3959 34.9917 88.7294 42.3785 69.6587 12.2648 16.0253 13.8598 48.031 62.4543 79.5521 83.9699 34.3 59.7075 12.0621 14.9269 11.1759 42.7374 62.5507 12.868
threshold=3.0500000000000003 26.500000000000004 37.150000000000013 44.500000000000007 67.500000000000014 129.00000000000003 146.00000000000003 2.6000000000000005 17.500000000000004 134.50000000000003 7.6800000000000006 16.574712117396583 1.0250000000000001 144.00000000000003 244.50000000000003 1.175 8.4000000000000004 149.00000000000003 105.00000000000001 136.50000000000003 1.4250000000000003 129.00000000000003 12.995000000000001 32.650000000000006 133.00000000000003 26.750000000000004 10.660000000000002 17.500000000000004 63.000000000000007 117.50000000000001 157.50000000000003 37.150000000000013 105.00000000000001 20.925222398047183 11.150000000000002 78.000000000000014 63.000000000000007 24.048284035701467 14.500000000000002 144.00000000000003 24.332948865820843 24.97877443847187 194.50000000000003 1.0000000180025095e-35 33.000000000000007 4.0826233762047526 330.50000000000006 72.500000000000014 57.000000000000007 11.150000000000002 1.175 82.500000000000014 1.0000000180025095e-35 33.000000000000007 157.50000000000003 72.500000000000014 103.00000000000001 3.6500000000000008 38.056112141996067 105.00000000000001 1.0600000000000003 3.8300000000000005 37.500000000000007 5.1500000000000012 1.3050000000000004 15.493827160493828 3.2500000000000004 25.700000000000006 98.500000000000014 49.650000000000006 1.0000000180025095e-35 7.8500000000000005 42.500000000000007 7.8500000000000005 20.250000000000004 330.50000000000006 1.0000000180025095e-35 29.399759903961591 31.219392869189488 1.0600000000000003 438.50000000000006 20.305091733663168 22.583543221210057 8.1400000000000023 1.0000000180025095e-35 33.400000000000006 27.000000000000004 6.6279486249476092 25.700000000000006 57.500000000000007 18.750000000000004 14.600000000000001 33.400000000000006 330.50000000000006
decision_type=2 2 2 2 2 2 2 2 2 2 2 2 2 2 2 2 2 2 2 2 2 2 2 2 2 2 2 2 2 2 2 2 2 2 2 2 2 2 2 2 2 2 2 2 2 2 2 2 2 2 2 2 2 2 2 2 2 2 2 2 2 2 2 2 2 2 2 2 2 2 2 2 2 2 2 2 2 2 2 2 2 2 2 2 2 2 2 2 2 2 2 2 2 2
left_child=1 6 5 38 9 22 11 8 -7 -5 -10 12 27 24 40 42 17 70 -14 -12 -15 -18 36 -24 25 26 -13 -1 49 -30 71 48 33 34 35 -23 -3 -33 -4 -40 -9 -42 57 51 46 -46 67 -6 64 -27 -51 58 -53 88 55 69 -57 59 63 60 -2 -62 -63 -44 -32 66 -61 -45 -36 -55 -17 -26 -20 -59 -67 77 -77 -76 -79 80 -73 -81 83 84 86 -86 87 -83 89 -34 -90 93 -93 -92
right_child=15 2 3 4 47 7 -8 14 10 -11 19 13 18 20 -16 16 21 -19 72 -21 -22 32 23 -25 30 28 -28 -29 29 -31 31 37 53 -35 68 -37 -38 -39 39 -41 41 -43 43 44 45 -47 -48 -49 -50 50 -52 52 -54 54 -56 56 -58 73 -60 65 61 62 -64 -65 -66 74 -68 -69 -70 -71 -72 79 -74 -75 75 76 -78 78 -80 81 -82 82 -84 -85 85 -87 -88 -89 90 -91 91 92 -94 -95
leaf_value=-3.1081774103787563 -5.742330431612829 -5.742330431612829 -5.7423304316128281 0.22841641651761879 1.7211031285501566 3.213789840582753 -0.76670805817080012 -5.742330431612829 0.47719753518968933 -4.8642794245348195 -5.7423304316128281 -4.747205956924418 -1.6713666715239164 -4.4984248382523209 -1.1494482407432685 -4.2496437195801882 -2.5437160486858001 4.2089143152712003 -4.6761256373038211 -1.2642702955150371 0.22841641651755928 -3.7520814822360085 -0.76670805817081344 -5.7423304316128272 -4.5941098838954577 -5.742330431612829 -0.001227693025877663 0.22841641651761879 -5.7423304316128281 -1.7618325328591968 -5.742330431612829 0.22841641651755928 -5.7423304316128263 -5.742330431612829 -4.2496437195802308 1.7211031285501939 -3.4458893361780478 -3.0283545915535535 -4.4984248382523244 -1.2642702955150371 -1.6713666715239164 -5.7423304316128281 -5.6913854926356056 -4.385342511583187 0.22841641651761879 -5.7423304316128281 -2.756957007547634 4.7064765526153503 -3.876472041572061 -5.7423304316128281 -2.2976687884606579 -5.7423304316128281 -2.756957007547634 -5.742330431612829 -3.1081774103788016 -2.0106136515313171 -5.7423304316128281 -4.9567058463324916 -4.2496437195802264 -2.7569570075475465 -5.742330431612829 -1.1494482407432685 -5.7423304316128281 -4.385342511583187 -4.3853425115831906 -5.6998944198990369 -5.742330431612829 -5.742330431612829 -5.7423304316128281 -4.6761256373038211 -5.7423304316128281 -5.742330431612829 -5.742330431612829 -5.7334075490780751 -5.6764281485208805 -3.3854566757718487 -5.742330431612829 -2.7569570075476242 -5.7423304316128281 -5.742330431612829 -4.913060036039151 -2.7569570075476149 -5.6715869855449315 -5.742330431612829 -4.5941098838954382 -1.2642702955150371 -5.742330431612829 -5.7423304316128272 -5.7214244552538283 -4.2496437195802308 -5.742330431612829 -5.7423304316128281 -2.756957007547634 -4.9959870755965188
leaf_weight=0.056944298557936146 0.23782618809491296 0.41870807763189055 0.036846310831606388 0.050244969315826893 0.033496646210551262 0.033496646210551262 0.040195975452661403 0.1406859140843153 0.040195975452661514 0.056944298557937145 0.066993292421102524 0.050244969315826782 0.036846310831606388 0.040195975452661403 0.04354564007371664 0.033496646210550263 0.046895304694771656 0.040195975452661514 0.046895304694771767 0.033496646210551262 0.033496646210551262 0.050244969315826782 0.040195975452661514 0.033496646210551262 0.043545640073717418 0.3584141144528985 0.04354564007371664 0.050244969315826893 0.036846310831606388 0.050244969315826893 0.34166579134762276 0.033496646210551262 0.033496646210552039 0.2947704866528511 0.033496646210551262 0.040195975452661514 0.04354564007371664 0.036846310831606388 0.040195975452661514 0.033496646210551262 0.036846310831606388 0.04354564007371664 2.9443552019074568 0.036846310831606277 0.050244969315826893 0.053594633936882019 0.033496646210551262 0.033496646210551262 0.053594633936882019 0.080391950905323029 0.04354564007371664 0.036846310831606277 0.033496646210551262 0.47900204081088293 0.056944298557937145 0.040195975452661514 0.07034295704215765 0.063643627800046398 0.033496646210551151 0.033496646210550263 0.093790609389543533 0.04354564007371664 0.04354564007371664 0.036846310831606277 0.036846310831606388 9.4259562436491233 0.10048993863165379 0.21102887112647295 0.066993292421102524 0.046895304694771767 0.053594633936882019 1.7250772798433902 0.18423155415803194 179.31424649432302 1.5173980733379711 0.063643627800047287 0.10718926787376404 0.033496646210551151 0.046895304694771767 0.49910002853721369 0.06029396317899216 0.03349664621055104 0.70677923504263163 0.16078390181064606 0.04354564007371664 0.033496646210551262 0.090440944768488407 0.033496646210551262 2.3916605394333605 0.033496646210551262 0.41870807763189066 0.036846310831606388 0.033496646210551262 0.066993292421102524
leaf_count=17 71 125 11 15 10 10 12 42 12 17 20 15 11 12 13 10 14 12 14 10 10 15 12 10 13 107 13 15 11 15 102 10 10 88 10 12 13 11 12 10 11 13 879 11 15 16 10 10 16 24 13 11 10 143 17 12 21 19 10 10 28 13 13 11 11 2814 30 63 20 14 16 515 55 53532 453 19 32 10 14 149 18 10 211 48 13 10 27 10 714 10 125 11 10 20
internal_value=-5.69216 -4.93057 -3.75737 -1.7033 -0.288283 -4.35736 -5.22117 -3.34947 -1.72356 -2.47708 -2.89912 -5.25666 -4.00975 -5.35684 -4.4197 -5.71645 -5.36458 -2.20702 -4.99599 -4.24964 -2.34986 -5.45936 -5.18257 -3.02835 -5.40506 -4.76228 -2.54372 -1.54415 -5.12769 -3.44589 -5.51347 -4.84672 -5.49196 -4.81584 -3.38546 -1.31955 -5.526 -1.47751 -3.93301 -3.02835 -5.06384 -3.87647 -5.72434 -5.5118 -4.57414 -2.85326 -5.20923 3.21379 -5.39519 -5.43135 -4.53204 -5.62888 -4.32072 -5.58052 -5.23756 -5.42808 -4.38534 -5.7282 -5.6594 -5.65295 -5.26467 -4.63664 -3.44589 -5.67524 -5.61023 -5.6673 -4.99599 -5.54062 -5.24477 -5.64725 -5.16822 -5.61114 -5.526 -5.73313 -5.67533 -5.54444 -4.86428 -5.61716 -4.49842 -5.62421 -5.71433 -5.52374 -5.42474 -4.98334 -4.46288 -3.14635 -5.10714 -4.24964 -5.6594 -4.99599 -5.67448 -5.47257 -4.32072 -5.63939
internal_weight=0 6.34426 1.25947 0.284721 0.174183 0.974752 5.08479 0.438806 0.174183 0.107189 0.140686 5.04459 0.375162 4.66943 0.264624 198.963 4.36796 0.127287 0.267973 0.10049 0.0736926 4.24068 0.535946 0.0736926 4.59574 0.663234 0.0937906 0.107189 0.569443 0.0870913 3.93251 0.50245 4.19378 0.485701 0.190931 0.0904409 0.462254 0.070343 0.110539 0.0736926 0.221078 0.080392 194.595 3.47025 0.385211 0.10384 0.281372 0.0669933 0.432107 0.482352 0.123938 3.08504 0.070343 3.70808 0.693381 0.636436 0.110539 191.125 3.0147 11.7473 0.418708 0.180882 0.0870913 2.9812 0.378512 11.3286 0.133987 0.247875 0.10049 0.525897 0.0870913 3.43006 0.231127 179.378 11.1946 1.76862 0.170833 1.59779 0.080392 3.38651 1.78537 1.60114 1.10204 0.39526 0.234477 0.0770423 0.157434 0.0669933 3.0147 0.0669933 2.9477 0.556044 0.070343 0.485701
internal_count=61292 1894 376 85 52 291 1518 131 52 32 42 1506 112 1394 79 59398 1304 38 80 30 22 1266 160 22 1372 198 28 32 170 26 1174 150 1252 145 57 27 138 21 33 22 66 24 58094 1036 115 31 84 20 129 144 37 921 21 1107 207 190 33 57058 900 3507 125 54 26 890 113 3382 40 74 30 157 26 1024 69 53551 3342 528 51 477 24 1011 533 478 329 118 70 23 47 20 900 20 880 166 21 145
is_linear=0
shrinkage=1


Tree=1
num_leaves=95
num_cat=0
split_feature=4 0 9 15 2 4 5 9 15 3 16 13 0 0 8 14 5 9 9 16 7 3 16 6 4 0 3 7 6 14 17 13 0 8 0 0 9 5 15 8 6 15 4 0 6 9 3 15 13 15 8 15 16 17 14 3 13 9 7 6 4 4 1 7 4 15 4 13 6 1 9 3 5 9 5 3 0 17 14 5 16 4 15 17 5 5 14 3 11 15 6 4 15 4
split_gain=55.0643 32.8643 70.7113 38.2626 30.7266 17.2373 39.4825 118.149 23.4971 12.7776 15.7386 14.2508 17.5088 46.5253 14.0203 20.5139 16.8151 12.6813 22.9817 13.2718 18.6742 11.9366 11.9094 24.9475 10.7717 12.0464 11.1664 26.4119 33.4543 114.323 11.3794 10.4934 11.0288 47.7035 64.6034 9.08878 17.2086 11.9675 9.11035 26.1682 13.0351 8.79328 8.64951 8.39971 17.9327 17.4119 24.7677 17.9727 7.85131 7.76758 21.2625 7.7656 7.93896 7.57096 19.4092 7.09183 21.0406 6.79992 8.60869 10.9738 8.6241 24.3353 49.3145 6.10826 6.71435 5.9415 11.4952 14.7704 22.8495 9.34317 7.73311 5.77907 5.54931 6.69417 5.38722 5.32635 5.2985 5.03572 4.96326 4.78738 5.18114 7.49903 6.02149 4.66149 7.197 4.52783 19.3756 15.5311 4.52596 4.97392 4.46753 4.40424 59.0579 4.28281
threshold=487.50000000000006 77.500000000000014 1.0600000000000003 1.1050000000000002 1.0000000180025095e-35 702.50000000000011 13.167387571020448 1.1050000000000002 4.2950000000000008 21.993220646419303 129.00000000000003 14.500000000000002 57.500000000000007 67.500000000000014 35.400000000000013 19.000000000000004 13.450000000000001 1.9750000000000003 1.175 129.00000000000003 9.2050000000000018 13.638658588435375 140.50000000000003 227.50000000000003 197.50000000000003 82.500000000000014 22.099616156528779 9.865000000000002 227.50000000000003 14.500000000000002 3.3000000000000003 14.500000000000002 32.500000000000007 33.400000000000006 22.500000000000004 57.500000000000007 1.6300000000000001 7.8500000000000005 2.3650000000000007 27.550000000000001 205.50000000000003 2.3650000000000007 147.50000000000003 72.500000000000014 53.500000000000007 1.2300000000000002 26.860908775580995 0.59500000000000008 14.500000000000002 4.2950000000000008 30.900000000000002 0.44 146.00000000000003 3.9000000000000004 28.500000000000004 35.610425240054873 23.650083945948591 1.4250000000000003 12.995000000000001 126.50000000000001 472.50000000000006 477.50000000000006 1.0000000180025095e-35 3.0250000000000004 157.50000000000003 0.55500000000000005 87.500000000000014 13.500000000000002 205.50000000000003 1.0000000180025095e-35 1.0800000000000003 16.648086305263174 11.150000000000002 1.4250000000000003 9.6500000000000021 31.065759637188211 57.500000000000007 4.8500000000000005 10.000000000000002 12.700000000000001 138.00000000000003 282.50000000000006 0.69500000000000017 3.5500000000000003 10.550000000000002 15.300000000000002 12.500000000000002 21.993220646419303 57.000000000000007 0.44 159.00000000000003 412.50000000000006 0.66500000000000015 277.50000000000006
decision_type=2 2 2 2 2 2 2 2 2 2 2 2 2 2 2 2 2 2 2 2 2 2 2 2 2 2 2 2 2 2 2 2 2 2 2 2 2 2 2 2 2 2 2 2 2 2 2 2 2 2 2 2 2 2 2 2 2 2 2 2 2 2 2 2 2 2 2 2 2 2 2 2 2 2 2 2 2 2 2 2 2 2 2 2 2 2 2 2 2 2 2 2 2 2
left_child=4 5 3 -3 21 8 48 -8 9 71 -11 12 -12 -14 -13 16 75 18 19 20 -6 22 -1 -24 65 26 27 49 29 -29 -28 -20 33 -33 -35 51 37 -37 39 -39 -40 -30 53 57 -45 55 47 -47 -7 -26 -51 -34 -53 54 -41 63 -57 58 60 -60 93 62 -62 64 -46 66 -21 68 -68 70 -69 -2 -50 -74 -17 -16 -71 -49 -55 80 81 82 -44 -19 -85 91 -87 -88 89 -61 -32 -65 -93 -23
right_child=1 2 -4 -5 17 6 7 -9 -10 10 11 14 13 -15 15 74 -18 83 31 24 -22 43 23 -25 25 -27 30 28 41 -31 90 32 35 34 -36 36 -38 38 40 42 -42 -43 79 44 45 46 -48 77 72 50 -52 52 -54 78 -56 56 -58 -59 59 88 61 -63 -64 85 -66 -67 67 69 -70 76 -72 -73 73 -75 -76 -77 -78 -79 -80 -81 -82 -83 -84 84 -86 86 87 -89 -90 -91 -92 92 -94 -95
leaf_value=0.051349032284711431 0.085091152058777875 0.69244588059058798 0.10771858792751893 2.4247492089863103 -0.062116200775438536 0.4062137484898905 -0.050162130730710158 2.3106589337406152 0.69143858884967146 0.58195740897476955 -0.050162635991061313 -0.057634294890028581 1.4280171593695403 -0.051677889033338836 -0.050162177422780799 0.31321569498613416 1.1693242548594915 0.0004288600437380377 -0.094638813088685853 -0.076179017584948092 0.44811879394639659 -0.047212734035300935 1.1068834205720437 -0.051869827021831051 -0.020039342068117128 0.6891775970808135 0.29844212484723215 3.0780042212470917 -0.050707196155096196 -0.05016358921618215 0.054495556813494786 -0.049310703791841735 0.26797060454037719 -0.050389399291005457 2.2352119328366906 -0.23118303793732009 0.44064275882513732 0.57378889727890259 0.05612564867791682 -0.050235539090412097 0.49278895676561096 0.44345027869403603 0.13871926670962628 -0.96768119105869688 -0.050416738802748384 0.34609439806528136 0.86509604788638539 -0.053447881988284519 0.022301558194176566 1.4973102672379985 -0.050162257493054099 -0.021095614899497683 0.17450879236970393 0.21221451952291168 -1.4182904942498162 -0.050334083975108683 1.40745812409325 -0.11799338516659207 0.34928736715108527 0.16501690925782431 2.018660144359619 -0.050162595847104453 -0.050163120793734632 -0.031782289160786861 0.64103305971862989 -0.045126780106428406 1.1029846679249704 -0.070661447021781898 -0.050164977048167469 0.080334161870703691 0.17389922974684066 -0.089217785344108902 -0.05017613692300428 0.43276028661281435 -0.047882046025993684 0.54754788067945459 0.32373736553917992 0.22335349992585052 -0.085284920415619817 -0.05845719894481502 0.055288352960882629 0.060517578706085186 0.42588665932241387 -0.059529170960704515 -0.24171040468917201 1.1460833092137481 0.80939709331782916 -0.050162068012543228 0.27812148217046967 -0.019591102841723898 -0.072567309158182144 1.5730964197407804 -0.051448213339588558 -0.020900389489635296
leaf_weight=1.1006644319277246 0.60250513511709725 0.067264924058690556 0.29801340075209737 0.060588640626519918 0.34291891078464942 0.21386434230953444 0.14174242923036207 0.08464349526911974 0.1345576315652578 0.15739306109026108 0.15185795328579876 1.6662099114619198 0.10136179579421878 0.1116260455455631 0.067668324569240101 0.13469804171472788 0.081863098777830601 1.2683306592516594 0.81094658421352406 1.9195696883834958 0.37589638284407556 144.42543051321991 0.08627719641663123 0.10062417574226856 1.0664822249673296 0.072762641590088495 0.2785589732229713 0.047949603991582879 0.16594244935549796 0.07472406467422843 0.98900380008854005 0.23977793613448639 0.31165726017206719 0.058459073770791292 0.065621482208371162 0.25946343503892411 0.39861602755263437 0.26281106937676657 0.32408655900508154 0.093356067780405172 0.36159355007112026 0.19677617819979787 0.32635228801518745 0.049383921083061888 0.06843846081756666 0.48930938262492318 0.10916475253179658 1.0681282384321091 1.0055658223573116 0.032310742419212946 0.070921387290582061 3.3886805358342826 0.61249600257724512 0.1814283556304872 0.035894821863621473 0.088910342659800246 0.034300896339118481 2.984647170174866 0.24658373044803639 0.40199362253770221 0.048336678883059814 0.31978888530284166 0.071286267135292292 29.447997614741332 0.072093889815732837 15.286515619140117 0.086645574541762804 1.372416863916442 0.085199221735820174 0.52929455670528103 0.42282119346782554 2.255936989095062 0.11069106776267279 0.20399789977818727 0.4429624283220619 0.082977563142776489 0.38710386771708727 0.19418127834796894 0.61687734490260482 0.42009199550375331 1.3874515290372071 0.59091262333095074 0.41427047457545996 1.7121075228787961 0.79328465089201916 0.041797455167396858 0.058169313007965684 0.54422377329319715 0.14854221185669292 3.9509438488166779 2.3019102965481579 0.061604439746587469 0.60887700715102255 17.319559638854116
leaf_count=75 27 12 25 10 8 14 44 8 17 9 47 437 15 18 21 4 9 18 74 224 12 42357 8 13 195 12 20 12 37 23 67 20 6 12 11 13 13 17 11 25 10 3 8 3 16 18 21 112 28 10 22 111 4 4 8 21 9 208 11 9 15 99 22 7278 6 2446 15 236 26 13 23 299 33 3 64 1 12 16 40 20 28 13 13 23 14 13 18 169 3 406 395 19 140 4735
internal_value=0 0.102079 0.529722 1.51337 -0.0298098 0.0785858 0.216132 0.832526 0.038171 0.0231631 0.095267 0.0683062 0.360043 0.652515 0.0253245 0.195939 0.592512 0.00966718 0.0185116 -0.00716167 0.204705 -0.0377462 0.114012 0.483033 -0.0131606 0.0502648 0.0413666 0.148713 0.458777 1.17255 -0.00840835 0.0785627 0.0921336 0.362527 1.15838 0.0822813 0.123872 0.0999324 0.117063 0.0902441 0.2864 0.217375 0.0589945 -0.0387094 -0.0156 -0.0141703 0.134388 0.0888487 0.125172 0.0200477 0.434183 0.0275723 0.00884731 -0.0751519 -0.430164 -0.02308 0.355502 -0.043189 -0.0418515 0.0245097 -0.0437943 0.177414 0.785797 -0.0245894 0.304301 -0.029885 0.0186247 0.0817368 0.531263 0.0532489 -0.0130616 -0.0524768 0.0796466 0.262889 0.0363182 0.279064 0.183152 -0.0108675 -0.0176732 0.098633 0.122904 0.193359 0.299348 -0.0776744 -0.117213 -0.0260918 0.105071 0.0328402 0.00671894 -0.00254256 -0.0343817 -0.0288972 0.0978164 -0.0443952
internal_weight=0 8.17799 0.425867 0.127854 245.182 7.75212 1.76051 0.226386 5.99162 5.85706 2.99862 2.84123 0.364846 0.212988 2.47638 0.810169 0.232509 41.0403 37.2666 26.1057 0.718815 204.141 1.28757 0.186901 25.3869 5.29734 5.22458 1.65511 0.485392 0.122674 3.56947 11.1608 10.3499 0.363858 0.124081 9.98604 5.67321 5.27459 5.01513 4.32945 0.68568 0.362719 4.06664 202.854 32.9366 32.8872 1.86078 1.75162 1.53412 1.16971 0.103232 4.31283 4.00118 0.927557 0.129251 31.0264 0.123211 169.917 166.932 4.74806 162.184 0.439412 0.119623 30.9032 0.140532 20.0896 4.80305 2.88348 0.171845 2.71164 1.79524 2.85844 1.32025 0.314689 0.57766 0.150646 0.916398 1.26231 0.798306 3.13908 2.71899 1.33154 0.740623 3.77372 2.50539 30.7627 0.644191 0.602393 4.50148 4.35294 3.29091 30.1185 0.670481 161.745
internal_count=61292 1145 47 22 60147 1098 130 52 968 951 625 616 80 33 536 99 31 4327 4272 3811 20 55820 96 21 3791 796 784 302 75 35 482 461 387 43 23 344 223 210 197 176 21 40 159 55724 7859 7856 167 146 78 227 32 121 115 77 33 7689 30 47865 47657 429 47228 136 37 7659 22 2995 549 325 41 284 259 326 64 36 68 22 25 128 44 82 62 34 21 55 37 7637 200 187 418 415 462 7437 159 47092
is_linear=0
shrinkage=0.05


Tree=2
num_leaves=95
num_cat=0
split_feature=4 12 3 17 14 16 9 9 12 6 9 0 4 2 5 17 9 5 6 11 8 3 4 12 3 14 4 3 4 4 7 0 12 14 3 3 5 0 8 5 4 17 16 8 7 14 16 3 8 0 6 11 12 14 11 6 17 13 12 0 11 14 0 16 0 13 4 16 7 4 17 13 13 16 9 1 11 5 3 13 6 7 14 17 13 0 12 11 7 8 3 9 3 14
split_gain=41.2889 34.2336 14.6805 16.9627 13.285 17.0651 20.968 37.5285 45.57 26.6355 13.135 13.3099 12.7022 13.8769 15.4846 23.8091 11.8839 15.546 13.5579 19.9602 13.301 27.3326 11.7593 14.9974 31.5066 11.7659 11.2282 10.8093 9.88552 9.65205 53.1036 9.62889 9.61237 9.12537 8.95015 8.85227 8.41317 7.72088 11.656 7.15132 14.7698 70.0581 14.7592 8.15046 17.2309 12.3272 25.2416 12.3304 11.6823 26.3545 78.4525 6.56481 11.5283 23.0654 10.6954 13.823 50.673 9.83354 17.7101 6.99158 16.4925 29.1304 6.55322 6.482 6.23172 12.8502 17.6827 9.50954 8.52921 22.2712 6.04922 5.95526 5.60333 7.10718 5.56345 11.0284 5.46823 5.31729 5.27141 5.18552 17.704 13.6399 5.14661 5.00712 11.7595 11.2569 4.88723 4.74921 8.86082 5.58912 6.53699 8.56358 7.68845 8.89583
threshold=487.50000000000006 3.7500000000000004 20.793638897616464 4.1826233762047531 21.000000000000004 140.50000000000003 1.0100000000000002 0.99655727826455176 4.0500000000000007 282.00000000000006 1.9750000000000003 52.500000000000007 472.50000000000006 1.0000000180025095e-35 8.4000000000000004 4.5500000000000007 1.2300000000000002 10.850000000000001 105.00000000000001 43.000000000000007 32.000000000000007 19.460915858725766 247.50000000000003 3.0500000000000003 21.930839748657565 23.204251989043957 377.50000000000006 20.925222398047183 747.50000000000011 457.50000000000006 4.9850000000000003 77.500000000000014 3.7500000000000004 17.500000000000004 35.436819927801544 13.638658588435375 9.6500000000000021 47.500000000000007 33.400000000000006 11.750000000000002 417.50000000000006 3.5500000000000003 129.00000000000003 29.350000000000005 6.8600000000000003 10.000000000000002 141.50000000000003 31.126489811610924 25.700000000000006 72.500000000000014 227.50000000000003 17.500000000000004 2.9500000000000006 6.5000000000000009 16.500000000000004 330.50000000000006 3.7000000000000006 12.000000000000002 2.8000000000000003 62.500000000000007 15.500000000000002 12.500000000000002 72.500000000000014 129.00000000000003 77.500000000000014 12.000000000000002 132.50000000000003 129.00000000000003 12.995000000000001 147.50000000000003 4.5500000000000007 29.500000000000004 57.000000000000007 133.00000000000003 1.175 1.0000000180025095e-35 32.500000000000007 10.850000000000001 16.648086305263174 14.500000000000002 183.50000000000003 5.7600000000000007 99.500000000000014 4.0826233762047526 57.000000000000007 72.500000000000014 2.4000000000000004 43.000000000000007 15.155000000000001 49.650000000000006 23.828163813030319 1.175 31.179675150956509 25.500000000000004
decision_type=2 2 2 2 2 2 2 2 2 2 2 2 2 2 2 2 2 2 2 2 2 2 2 2 2 2 2 2 2 2 2 2 2 2 2 2 2 2 2 2 2 2 2 2 2 2 2 2 2 2 2 2 2 2 2 2 2 2 2 2 2 2 2 2 2 2 2 2 2 2 2 2 2 2 2 2 2 2 2 2 2 2 2 2 2 2 2 2 2 2 2 2 2 2
left_child=1 10 28 27 5 6 7 9 -9 31 11 12 13 14 15 -1 29 18 19 70 21 -20 23 83 25 -25 -23 -4 78 35 -31 -5 -6 63 36 76 -29 38 -15 51 42 -42 -41 44 45 46 47 -44 49 50 -47 52 53 -37 55 86 -57 58 -53 60 -54 -62 -26 -8 -3 66 -66 -67 74 -70 -18 -22 73 -40 79 -76 -13 -16 -2 80 81 -69 -61 84 85 -19 -55 89 -89 90 -59 92 -92 -94
right_child=2 64 3 4 32 -7 33 8 -10 -11 -12 16 -14 37 77 -17 17 22 20 -21 71 26 -24 24 62 -27 -28 34 -30 30 -32 -33 -34 -35 -36 39 -38 -39 72 40 41 -43 43 -45 -46 48 -48 -49 -50 -51 -52 57 59 54 -56 56 -58 87 -60 82 61 -63 -64 -65 65 67 -68 68 69 -71 -72 -73 -74 -75 75 -77 -78 -79 -80 -81 -82 -83 -84 -85 -86 -87 -88 88 -90 -91 91 -93 93 -95
leaf_value=-0.050498872379338561 0.073199134563878082 -0.043848248757770693 0.38542392322580898 -0.051001947864769914 0.22934978675182971 -0.050673691759812324 0.40559117900357733 0.56017260174651706 2.3555065052191395 1.1649224456968759 -0.079048842821972165 0.019874821615596078 0.59998464738973478 -0.0033612597009448925 -0.11308659785358409 -1.1312257733296751 0.036163116550219969 -0.0082272046748365756 1.2002323006270361 -0.33366118104135861 -0.056360379103930297 -0.03520911530738393 -0.053195852067172582 0.66554786698363866 -0.050742871045178196 1.6211658477459361 0.72095080216511531 0.14520386058128615 0.13239218240096437 1.6204956529672867 -0.050729251754468546 0.61799408557460778 -0.050633831304097647 0.51037667268610576 0.53417242891811889 0.78789037327876477 -0.036108784861233485 -0.071601713463288738 0.2555513871302903 0.28034487800870095 2.2187677692818624 -0.050299186698128967 -0.050159272054806331 -0.02226123463906176 -0.034727960086106915 -0.050160273437501804 1.2631173124634316 0.81362676278199331 0.053658485750639806 0.13336119085839868 3.1245964630164433 -0.74506291590556584 0.017757621079863697 0.28067231937331166 0.41374026091318084 1.7008144450798135 -0.050191932571458021 -0.060644011268770261 -0.080066818855112382 -0.06163815072705503 1.2598305932907001 -0.050161578621183117 0.34564942264889981 -0.050245229482733515 -0.050156739460473658 0.50659611009433625 1.5657749117224353 -0.050156581714990628 -0.050160932224410426 1.5590537783919585 -0.14337707800544247 0.10235866039704317 0.22493839439712118 -0.0551234881436563 0.41990908457273035 -0.052724469992170002 0.24752495016877321 -0.035359823054975356 -0.090133086852956373 -0.037503225567348218 -0.050203793534571363 0.89899213850854531 0.2007018501112508 0.017216895951835159 0.44723452820750453 0.32473824840812643 -0.016581787462596181 -0.032101570649774418 0.13309239621460842 -0.30421883255892779 -0.017201401408304843 0.27770339629117125 -0.050176573839171859 0.85641477710503477
leaf_weight=0.12239304417744712 0.64750345796346565 160.19966986670624 0.22745147626847062 0.19236684450879715 0.69403037708252646 0.23514725919812907 0.10807966440916061 0.081607245607301593 0.062349319225177169 0.082288666861131787 4.9192167101427904 0.47667170967906602 0.079340803669764592 4.4730598041787744 3.631771680666132 0.087322290055453777 2.6648099024314424 0.7286815734114509 0.079963278723880982 0.50424750498495985 0.78291797055862877 0.20366689073853195 0.55657946318387974 0.069822765886783489 0.14484959212131798 0.059794841334223747 0.064685977296903729 0.89213258679956275 0.99915003846399475 0.059842166956513121 0.2310842489823699 0.074661377817392349 0.54908148944377899 0.17638852912932634 0.085315824253484496 0.11918507074006113 2.2620305183809251 2.0446005212143064 0.27743814070709039 0.54125854372977933 0.044064766960219326 0.14919422962702811 0.14548643003217732 6.3276698200497776 1.900308627868071 0.050911562284454592 0.076027816161513329 0.057700484758242965 1.224726384039968 0.25219668308272958 0.031498493161052465 0.13259713212028401 1.7861347903963176 0.14904760080389801 0.21398287778720249 0.057107159635051974 0.14944317232584581 8.5410211421549302 0.40878067770972848 4.3289456644561142 0.07621807837858785 0.095749861560761929 0.37214813404716551 0.28011509077623487 0.03738286066800256 0.089374802540986731 0.030941922217607498 0.059129235567519589 0.069808441679925504 0.031070502940565348 0.5694012539461254 2.4108370686881244 1.0135432954411951 0.5471112160012126 0.21127816103398878 0.29682387947104871 0.5906406647991389 5.5825957437045872 2.0836912700906396 7.8136202599853277 0.44318405538797379 0.10518601862713695 0.19539140537381161 0.63929302897304285 0.33050721907056857 0.38953621801920235 1.9133684465195981 2.3835738272173326 1.2309818330686537 0.19841298158280629 3.2527709535788762 0.2946778933983295 0.053180543240159639 0.05508692585863173
leaf_count=29 34 50218 18 40 39 50 1 7 15 19 65 24 8 641 477 10 65 27 19 12 63 37 52 15 32 6 4 26 29 13 41 3 138 5 5 16 401 62 6 14 6 39 46 1110 315 16 8 2 229 17 10 8 278 13 16 13 44 487 42 866 8 30 12 74 12 8 10 19 22 9 9 50 20 45 21 36 5 1149 241 2362 132 15 18 20 9 11 127 127 14 6 281 18 16 5
internal_value=0 -0.0293267 0.0757166 0.124122 0.222392 0.334599 0.42024 0.658392 1.33775 0.378422 -0.000221093 0.00563418 -0.0312539 -0.0340708 -0.0756643 -0.500497 0.0192549 0.0661168 0.0253504 -0.0410648 0.095448 0.388839 0.156297 0.198935 0.409348 1.10639 0.147062 0.0522366 -0.00218028 0.00614705 0.293034 0.13605 0.105681 0.212168 0.0288427 0.00392161 0.0151742 0.0128407 0.0401972 -0.00023591 0.0338899 0.467068 0.025998 0.0123222 0.0708516 0.179978 0.485939 0.195136 0.125192 0.38702 1.16328 -0.0146141 0.0195382 0.108439 0.0758242 0.0439558 0.433927 -0.0333596 -0.242941 -0.0161477 0.0627834 0.530441 0.23459 0.076667 -0.0415515 -0.0015056 0.681643 -0.00662387 -0.0117034 0.445474 0.00455404 0.0634502 0.146198 0.04941 -0.0168684 0.143805 0.145854 -0.0659952 -0.0514108 -0.026563 0.11415 0.557439 -0.0503085 0.133774 0.185209 0.107763 0.0049003 -0.0262725 0.0241573 -0.0409784 -0.0366961 0.0192547 -0.00340472 0.411101
internal_weight=0 240.533 9.73339 6.00305 2.53612 1.293 1.05786 0.493273 0.143957 0.349317 71.1451 66.2259 17.8592 17.7798 9.42408 0.209715 48.3667 10.5717 7.28053 3.73846 3.54207 0.348316 3.29121 2.73463 0.646615 0.129618 0.268353 3.46693 3.73034 37.7949 0.290926 0.267028 1.24311 0.564583 3.23948 37.504 3.15416 8.35575 6.31115 36.4367 10.801 0.193259 10.6078 10.0665 3.73886 1.83855 0.279215 0.203187 1.55933 0.334607 0.0824101 25.6357 9.08457 2.60213 2.48295 2.26897 0.20655 16.5511 0.541378 6.48244 1.9581 0.171968 0.516998 0.388195 169.387 9.1878 0.0683248 9.11948 9.0301 0.100879 3.23421 3.19376 1.83809 0.824549 8.92922 0.508102 1.06731 9.21437 2.73119 8.42112 0.607499 0.164315 4.52434 2.08802 1.44873 1.11822 2.06242 16.0097 3.61456 12.3952 12.1967 3.65572 3.36104 0.108267
internal_count=61292 60147 1145 841 391 214 164 84 22 62 7283 7218 2447 2439 1665 39 4771 443 259 86 173 60 184 132 65 21 41 450 304 4328 54 43 177 80 432 4274 427 774 712 4245 1812 45 1767 1753 643 328 56 48 272 43 26 2433 1429 229 213 197 57 1004 50 1200 316 38 44 75 52864 2646 22 2624 2616 31 74 113 71 51 2585 57 29 1626 275 2528 166 34 884 67 47 38 140 954 141 813 807 320 302 21
is_linear=0
shrinkage=0.05


Tree=3
num_leaves=95
num_cat=0
split_feature=4 2 9 9 16 3 10 14 17 10 9 13 3 0 16 9 0 9 9 7 10 10 13 4 4 0 6 6 14 10 7 7 9 7 11 14 4 10 8 15 14 15 10 6 15 4 3 13 0 4 13 4 16 7 8 10 9 15 0 16 5 11 4 15 11 13 7 11 13 9 13 14 4 8 0 5 6 3 3 16 3 11 14 8 5 17 15 15 17 13 8 16 13 11
split_gain=34.093 26.6988 9.57421 16.1269 10.9972 9.2308 13.2736 13.7061 12.7324 12.4393 15.9567 9.22417 9.04834 8.9205 8.88341 8.83546 7.83473 7.87646 13.5304 7.86467 9.75321 7.72336 7.64051 7.40155 9.99402 7.85989 7.17073 6.40484 9.85024 7.26727 6.28531 6.2731 5.73308 8.07727 6.99788 14.35 6.05571 21.2778 13.4188 15.4986 5.92988 16.7729 70.616 7.8786 5.27599 9.47466 8.65443 7.01541 5.11895 17.9394 29.0025 7.68237 22.2324 6.47581 5.02876 4.89327 5.0892 4.57746 4.57163 4.54384 4.4039 4.39943 16.1399 9.89103 21.873 29.8769 9.22973 6.40522 6.17849 10.2626 9.22043 10.8946 7.98528 6.46848 7.63339 5.2139 5.18722 4.57126 4.34361 8.61371 5.37838 14.6481 6.01029 4.12711 4.12205 4.10149 13.822 4.00165 10.6767 3.96883 3.94506 3.70158 3.69942 12.4086
threshold=487.50000000000006 1.0000000180025095e-35 1.9750000000000003 1.175 129.00000000000003 20.793638897616464 110.04313250563187 21.000000000000004 4.1826233762047531 117.50000000000001 0.96000000000000008 29.500000000000004 13.638658588435375 72.500000000000014 141.50000000000003 1.4250000000000003 72.500000000000014 1.2300000000000002 1.4250000000000003 6.8600000000000003 129.00000000000003 149.00000000000003 14.500000000000002 197.50000000000003 202.50000000000003 82.500000000000014 105.00000000000001 144.00000000000003 12.500000000000002 244.50000000000003 7.2550000000000008 3.8300000000000005 1.4250000000000003 12.995000000000001 7.5000000000000009 11.500000000000002 277.50000000000006 283.00000000000006 24.550000000000004 0.50000000000000011 32.500000000000007 0.82000000000000017 157.50000000000003 183.50000000000003 0.55500000000000005 87.500000000000014 23.053665910808771 13.500000000000002 67.500000000000014 442.50000000000006 37.500000000000007 282.50000000000006 141.50000000000003 3.0250000000000004 30.900000000000002 194.50000000000003 2.3750000000000004 0.50000000000000011 67.500000000000014 129.00000000000003 9.3000000000000025 11.000000000000002 227.50000000000003 0.59500000000000008 18.750000000000004 33.000000000000007 10.660000000000002 7.5000000000000009 57.000000000000007 1.3050000000000004 44.500000000000007 28.500000000000004 137.50000000000003 35.400000000000013 72.500000000000014 8.9000000000000004 216.50000000000003 23.828163813030319 31.065759637188211 133.00000000000003 31.179675150956509 12.500000000000002 10.000000000000002 49.650000000000006 9.9500000000000011 3.3000000000000003 0.59500000000000008 0.59500000000000008 4.5500000000000007 44.500000000000007 40.550000000000004 142.50000000000003 12.000000000000002 26.500000000000004
decision_type=2 2 2 2 2 2 2 2 2 2 2 2 2 2 2 2 2 2 2 2 2 2 2 2 2 2 2 2 2 2 2 2 2 2 2 2 2 2 2 2 2 2 2 2 2 2 2 2 2 2 2 2 2 2 2 2 2 2 2 2 2 2 2 2 2 2 2 2 2 2 2 2 2 2 2 2 2 2 2 2 2 2 2 2 2 2 2 2 2 2 2 2 2 2
left_child=1 12 3 4 -3 11 13 8 90 10 -10 26 14 59 -1 -9 32 78 19 -19 -21 89 -5 44 30 27 -2 28 -26 91 -25 -20 33 36 35 -35 92 38 39 -38 -36 43 -43 -42 45 -6 47 -47 85 51 53 52 -50 -51 -15 56 -4 -49 -59 -7 -61 62 75 64 65 76 67 -64 70 77 73 -72 -71 -65 84 -24 -63 -70 -18 -80 81 -81 -83 -53 -75 86 -40 88 -34 -11 -8 -29 93 -14
right_child=5 2 55 22 23 6 7 15 9 21 -12 -13 16 54 -16 -17 17 18 31 20 -22 -23 61 24 25 -27 -28 29 -30 -31 -32 -33 87 34 40 -37 37 -39 48 -41 41 42 -44 -45 -46 46 -48 57 49 50 -52 83 -54 -55 -56 -57 -58 58 -60 60 -62 63 66 68 -66 -67 -68 -69 69 72 71 -73 -74 74 -76 -77 -78 -79 79 80 -82 82 -84 -85 -86 -87 -88 -89 -90 -91 -92 -93 -94 -95
leaf_value=0.033374425059335015 0.2291922502446323 0.18103489683689331 0.05150897941400448 -0.086198764786937832 -0.074250724427078738 0.2406494218532258 -0.050283654591826543 -0.048651436274473575 1.0230395016618814 -0.050716181706148805 0.2806019520824074 -0.077384740577949723 -0.050991890175912429 0.3690074439948447 0.3692371247750596 0.2040831132491685 -0.026128527148613551 0.038682780240689024 -0.34658186301764926 0.1546402055684708 0.53644797731205796 0.37712009860838513 -0.38755773575590524 0.065070560861591006 0.40442362029865753 0.43889467680356709 0.011681158917724444 -0.064022407565410583 0.040378003615091904 0.16813690284261615 0.38503067243931965 -0.0072433918435229096 -0.050258285091821842 0.59952065756399975 -0.050628398491331938 0.037081600575297087 0.7316020851805789 1.0795300874271951 0.87149019776760006 -0.050187301424346221 0.16341932311533333 -0.050161614882473574 2.3091781449887985 -0.061409438223150162 -0.043402715019919769 0.38268954430122476 -0.06594959291963258 0.03086961270690132 -0.05015595660651561 0.455968176967461 1.214828736521758 -0.047697781590202978 1.5063956518322861 -0.050330618323743193 0.09733381709553518 -0.18917930013994649 -0.085456705660129403 0.10886149871046119 0.3739995603329313 0.10481294241200348 -0.058020918550042488 1.2804362369453663 0.18980638797276239 -0.032188363590718416 0.059207046175824209 0.1336288650594972 0.040224396708464838 0.62338476292040523 0.14884185295538196 0.20326088717906685 0.068749677142122656 -0.37764856801480035 0.0082814176528057306 0.084645562087929505 0.20290668013582791 -0.068055190002861296 0.75404787269467199 0.36860366194877209 0.57131675938891024 1.0001118948430052 -0.050389277180939107 0.37476441632139279 -0.05306043372153213 0.18994404884084434 -0.080391454825449668 -0.039082080139179722 -0.050213957296488788 -0.098804066317943334 -0.96352899833127847 0.28703088861320919 0.18950366977278865 0.12940865831018358 -0.045673333340973322 -0.36812267334919863
leaf_weight=1.2511039066594083 0.55725718406028901 0.74875531136058526 0.99141777725890268 0.8269197850022455 1.8325233664363683 0.16809997172094959 0.3066760050132874 0.87626715167425551 0.13947083987295605 0.22000590339303017 0.15042536123655736 1.932200387585908 1.5017825898248691 0.23596363654360164 0.23364469688385714 0.57125227898359299 29.353472120594237 0.54060292802750998 0.15999676799401619 0.47087542968802154 0.25940801203250885 0.57549593830481172 0.14318755967542474 0.30586262489668925 0.21868983400054265 0.10639246087521304 1.1839665835723279 3.3866118836449464 1.2359687520656732 0.42682961374521244 0.30809849826619029 0.91543897474184632 0.090625386917963069 0.15350489458069105 2.4696995893027633 0.43415871984325349 0.12750711524859681 0.044259960763155415 0.054208812536674311 0.12607944523915648 0.61147644650191058 0.12605408206582058 0.042376604396849871 1.0741629533004013 14.733565389295107 0.22838076530024487 0.8646483418997376 1.2525985992979261 0.080272036837413796 0.097632169723510631 0.078984757419675589 2.2244341415353124 0.032119494397193193 0.17885652417317033 0.61244056653231382 0.69080461468547572 2.1468153274618089 0.57442996581085015 0.22675918834283948 0.51198287773877416 2.1972225531935692 0.075105338124557219 0.2004708454478531 1.4450388269033263 0.79646929097361863 0.25264822685858235 0.51010162383317947 0.14811404375359416 0.47994777723215554 0.73790027084760401 0.26236077654175449 0.28532436722889543 1.8209750608075408 1.2369448591489347 1.0742346516344694 1.1797033669427035 0.12419133353978395 0.46675887180026621 0.079994550207628801 0.047598894452675955 0.71183418831788003 0.11596167157404125 0.28106950595974922 0.19904955569654692 0.54506866657175113 14.07739913871046 0.16292354953475296 2.7474948156159371 0.049471602775156498 0.1438525915145874 0.38924083602614701 0.26681465446017671 131.57999844057485 0.38818040629848827
leaf_count=88 10 20 20 74 224 8 80 216 5 39 16 91 429 20 8 14 7426 52 6 32 12 18 9 19 15 11 203 617 67 14 18 66 26 19 266 35 9 14 9 39 7 40 8 54 2446 19 166 90 26 1 10 502 8 49 23 7 28 42 8 15 377 7 7 101 9 10 7 14 15 13 5 15 27 20 17 65 15 11 4 12 188 4 57 10 20 4145 49 180 2 1 9 35 41878 50
internal_value=0 -0.0287865 0.00676855 0.0141168 -0.0078811 0.0621706 0.0954673 0.16733 0.254731 0.35148 0.637793 -0.00217064 -0.03673 0.0304141 0.0862268 0.0510883 -0.0376823 -0.0154898 0.0727966 0.183248 0.290264 0.26312 0.0607186 -0.0133282 0.0340592 0.0132096 0.0812929 0.00502703 0.0951077 -0.0270878 0.225633 -0.0577281 -0.0422866 -0.0409933 0.022109 0.183998 -0.0430464 -0.0153767 -0.0181554 0.342908 0.000106028 0.0676864 0.54344 0.0201486 -0.0283651 0.0161302 0.0687629 0.119802 -0.0234831 0.0371918 0.36984 -0.00943806 0.394679 0.128451 0.172893 -0.0687062 -0.0421871 0.0905685 0.183903 -0.0115974 -0.0272487 0.0710278 0.00693206 0.0855889 0.21686 0.494695 0.175735 0.374034 0.0659731 0.116543 0.0294132 -0.163808 0.0645074 0.0540162 0.0976289 -0.102638 0.952418 0.257192 -0.0222616 0.0695391 0.0348303 0.171263 0.0718952 -0.0281794 0.0341653 -0.0357558 0.179897 -0.112095 -0.372756 0.0828132 0.0838344 -0.0498959 -0.046671 -0.116128
internal_weight=0 236.331 43.1574 39.3284 26.7169 10.7718 7.0984 3.37269 1.92517 1.22925 0.289896 3.67342 193.174 3.72571 1.48475 1.44752 191.689 32.9363 2.34632 1.27089 0.730283 0.939354 12.6115 25.9682 6.25527 5.64131 1.74122 5.53491 1.45466 4.08026 0.613961 1.07544 158.753 155.865 4.91143 0.587664 150.954 17.4837 17.4395 0.253587 4.32377 1.85407 0.168431 1.68564 19.7129 4.97934 3.14682 2.28217 17.1859 2.89135 0.355473 2.53588 0.112392 0.276489 0.848404 3.82904 3.13823 2.05379 0.801189 2.87731 2.70921 11.7845 2.18158 9.60297 1.24841 0.451945 0.858687 0.348585 8.35455 3.50558 4.84897 0.547685 2.55888 4.30129 2.85625 1.32289 0.199297 0.946707 30.5899 1.23646 1.15646 0.44463 0.397031 2.42348 1.78201 14.2945 0.217132 2.88759 0.140097 0.363858 0.695917 3.65343 133.47 1.88996
internal_count=61292 60147 4327 4272 3811 1145 841 398 168 79 21 304 55820 443 96 230 55724 7859 168 96 44 58 461 3791 796 759 213 748 82 666 37 72 47865 47657 429 54 47228 4871 4857 48 375 109 48 61 2995 549 325 159 4809 606 60 546 34 50 43 55 48 140 50 400 392 387 102 285 41 32 28 21 244 66 178 20 40 158 57 74 22 26 7691 265 261 73 61 512 40 4203 58 208 28 40 89 652 42357 479
is_linear=0
shrinkage=0.05


Tree=4
num_leaves=95
num_cat=0
split_feature=12 4 4 10 3 15 12 8 17 3 6 3 6 6 4 5 5 2 3 14 13 12 4 10 3 11 5 7 5 11 4 11 15 6 3 15 5 10 3 8 7 10 7 6 7 10 10 15 14 10 5 3 17 5 4 8 5 11 8 16 14 14 7 4 12 17 15 16 5 4 4 4 5 3 7 10 4 7 16 6 4 12 4 8 11 11 5 16 10 15 12 5 4 8
split_gain=34.5354 20.5732 7.19074 7.02461 7.33965 6.96218 13.6021 6.91705 8.97116 6.52284 6.44166 5.89702 7.16468 6.35529 5.70062 12.2448 11.2975 9.71841 13.1826 11.0816 24.6212 31.0732 20.2294 6.77915 21.6993 13.1462 10.0017 6.43331 4.85718 21.1684 4.54871 4.50942 8.88528 9.41248 8.18213 8.00764 13.4662 10.6424 16.5291 18.5297 10.0967 9.06934 8.81332 8.15622 7.32563 6.55256 6.55084 7.82924 8.05519 7.52352 8.2098 9.47857 6.12191 6.80725 8.98057 12.0971 7.72521 5.96411 5.91039 5.85479 5.72859 7.49394 15.7869 13.9725 13.5704 7.18403 11.4285 5.28745 4.93493 4.85566 10.2152 9.9868 11.0095 7.11846 22.4315 5.22989 15.949 20.4918 6.17517 5.33264 9.38429 14.2011 6.0384 5.05118 4.8097 4.65873 4.47879 22.9836 4.4006 4.38679 4.228 4.21877 4.15598 6.2107
threshold=3.7500000000000004 487.50000000000006 577.50000000000011 157.50000000000003 35.498392870187743 4.2950000000000008 2.6000000000000005 40.550000000000004 4.8500000000000005 26.037003036508725 194.50000000000003 18.624503796199949 183.50000000000003 377.00000000000006 142.50000000000003 7.8500000000000005 7.8500000000000005 1.0000000180025095e-35 33.296172610526348 17.500000000000004 20.500000000000004 3.8500000000000001 272.50000000000006 194.50000000000003 37.664399092970534 8.5000000000000018 10.550000000000002 9.865000000000002 8.4000000000000004 7.5000000000000009 117.50000000000001 11.000000000000002 0.55500000000000005 105.00000000000001 27.691245962292367 0.87463685866049456 8.4000000000000004 244.50000000000003 20.925222398047183 30.350000000000005 9.2050000000000018 194.50000000000003 3.8300000000000005 144.00000000000003 4.9850000000000003 135.00000000000003 194.50000000000003 1.0150000000000003 99.500000000000014 157.50000000000003 9.9500000000000011 16.648086305263174 3.4500000000000006 11.150000000000002 182.50000000000003 28.800000000000004 8.4000000000000004 43.000000000000007 49.650000000000006 133.00000000000003 21.000000000000004 16.000000000000004 8.6400000000000023 187.50000000000003 2.8000000000000003 3.4500000000000006 0.59500000000000008 146.00000000000003 8.9000000000000004 72.500000000000014 112.50000000000001 107.50000000000001 11.150000000000002 17.982361919837192 10.660000000000002 110.04313250563187 122.50000000000001 15.155000000000001 133.00000000000003 251.50000000000003 297.50000000000006 3.5500000000000003 202.50000000000003 29.850000000000005 20.250000000000004 32.500000000000007 10.850000000000001 133.00000000000003 283.00000000000006 0.75500000000000012 2.4000000000000004 8.4000000000000004 97.500000000000014 26.750000000000004
decision_type=2 2 2 2 2 2 2 2 2 2 2 2 2 2 2 2 2 2 2 2 2 2 2 2 2 2 2 2 2 2 2 2 2 2 2 2 2 2 2 2 2 2 2 2 2 2 2 2 2 2 2 2 2 2 2 2 2 2 2 2 2 2 2 2 2 2 2 2 2 2 2 2 2 2 2 2 2 2 2 2 2 2 2 2 2 2 2 2 2 2 2 2 2 2
left_child=2 14 5 4 7 31 30 8 11 -5 -4 12 -3 -13 15 -2 -16 23 19 20 -19 -22 -23 -18 25 -25 -27 -24 29 -17 -7 88 44 34 46 43 40 42 -39 -40 41 -37 45 59 67 -38 47 57 49 50 51 -49 -46 56 -55 -56 -54 -34 -53 -35 61 65 -63 -64 -65 66 -45 91 -58 -44 71 73 -73 74 -71 76 77 -72 -77 82 -81 -82 -78 -75 -70 -48 -8 -88 92 -9 -36 -33 -1 -94
right_child=1 3 10 9 -6 6 86 89 -10 -11 -12 13 -14 -15 16 28 17 18 -20 -21 21 22 27 24 -26 26 -28 -29 -30 -31 -32 32 33 35 90 36 37 38 39 -41 -42 -43 69 60 52 -47 85 48 -50 -51 -52 58 53 54 55 -57 68 -59 -60 -61 -62 62 63 64 -66 -67 -68 -69 84 70 75 72 -74 83 -76 78 79 -79 -80 80 81 -83 -84 -85 -86 -87 87 -89 -90 -91 -92 -93 93 -95
leaf_value=-0.052121845523708882 0.54530675742673995 0.57960707463784533 0.0010620992490450144 -0.050444837258476233 0.47842509990021354 -0.55064635032131293 -0.059297355670397227 0.33743107353981672 0.25698915564605496 0.34497546346501257 0.14738710430392929 -0.062188718677461889 0.057154164930776796 0.26468556967851631 -0.60442478177081804 -1.3936983474470725 -0.037604033068408017 -0.013829332164309052 0.7620525707764445 -0.027517701371352496 1.3305635240328646 -0.050700177423831067 0.25824040012308463 0.74537146700155921 1.2254383787189944 0.26237643470350813 -0.050613879457636783 0.68153024349582814 -0.048629518064266887 -0.050178534817858667 -0.20753183464991795 0.079573065479579874 -0.054456377952131596 0.2205251657212578 0.27428953447668336 -0.050246687092367105 0.062806968853113279 0.027911312647491495 0.15428706249695187 0.67373999853755739 -0.044049114201747341 -0.6479886699191878 -0.055871219242767972 0.42949571346841176 -0.019888807987427034 0.35987595587653254 -0.057799151002898598 0.29224085889568391 0.18188898171215118 0.092544323577131465 -0.1215605034810615 0.049333278074013449 0.26314035465686092 0.082678294952372652 0.5508231746643043 0.1101930489644323 -0.073492137841735181 -0.26591428332893868 -0.13403853576979916 0.031036585674640883 -0.068291517010353339 -0.064613700541871641 0.11573532636782842 0.26215815950214427 1.0269709582738786 -0.054219798812724977 -0.0040814384679164423 0.13944267461344156 0.018694289396742652 -0.050146886031730259 -0.050149370524690255 0.11342350944768774 0.57418990476953358 0.1155409615097593 1.641190495818339 0.12197972728252322 0.094689756927061788 1.0473989734317626 -0.032999884462179684 0.0017712331380900827 0.1404791148111651 0.73319000895802766 -0.069060112908480117 -0.053918615511758063 0.15579196260974659 -0.18020480967072022 1.3360518248651205 -0.050221909750041233 -0.26405097715126508 0.085427568178890481 0.034232614143213304 -0.086395813835065394 0.068555760844944899 -0.018135408386935153
leaf_weight=5.7288266886025729 0.086707402486353113 0.079245469765737542 1.4258349784649902 0.14453727519139636 0.093966012587770709 0.16914564196485971 1.5169101194478569 0.25441778358072031 0.32044227421283711 0.37457976629957557 1.591874166857451 2.8450836273841564 0.38167560566216707 0.15690164314582933 0.085231426404788091 0.03597630374133487 55.510719681624323 1.2892285333946341 0.061555101769044884 3.5153740015812218 0.072420822922140249 0.31721853720955551 0.16020840592682362 0.062848221510647728 0.039184261579066404 0.31490360852330912 1.3472080391366033 0.20414262381382287 93.7384002537583 0.15842183004133403 0.22519724769517779 0.49843108537606795 4.245698819053354 0.52897060732357148 0.29548963159322816 0.11381343426183121 0.38378762663342314 0.87715432723052689 0.45615221979096532 0.27528474223800004 1.4743812612723557 0.14342922950163484 1.4787747478112567 0.20605916855856587 1.1417046110145745 0.35950516071170568 2.1556068807840361 0.28602854488417584 0.64897902100346971 1.4562520219478754 1.7411616134922949 1.2262621007394043 0.47142233536578748 0.70020400336943545 0.33089078380726278 0.29431264637969434 0.6778122864197943 0.3618774190545081 0.68484679074026633 1.7773637869395313 5.1340086490381509 0.9114788861479608 0.74937283433973789 0.15459616528823972 0.092823226470500231 4.4933783734450117 0.57914073276333511 0.45647934079170216 1.4801528870593759 0.058193778619170078 0.079951723339034664 0.28436583746224631 0.2382694510743022 1.3284653064329175 0.029562341747805476 0.73542696307413269 0.91684838663786727 0.09085547924041748 5.1002500557806343 0.77630201564170398 0.48821898177266121 0.12743804394267499 1.458700174000114 0.6573333516716956 1.1266957075567914 1.215732008917257 0.036055602598935255 0.17510870285332203 0.1814373480156054 0.53760653338395059 0.48361452692188323 1.6517157119233159 2.5737254114355883 10.472884321585296
leaf_count=1132 12 12 57 37 6 11 135 13 32 23 67 649 37 13 11 8 19030 307 18 546 19 86 22 19 4 21 351 11 32346 53 11 8 180 13 2 33 50 18 13 18 31 5 219 7 58 14 24 8 13 19 53 48 17 111 23 36 15 5 7 151 622 191 53 2 22 827 41 2 109 20 27 17 15 97 10 34 101 2 515 96 29 18 176 104 24 13 6 51 7 34 23 88 303 1315
internal_value=0 -0.0375639 0.00253211 0.0603944 0.0409959 -0.000424971 -0.0897307 0.0320123 0.00388367 0.234879 0.0782501 -0.0195376 0.146979 -0.0451043 -0.0408012 -0.0485991 -0.0291603 -0.0283807 0.0343626 0.0263043 0.118905 0.345865 0.241235 -0.0345375 0.0619558 0.0355261 0.00868525 0.495406 -0.0491473 -0.298817 -0.354704 0.00209731 0.00921144 0.000626511 -0.032433 0.0156553 0.0380499 0.0522154 0.174271 0.349789 -0.0944804 -0.383526 0.0387604 -0.0117997 0.0552591 0.206489 -0.0411957 -0.0219687 0.0154616 -0.00456011 -0.0404661 0.0237986 0.0847338 0.10824 0.205661 0.343398 0.0738634 -0.0710642 -0.0163781 0.0744968 -0.0279535 0.000862411 0.0857794 0.223301 0.54909 -0.0298361 0.109702 -0.0151103 0.0466979 0.0297582 0.0399946 0.128155 0.323487 0.0789219 0.519613 0.0165773 0.0610988 0.533657 -0.013469 0.0396745 0.117386 0.263167 -0.00586048 0.0594469 0.0779487 -0.10194 -0.0292643 0.18648 -0.0189901 0.166377 0.125279 -0.0479221 -0.0166219 -0.0010337
internal_weight=0 162.188 80.288 5.18846 4.66934 77.2703 2.12242 4.57537 3.78335 0.519117 3.01771 3.46291 0.460921 3.00199 157 94.0195 62.9802 62.895 5.62015 5.55859 2.04322 0.75399 0.68157 57.2749 1.76414 1.72496 1.66211 0.364351 93.9328 0.194398 0.394343 75.1479 56.191 47.3612 14.8015 32.5597 17.9325 16.2008 1.60859 0.731437 1.73162 0.257243 14.5922 14.6272 8.82982 0.743293 14.0224 10.6511 6.04353 5.39455 3.9383 2.19714 6.2232 5.08149 1.32541 0.625203 3.75608 4.60758 1.91111 2.30633 12.3209 7.18685 1.90827 0.996792 0.247419 5.27858 0.7852 2.60663 3.28466 13.849 12.3702 2.59619 0.522635 2.07355 0.0877561 9.77399 3.93831 0.170807 5.83568 3.76751 1.39196 0.615657 2.37555 1.9858 2.60685 3.37134 1.72807 0.211164 18.9569 0.792024 0.779104 2.15015 18.7754 13.0466
internal_count=61292 53720 7572 856 796 7448 214 790 743 60 124 711 49 662 52864 32419 20445 20434 1009 991 445 138 119 19425 395 391 372 33 32407 61 22 7234 4477 3986 395 3591 1662 1593 49 31 69 38 1544 1929 491 64 370 333 148 135 116 63 393 335 170 59 165 185 55 164 1765 1143 268 77 24 875 48 98 148 1480 1261 263 32 231 30 998 449 29 549 420 143 47 277 201 133 37 192 57 2757 47 25 96 2750 1618
is_linear=0
shrinkage=0.05


Tree=5
num_leaves=95
num_cat=0
split_feature=12 4 9 0 2 9 6 2 4 13 4 10 0 8 5 0 7 16 16 4 9 5 9 16 10 0 16 4 13 8 4 16 17 15 10 7 7 12 10 16 5 4 4 9 17 16 0 6 12 10 13 8 4 10 4 12 4 17 9 5 8 7 11 6 15 1 13 9 17 9 5 4 16 7 8 9 7 5 9 4 17 0 4 17 8 9 11 6 5 17 12 16 15 0
split_gain=32.849 18.7073 12.8501 10.6017 9.46303 7.57625 13.7541 11.5981 8.63401 8.18532 7.8332 6.72106 6.13487 8.51158 6.13004 6.01649 9.68682 13.7972 13.3474 39.2764 71.3442 9.25848 9.63804 5.72672 7.76988 7.56934 6.18933 5.37709 5.267 5.18803 5.2665 5.06599 12.3873 4.92963 4.91758 12.2152 11.2655 5.63899 8.9791 8.18658 7.62231 7.49349 9.23126 7.22924 6.37616 5.59401 5.43757 5.29825 5.23732 7.3498 7.57935 4.81294 4.75068 4.62395 15.8479 9.9048 15.9688 42.9275 6.94678 6.19209 8.63836 5.89972 18.7151 5.69811 12.7087 91.6987 8.72238 5.46727 5.30835 4.61668 4.68031 4.46113 4.41576 4.2452 4.22278 4.09551 3.85821 8.84087 15.5521 3.84858 3.80473 4.87789 9.82488 4.41651 3.75923 4.85478 3.69921 5.78156 3.67158 3.61778 7.23059 3.59765 3.58593 4.08159
threshold=3.7500000000000004 487.50000000000006 1.9750000000000003 52.500000000000007 1.0000000180025095e-35 1.2300000000000002 78.000000000000014 1.0000000180025095e-35 417.50000000000006 19.500000000000004 132.50000000000003 244.50000000000003 47.500000000000007 33.400000000000006 9.3000000000000025 77.500000000000014 7.2550000000000008 129.00000000000003 142.50000000000003 142.50000000000003 0.94000000000000006 15.300000000000002 1.3050000000000004 134.50000000000003 107.50000000000001 82.500000000000014 139.23835850485972 147.50000000000003 25.000000000000004 35.400000000000013 422.50000000000006 138.00000000000003 4.1826233762047531 0.69500000000000017 244.50000000000003 8.6400000000000023 10.660000000000002 3.2500000000000004 149.00000000000003 129.00000000000003 7.8500000000000005 202.50000000000003 97.500000000000014 1.175 4.3000000000000016 141.50000000000003 77.500000000000014 144.00000000000003 2.9500000000000006 112.54313250563187 29.500000000000004 24.550000000000004 472.50000000000006 214.00000000000003 197.50000000000003 4.1184469875026348 252.50000000000003 4.5500000000000007 1.3050000000000004 7.8500000000000005 31.306175048197893 10.660000000000002 43.000000000000007 251.50000000000003 0.59500000000000008 1.0000000180025095e-35 57.000000000000007 1.6300000000000001 3.1000000000000005 1.0800000000000003 10.250000000000002 542.50000000000011 146.00000000000003 5.7600000000000007 28.800000000000004 1.3050000000000004 5.7600000000000007 11.450000000000001 0.99655727826455176 502.50000000000006 3.9000000000000004 62.500000000000007 187.50000000000003 3.5500000000000003 32.000000000000007 0.99655727826455176 8.5000000000000018 144.00000000000003 14.600000000000001 3.9000000000000004 4.1684469875026346 141.50000000000003 2.3650000000000007 82.500000000000014
decision_type=2 2 2 2 2 2 2 2 2 2 2 2 2 2 2 2 2 2 2 2 2 2 2 2 2 2 2 2 2 2 2 2 2 2 2 2 2 2 2 2 2 2 2 2 2 2 2 2 2 2 2 2 2 2 2 2 2 2 2 2 2 2 2 2 2 2 2 2 2 2 2 2 2 2 2 2 2 2 2 2 2 2 2 2 2 2 2 2 2 2 2 2 2 2
left_child=2 15 3 4 14 8 7 11 34 71 -9 -7 13 76 -1 53 -17 -18 21 -20 -21 22 89 -3 25 -25 28 31 33 30 -10 32 -11 -26 37 72 -37 38 41 -39 -41 42 44 51 -5 86 80 -47 -46 -50 -51 -43 -16 59 58 67 57 -57 -55 60 -2 -61 63 64 65 -63 68 -56 -66 -48 -71 -8 -36 -12 -35 -29 77 -6 -79 -76 81 83 91 -44 85 -81 87 -40 -86 90 -19 -83 93 -32
right_child=1 23 -4 5 12 6 9 10 29 27 73 -13 -14 -15 52 16 17 18 19 20 -22 -23 -24 24 26 -27 -28 75 -30 -31 92 -33 -34 74 35 36 -38 39 45 40 -42 43 46 -45 48 47 69 -49 49 50 -52 -53 -54 54 55 56 -58 -59 -60 61 -62 62 -64 -65 66 -67 -68 -69 -70 70 -72 -73 -74 -75 79 -77 -78 78 -80 84 -82 82 -84 -85 88 -87 -88 -89 -90 -91 -92 -93 -94 -95
leaf_value=-0.14813498192053864 0.70245862421846661 -0.19240374749244532 -0.072160335223546354 -0.035425808455757754 0.037397384298411933 -0.094333923265219249 -0.07589429123735629 -0.15359319279111422 0.34968399862598387 0.36833138205770632 0.013369145192509244 -0.38683749556658309 -0.06449979864946552 0.11354534872881328 -0.053246564516090771 -0.034679408261628186 0.86598575978008663 -0.051140057966544007 -0.050210525760286701 -0.050141304263860813 3.2245567294571482 0.54756970656861303 0.53347734320621787 -0.030710164215528576 -0.050485976876392426 0.39346196488567997 0.0042882594929994312 0.14324532699363721 0.041715629118539335 0.14537902190572013 -0.036363768838403671 0.080087029577302168 0.074186734409393162 -0.050729054389911425 -0.091728177864866908 0.28688313314805997 0.053841151924935465 0.18625461260907061 0.19926592460822812 -0.4927760742930361 -0.038875322426426696 0.17979108470896271 0.17969814061027514 0.16101463375720027 0.0030979368419360924 -0.037064817057135394 -0.061046257721781842 0.17645988610579377 -0.052091813826360502 0.089302243416206489 0.44379454503864341 -0.065397423113397565 0.083023611769115602 -0.047475518040420543 0.0018889598948109106 -0.050157153730329668 0.16819550797505273 1.9085400736525397 -0.44438214148200256 -0.046828310992647892 -0.040460446001176098 -0.050162344784126012 0.99294439108599775 -0.050202379747877147 0.28783816335728118 2.7257031645657976 0.49807103606970354 0.36161882166611869 -0.028600219753281461 0.181945930455055 -0.057396948955256211 0.17879348909056997 0.14789529811019417 0.16418217396002835 -0.05115527637862291 0.049831358045061364 -0.019953717722924001 -0.050152542568844639 1.417947962633729 0.22960805169852083 0.0848860927841142 -0.033706178149536796 0.64618403817877257 0.40747494411890051 0.0032761930670355296 0.49044301881592434 -0.070186411738816276 -0.086191394705310787 0.2924435675398972 -0.050573684255559817 0.26766841874326758 0.22854797395380319 0.13391862655784931 0.20812734662178911
leaf_weight=1.617440941627138 0.066413552965967848 0.22623959742486377 5.4453547867014995 3.6113603182602692 0.38011756306514133 1.2866895201150321 1.1247506556101132 0.42977320309728417 0.12433360191062037 0.70854689495172196 1.0100005313288418 0.23176242085173715 2.0198707203380764 2.2807677807286382 7.5018149577081186 6.2972407226916385 0.054507362656295633 0.4177233166992681 0.12935836939141143 0.036531063728034496 0.030534816207364202 0.083607350476086029 0.08545837434940029 2.0278862346895044 0.16141124768182713 0.11092849820852269 0.89296681433916081 1.5311188467312602 0.65547721786424507 1.6214732308872042 1.8353744850028313 1.1882549279252996 0.72331476700492203 0.11340077477507282 1.3648965335451055 0.71566941449418697 1.883171647088602 0.40470018843188782 0.34165015816688438 0.09327341546304424 11.042980884085408 0.21238684433046673 0.61880679009482242 0.45002683519851405 1.0717353740474207 0.61948731401935198 0.88224727381020762 0.54708658787421882 0.26311793620698143 0.30491884425282478 0.29829397797584534 3.4731370562221855 0.69918883871287096 2.7374890814535315 0.93038506573066093 0.061933333054184803 0.44096925295889378 0.051014775643125176 0.11486780829727639 132.86030847899383 0.095238721580244601 0.17102645034901742 0.047934979433193692 2.5634808326140046 0.14391296776011575 0.036016712430864573 0.090984202572144457 0.1191493347287178 1.6759158523636868 0.59417654806748033 0.31125197163783014 0.20296290097758163 0.22378094494342793 0.86731186660472293 0.088013808242976554 5.0213588906917721 4.1166587595362216 0.038362377090379596 0.034051263239234686 0.34737491724081315 2.4792056211736053 0.52617875911528245 0.071653337683528662 0.32436758605763316 0.17898532585240901 0.3667215786408633 5.4854746497003362 0.36891264840960503 0.28387419506907463 1.5493616038002072 0.30971407354809344 0.17402135487645864 0.51703979144804169 0.18820860376581539
leaf_count=149 11 19 78 214 44 61 95 13 9 28 17 4 62 72 1524 1975 5 87 41 13 7 19 6 403 37 1 208 59 80 66 212 47 31 26 67 15 19 18 2 6 2683 10 30 33 39 11 68 11 41 16 6 288 46 277 107 21 38 4 6 48325 11 58 18 882 3 6 11 1 439 12 21 3 1 16 13 126 583 13 7 20 230 99 10 20 27 13 179 22 9 461 32 8 20 8
internal_value=0 -0.0371003 0.00203811 0.00735029 -0.0253568 0.0180046 0.0495003 -0.031667 0.00752231 0.0790717 0.0389625 -0.138979 0.012077 0.0346575 -0.059174 -0.0403817 -0.000722177 0.0785707 0.0623273 0.458876 1.44082 0.030481 0.0121796 0.0538811 0.0645409 -0.0087107 0.115273 0.0958672 0.160418 0.0748588 0.0319513 0.156407 0.219742 0.210949 7.52424e-05 0.0512481 0.118016 -0.00612332 0.00817209 -0.0346492 -0.042677 0.0295748 0.0502833 -0.0281675 0.00383638 -0.0373707 0.0933721 0.0630716 0.0769969 0.168417 0.264602 -0.0512679 -0.0416286 -0.04289 0.00724034 0.133007 0.304064 0.834519 -0.0634594 -0.0445115 0.264762 -0.0448749 0.0100025 -6.24566e-05 0.0606276 0.43272 0.02031 0.0427276 -0.00357612 0.0203534 0.0996689 -0.0369611 -0.0579748 0.0830442 0.241564 0.0716594 -0.00472038 0.133857 0.640196 0.267767 0.124494 0.181751 0.0885375 0.258033 0.291616 0.363559 -0.0562817 0.0510611 0.180624 -0.00738697 0.084596 0.0314721 0.0164021 -0.0136242
internal_weight=0 156.654 81.5039 76.0585 18.6883 57.3702 14.3258 3.82554 43.0444 10.5003 2.30709 1.51845 8.86983 6.84996 9.81844 151.201 8.99404 2.6968 2.64229 0.196424 0.0670659 2.44586 2.36226 5.45328 5.22704 2.13881 3.08823 9.17259 2.19526 4.28643 2.66496 2.62012 1.43186 1.53978 38.758 4.18752 2.59884 34.5705 23.0295 11.541 11.1363 15.6669 11.5313 4.13555 5.54943 7.36261 5.98191 1.16657 1.93807 0.866331 0.603213 3.68552 8.201 142.207 4.45581 1.60345 0.553917 0.112948 2.85236 137.751 0.161652 137.59 4.72927 4.68134 2.11786 0.207043 1.91081 1.04953 1.81983 1.78768 0.905429 1.32771 1.58868 1.87731 1.37837 6.55248 4.56919 0.452531 0.0724136 1.26497 4.19423 1.71503 0.771853 0.943174 1.17696 0.714096 6.19604 0.710563 0.46286 2.2768 0.727437 0.7002 2.54062 2.02358
internal_count=61292 53720 7572 7494 2500 4994 500 111 4494 389 46 65 781 719 1719 52864 2646 671 666 61 20 605 586 856 837 404 433 291 225 315 249 106 59 145 4179 102 34 4077 1370 2707 2689 1145 814 331 316 225 498 22 102 63 22 298 1570 50218 454 171 63 25 283 49764 22 49742 1417 1399 517 64 453 108 442 101 33 98 68 33 108 185 647 64 20 82 397 167 117 50 69 33 203 24 36 580 119 107 240 220
is_linear=0
shrinkage=0.05


Tree=6
num_leaves=95
num_cat=0
split_feature=12 4 9 0 2 9 5 4 17 4 17 3 4 0 4 3 5 5 3 9 3 2 5 5 10 10 0 8 13 10 14 0 0 17 3 8 5 11 12 5 17 7 7 17 9 15 5 8 0 0 4 2 11 7 7 4 7 4 5 17 4 15 1 15 13 8 9 5 7 5 3 5 0 9 11 3 10 17 13 8 10 4 5 15 8 8 10 14 9 0 15 9 10 9
split_gain=31.6495 17.1802 11.5827 9.52259 8.73543 6.47663 10.923 7.4307 6.90663 10.3899 7.79718 5.85449 5.66152 11.5212 10.3857 9.57134 6.78123 7.4208 16.3853 6.6272 6.34863 16.8411 5.93844 5.63699 7.3982 5.50192 5.46739 7.37897 4.90714 6.08021 5.42498 5.27625 4.90432 9.78091 17.8219 4.71998 7.85441 5.96352 5.09284 6.12906 4.71594 4.70647 8.64536 6.46858 10.5037 6.18054 7.65462 5.19287 7.02112 4.84595 4.7005 4.68541 4.6399 5.98529 5.39966 5.57206 4.91729 4.61771 5.46128 5.31697 4.50661 4.4933 12.2735 4.4638 4.40284 4.27019 4.22403 4.1787 4.2737 4.03296 4.86802 5.25742 3.99644 3.93149 3.86199 7.95148 4.37609 4.10284 3.96246 3.7562 5.06842 4.51885 3.63756 8.50259 3.61835 3.60873 22.0943 3.53939 3.5104 5.84153 3.5102 3.43 3.39871 3.3497
threshold=3.7500000000000004 487.50000000000006 1.9750000000000003 52.500000000000007 1.0000000180025095e-35 1.2300000000000002 11.150000000000002 417.50000000000006 3.3000000000000003 167.50000000000003 4.4500000000000011 13.638658588435375 142.50000000000003 72.500000000000014 147.50000000000003 21.993220646419303 7.8500000000000005 9.6500000000000021 28.987380732533094 1.175 37.25274844182826 1.0000000180025095e-35 7.8500000000000005 10.850000000000001 283.00000000000006 167.50000000000003 47.500000000000007 33.400000000000006 57.000000000000007 107.50000000000001 21.000000000000004 82.500000000000014 82.500000000000014 3.9000000000000004 22.287968441814602 31.556175048197893 8.9000000000000004 43.000000000000007 3.2500000000000004 7.8500000000000005 5.1500000000000012 10.660000000000002 8.6400000000000023 3.5500000000000003 1.0800000000000003 0.59500000000000008 9.3000000000000025 30.900000000000002 77.500000000000014 72.500000000000014 532.50000000000011 1.0000000180025095e-35 26.500000000000004 15.155000000000001 7.6800000000000006 97.500000000000014 3.0250000000000004 182.50000000000003 12.350000000000001 3.3000000000000003 337.50000000000006 1.5100000000000002 1.0000000180025095e-35 0.69500000000000017 44.500000000000007 35.400000000000013 1.6300000000000001 10.250000000000002 17.980000000000004 12.350000000000001 19.028056070998034 13.950000000000001 87.500000000000014 1.175 13.734584809961961 31.065759637188211 214.00000000000003 3.1000000000000005 12.000000000000002 29.850000000000005 244.50000000000003 112.50000000000001 8.4000000000000004 0.44 24.550000000000004 49.650000000000006 93.500000000000014 8.0000000000000018 1.4250000000000003 57.500000000000007 0.50000000000000011 1.4250000000000003 244.50000000000003 1.0800000000000003
decision_type=2 2 2 2 2 2 2 2 2 2 2 2 2 2 2 2 2 2 2 2 2 2 2 2 2 2 2 2 2 2 2 2 2 2 2 2 2 2 2 2 2 2 2 2 2 2 2 2 2 2 2 2 2 2 2 2 2 2 2 2 2 2 2 2 2 2 2 2 2 2 2 2 2 2 2 2 2 2 2 2 2 2 2 2 2 2 2 2 2 2 2 2 2 2
left_child=2 12 3 4 23 7 8 11 9 -7 67 -5 22 16 15 -15 -14 18 19 -18 66 92 -2 24 50 69 27 -6 29 31 63 -3 61 34 -34 36 -13 41 52 -40 93 42 45 44 -44 57 64 -43 -49 79 -1 -36 54 -54 56 -56 -37 -38 59 -59 -60 74 -63 -31 -47 -9 85 88 -69 -8 -71 -72 -35 -17 75 76 77 -16 -79 80 81 -45 83 -24 -25 -19 -87 -57 89 -10 -4 -32 -22 -39
right_child=1 28 90 5 26 6 25 65 10 -11 -12 35 13 14 32 73 17 20 -20 -21 21 -23 82 84 -26 -27 -28 -29 -30 30 91 -33 33 72 51 38 37 40 39 -41 -42 47 43 49 -46 46 -48 48 -50 -51 -52 -53 53 -55 55 87 -58 58 60 -61 -62 62 -64 -65 -66 -67 -68 68 -70 70 71 -73 -74 -75 -76 -77 -78 78 -80 -81 -82 -83 -84 -85 -86 86 -88 -89 -90 -91 -92 -93 -94 -95
leaf_value=-0.10071544678895512 0.24463108098809716 -0.029850470632045017 0.030346195979400539 0.10665981519310913 -0.0050432684664730833 -0.26150406232021001 0.16583646474623373 0.029233751105021317 -0.05934294085987947 0.0059931142481659929 -0.053602696944004095 -0.06988053985516024 -0.42085813570149089 0.40823443292177858 0.23362425027291064 -0.05082382777517911 -0.050438428030690555 -0.043419657200727109 0.99225594294520281 0.19582456573425866 -0.050362282549986051 1.0542522060928781 -0.74483631165900344 0.17581882564284093 -0.3780672738857126 -0.054223827338410205 -0.062020939120084488 0.10336552281040023 -0.16197323434417923 -0.050431645301241348 -0.050569645586276982 0.28173962663808222 1.4922187519838033 -0.050642461535155336 -0.050300179230363035 0.22970362051522397 0.019237287172876309 -0.05530641779774749 -0.4655906609871634 -0.062781184445396654 0.29444850876556899 -0.040185525081165206 -0.050244930454095865 0.17960285738058368 0.62560636651513468 0.044630059876207197 -0.030339564211950276 -0.06564322903657982 0.30594546268358713 -0.05201028600233823 0.11879995503193362 0.45711914782278762 -0.070582272205292104 0.099531754010445631 -0.073791473890651618 0.21240258609238993 -0.044977153206310135 0.30316144420358832 0.36440709750442785 -0.052582087120835154 0.10038182633465179 0.44006510326307136 -0.052080430828622709 0.16811586456004385 0.29307696489329466 0.12965973477570203 0.18470328402785674 -0.061000722965468768 0.1957670110152997 0.23609001116781478 -0.046455562411643725 0.16330914249154119 0.2279515768368898 0.25655650030774219 -0.042617031388507733 0.49256398969239923 0.27521712282738814 0.18796672801900352 -0.05033782756309392 -0.052533314760910325 0.37906710072964311 -0.050289639142256884 -0.048412389193809163 -0.050158011028194206 -0.032855530918929322 1.2491537993309016 -0.050734260637097163 0.068594037951311332 0.036803129666206788 0.14814246003139192 -0.085222925499394017 0.1489749542399241 0.22493641071921766 0.11379436921046147
leaf_weight=3.582959093007958 0.17262632213532825 1.9613352892920368 0.76506198075367038 1.2432008169125754 4.6197207045042887 0.52211417444050212 2.5508323872927567 2.741514512570574 0.39520621206611251 1.1912116038147358 1.9311852635582907 2.6987250925740254 0.11513553350232442 0.31921077892184158 0.16852050088345905 0.30866962345317006 0.67789605166762956 48.919118319172412 0.047965053236111888 0.45761437457986176 0.31895475322380562 0.045264233835041523 0.062622562050818398 0.21622010134160508 0.22940338309854258 0.46932842466048885 1.9961792716057969 2.3774698656052351 0.26504938909783948 0.26385905547067601 0.75589899183250941 0.14597363770008076 0.032417967682704218 0.48348142858594656 0.085355127695947886 0.17369763401802485 1.7599118323996719 0.38739387760870059 0.096619024698155864 4.1782968014013022 0.2819064410869031 5.231343612773343 0.094248515786602538 0.81397178093902789 0.14739229762926698 0.48342323559336353 6.8904730874346569 0.2451064393389969 0.26409008237533271 0.47217652201652516 0.26167831197381008 0.09741654247045517 3.6529172682203352 0.60232247039675701 0.56300499360077116 0.54953491059131954 2.6291059534996748 0.13839409383945145 0.35628272336907685 0.43573553906753659 0.29581047408282757 0.20290992548689235 0.33722519362345338 2.0402834687847644 0.28254675935022533 1.7242528966162352 0.20553059200756152 1.0537001239135859 0.19150857883505512 0.33670227648690332 0.89585742866620399 0.4481307934038341 0.17543737357482314 0.15690718591213226 4.6926249279640615 0.092011554166674503 0.15314184688031662 0.19575244747102249 1.6019965175073592 0.23731168964877714 0.22612406755797554 0.28988095838576555 85.594579822674859 0.14850108453538269 5.2945763717871159 0.038481616880743696 0.2171801682561636 1.9323339019319972 2.4579195922706276 2.3949368777102791 4.6531492158537731 0.30115215247496963 0.17287440598011017 1.2000598120503125
leaf_count=523 12 399 12 29 647 14 78 249 16 15 72 172 10 23 2 93 219 17662 16 20 107 7 1 33 3 21 62 72 31 59 207 1 12 116 24 11 227 61 4 1004 12 282 28 28 15 55 1350 16 7 105 11 1 84 13 37 25 245 5 17 81 6 26 74 154 7 66 21 67 3 12 47 18 11 1 1368 17 16 2 529 49 4 78 32346 60 1149 13 54 108 63 74 66 5 1 14
internal_value=0 -0.0367683 0.00174873 0.00673744 -0.0244263 0.0166926 0.0452017 0.00692697 0.0159897 -0.0755232 0.0346012 -9.37024e-05 -0.0400957 -0.0283525 0.0234797 0.197354 -0.0375652 -0.0367016 0.0870434 0.0488064 -0.0396354 0.131341 -0.0483343 -0.0576371 -0.102233 0.1082 0.0109686 0.0317913 0.048135 0.0583186 0.100064 -0.00826657 0.00707562 0.119114 0.411787 -0.00362243 0.010312 0.0208516 -0.0261382 -0.0718852 0.105994 0.012324 0.0290578 0.11739 0.362 0.0101249 -0.0136709 -0.025349 0.127078 0.088408 -0.0857745 0.220152 -0.00678096 -0.0465029 0.0221239 0.068221 -0.0279544 0.0711374 0.145626 0.03317 0.244637 -0.00608015 0.132801 0.143089 0.136276 0.0680087 -0.041495 0.0608342 -0.0215108 0.126214 0.066079 0.023487 0.0235333 0.0527685 -0.0169455 0.0375293 0.0177746 -0.00227619 -0.0243894 0.130712 0.163409 0.119231 -0.0489237 -0.25621 -0.024668 -0.0424405 0.144922 0.100436 0.0803722 0.118753 -0.0689043 0.00628029 0.0464032 0.0725279
internal_weight=0 152.031 82.1542 76.736 18.5782 58.1577 14.8386 43.3191 10.1378 1.71333 8.42446 38.8533 146.297 60.3191 9.10308 0.784788 51.216 51.1009 1.18348 1.13551 49.9174 0.537093 85.9783 9.58484 4.07404 4.70085 8.99337 6.99719 5.73355 5.4685 3.36119 2.10731 8.31829 0.874108 0.21519 37.6101 23.2323 20.5336 14.3778 4.27492 1.86936 18.6642 12.9237 2.28111 0.241641 10.6426 7.65644 5.74054 0.509197 2.03947 3.84464 0.182772 10.1029 4.25524 5.84768 3.04487 2.8028 2.98613 1.22622 0.57413 0.652093 7.44418 0.540135 2.30414 0.76597 4.46577 49.3803 6.49327 1.24521 4.23152 1.68069 1.34399 0.658919 0.465577 6.90405 2.21142 2.11941 1.96627 1.79775 1.56729 1.32998 1.10385 85.8057 0.211124 5.5108 49.1748 0.255662 2.48187 5.24806 2.79014 5.41821 1.05705 0.491829 1.58745
internal_count=61292 53720 7572 7494 2500 4994 500 4494 324 29 295 4179 52864 20445 2315 117 18130 18120 255 239 17865 115 32419 1719 537 176 781 719 856 825 425 400 2198 164 37 4150 2619 2447 1531 1008 87 2360 2055 307 43 1748 1412 305 23 264 534 25 523 97 426 170 256 336 109 86 23 2034 100 213 62 315 17750 223 70 155 77 65 127 94 1934 566 549 533 531 159 110 106 32407 61 1182 17729 67 133 153 90 78 212 108 75
is_linear=0
shrinkage=0.05


Tree=7
num_leaves=95
num_cat=0
split_feature=12 4 9 0 2 9 6 2 4 13 7 4 0 4 13 16 8 5 5 13 1 4 5 0 8 5 4 13 0 10 17 0 5 17 11 17 1 9 12 2 14 6 8 5 11 7 14 7 12 10 9 17 13 11 10 8 12 4 7 10 13 17 10 9 8 0 0 5 5 0 16 12 12 0 4 7 0 10 0 10 7 4 7 11 8 4 12 0 9 10 7 13 14 12
split_gain=30.3048 15.9458 10.4851 8.50639 8.02672 5.62737 10.8364 9.75843 6.48857 6.20052 5.62873 5.62383 10.5882 8.12001 7.10935 5.52393 5.45982 5.28142 6.52855 11.1124 12.0116 5.13155 5.98113 4.94209 6.34145 4.72365 4.51385 4.85821 5.94787 4.46539 9.99833 4.30935 5.39316 18.0533 4.35119 9.48551 6.59706 6.6826 6.62056 5.77724 4.18214 4.04954 5.15433 8.19321 6.17588 4.89378 5.65432 5.02731 4.93813 4.28354 4.04678 4.07808 6.78979 4.60644 3.67737 3.55349 3.48309 3.48127 3.46031 7.02119 4.75631 4.75079 10.2914 4.87466 4.17973 5.53241 4.22783 7.87401 4.13375 4.65885 4.42293 3.65096 14.405 29.311 3.4316 3.30304 3.27068 3.23303 4.10261 3.44085 3.23187 5.72919 3.54535 3.53809 3.18305 3.05196 3.83559 11.5439 3.05659 3.0477 3.02927 2.97096 2.95699 4.28644
threshold=3.7500000000000004 487.50000000000006 1.9750000000000003 52.500000000000007 1.0000000180025095e-35 1.2300000000000002 78.000000000000014 1.0000000180025095e-35 417.50000000000006 19.500000000000004 3.8300000000000005 142.50000000000003 72.500000000000014 147.50000000000003 27.000000000000004 139.23835850485972 31.556175048197893 7.8500000000000005 9.6500000000000021 27.000000000000004 1.0000000180025095e-35 472.50000000000006 9.6500000000000021 47.500000000000007 33.400000000000006 7.8500000000000005 717.50000000000011 25.000000000000004 57.500000000000007 157.50000000000003 3.3000000000000003 82.500000000000014 13.450000000000001 3.9000000000000004 8.5000000000000018 4.5500000000000007 1.0000000180025095e-35 1.3050000000000004 4.5000000000000009 1.0000000180025095e-35 10.000000000000002 53.500000000000007 31.556175048197893 8.9000000000000004 43.000000000000007 7.6800000000000006 8.0000000000000018 3.0250000000000004 2.6000000000000005 244.50000000000003 0.97500000000000009 4.3000000000000016 44.500000000000007 9.5000000000000018 244.50000000000003 35.400000000000013 4.1684469875026346 542.50000000000011 10.660000000000002 110.04313250563187 22.500000000000004 3.5500000000000003 244.50000000000003 1.175 30.900000000000002 77.500000000000014 62.500000000000007 9.9500000000000011 11.150000000000002 62.500000000000007 144.00000000000003 3.6500000000000008 3.5500000000000003 67.500000000000014 752.50000000000011 6.120000000000001 82.500000000000014 110.04313250563187 82.500000000000014 117.50000000000001 7.6800000000000006 422.50000000000006 3.0250000000000004 22.500000000000004 25.700000000000006 97.500000000000014 3.6500000000000008 27.500000000000004 1.0600000000000003 214.00000000000003 6.120000000000001 12.000000000000002 13.500000000000002 2.9500000000000006
decision_type=2 2 2 2 2 2 2 2 2 2 2 2 2 2 2 2 2 2 2 2 2 2 2 2 2 2 2 2 2 2 2 2 2 2 2 2 2 2 2 2 2 2 2 2 2 2 2 2 2 2 2 2 2 2 2 2 2 2 2 2 2 2 2 2 2 2 2 2 2 2 2 2 2 2 2 2 2 2 2 2 2 2 2 2 2 2 2 2 2 2 2 2 2 2
left_child=2 11 3 4 21 8 7 54 41 57 -9 25 17 14 -14 31 -16 -13 19 -19 -21 22 -1 24 85 -2 27 28 -3 -20 -31 34 40 -34 35 -15 37 38 39 -36 -33 -5 43 -43 58 47 48 -44 -47 -48 -32 53 89 -52 -7 80 -28 -8 59 92 61 62 63 -61 66 -66 67 -60 70 -70 90 72 -71 -74 -58 -4 -11 78 -30 -79 82 -82 -10 -83 -23 -6 88 -88 -87 -53 -62 -17 93 -45
right_child=1 26 75 5 23 6 9 10 55 76 -12 12 13 15 16 91 -18 18 29 20 -22 84 -24 -25 -26 -27 56 -29 77 30 50 32 33 -35 36 -37 -38 -39 -40 -41 -42 42 45 44 -46 46 49 -49 -50 -51 51 52 -54 -55 -56 -57 74 -59 64 60 68 -63 -64 -65 65 -67 -68 -69 69 71 -72 -73 73 -75 -76 -77 -78 79 -80 -81 81 83 -84 -85 -86 86 87 -89 -90 -91 -92 -93 -94 -95
leaf_value=-0.14758300488390561 0.18665743272042393 -0.050329839702135552 0.025026066913385506 0.14473626888484814 -0.055404339980702613 -0.090571068464135346 -0.071414337724570481 -0.072921072264330644 0.19025659547528276 0.086027030797896781 0.089532334837317526 -0.35714437483833905 0.038838022662343458 -0.050408783765953494 0.16172543676139484 0.12431330799131371 0.53882678595082945 -0.050500036556905971 -0.044357758926542507 0.10502622573518157 0.6394110082783806 0.27316341204113676 -0.04538291116905193 -0.059670585279339307 0.094531021195155121 -0.048756212543443672 -0.017844400774001203 -0.077499613045292348 -0.050885581687824588 0.54872671000453654 -0.06403136785905339 0.21212626499292608 1.4276711157009017 -0.05020677214982168 -0.0502663181958658 0.76439220203200298 -0.050889412500184777 0.50259795307709809 0.45807938289078209 0.14260866522797955 -0.050855145514483981 -0.073333876051133645 0.10704766248600178 0.15758643765373706 0.10229675218490719 0.21865409257026949 -0.02829736600263168 -0.063657136678819962 -0.050468895420158068 0.095991547630428581 0.087243461732542674 -0.050870124751755598 0.55947067744969325 -0.058785917858304171 -0.28763376270245378 0.11701383240121575 0.26767823270559993 0.14190420248817925 0.18362115232866116 -0.050564128133892661 -0.057084207003537057 -0.012061390790510003 0.76072021639433141 0.3166387857852721 -0.064741456224561442 0.26013883496824047 -0.055813523929931622 -0.066713257325837549 -0.050508187390404524 0.13921332353299543 0.20086211418029129 -0.050146977319913105 1.3995893888678026 -0.050153748676070503 0.091020520455235898 -0.0828268593014546 -0.057498482623321884 0.19022631826536573 0.22484062382431344 0.034285507675156528 0.47049146111275819 -0.050764033721001946 -0.034901315689957961 0.1540598171120775 0.017649725491601754 0.048600570943183534 0.84763985070062842 -0.050243022970308408 -0.069216169702517913 0.16011431724223446 0.06083206529390979 -0.05045021461214854 -0.056571379016472259 -0.017107231131188526
leaf_weight=1.8112788993748816 0.21364197600632806 1.0685291293775656 0.84155188326258112 0.47572331037372251 1.8093990270281208 1.2515978170558804 1.1068522224668402 0.81188594340346787 0.19541850453242604 9.5629537169588694 1.5533796948147935 0.12856305204331775 0.49304769327863951 0.085759038105605589 0.22271601110696793 0.26099387253634665 0.16868259059265256 0.73291812976822146 43.172118373215199 0.38881156966090202 0.14413816411979496 0.14989532530307847 6.8294427536893636 1.9716950178844852 2.4672303893603384 81.87671341461828 0.35506363166496147 1.0121706975623963 0.61366244545206461 0.083378491690381362 1.7593138883821664 0.36955571849830438 0.033826436614617705 0.053106724750250578 0.88167263916693606 0.06121511198580265 1.9852148985955864 0.08964133169502031 0.09806956467218686 0.69373740605078638 0.25583483092486858 2.5176617110846591 0.45906640286557188 0.46045850985684111 2.154483208898454 0.52850240003317583 5.0940821751137264 7.1319977132370695 0.25159565592184663 0.80242983065545548 0.87297614105045873 0.27827799366787065 0.081817913567647338 1.4160018870607016 0.291962788440287 1.8126025605015454 0.45677861408330478 0.23121065972372878 0.58200888265855499 0.28080040961503838 0.89520532730966884 3.2089025567984208 0.061515119625255466 0.13327713310718536 0.23631736496463407 0.29415218299254775 4.1863464945927262 0.68244657921604812 0.31281596049666438 1.8677651360630996 0.37061742786318053 0.19623618479818095 0.068898282246664055 0.070581684121862054 0.69038225524127483 4.5373426338192075 0.41412429674528617 0.9871792907360939 0.17292699217796326 0.55128877540118992 0.095076049678027519 0.38554147793911397 1.6597570865415034 0.46528256637975574 0.65229584742337465 1.8575926420744515 0.055507812649011501 0.10081342095509171 0.78236494725570072 0.44467585114762187 1.3909718815702943 3.5636724217329174 2.6985372939961962 1.4790647174231706
leaf_count=194 12 316 24 11 384 61 95 15 4 276 31 10 93 25 16 9 8 212 16921 28 15 2 1471 62 72 32407 47 229 112 14 456 17 6 16 293 5 585 2 16 18 44 171 28 28 88 6 400 1036 58 11 49 76 7 325 4 66 10 3 7 74 74 549 6 2 16 7 216 63 88 106 8 70 8 24 29 54 15 33 1 79 2 67 157 19 52 183 1 28 51 17 98 1162 549 377
internal_value=0 -0.0363142 0.00154454 0.00624633 -0.0233321 0.0155573 0.0417212 -0.0300507 0.00640179 0.0665149 0.0337696 -0.0396882 -0.0278877 0.0210115 0.165141 0.00589404 0.324246 -0.0370909 -0.0362575 0.0758267 0.249553 -0.0555756 -0.0668062 0.0103313 0.0298455 -0.0481435 0.0441596 0.0186396 0.047314 -0.0392067 0.00584204 0.0427645 0.15584 0.524848 0.0220867 0.288958 0.0116226 0.082009 0.0594798 0.0346669 0.104546 -0.000248804 -0.00204419 0.0120332 0.021969 -0.0258712 0.00535284 -0.0533338 0.131857 -0.0113834 -0.00348504 0.0309457 0.12776 -0.00309287 -0.127845 0.0624651 0.119005 -0.0345539 0.0130834 0.0271137 0.0532106 0.00979625 0.157273 0.0676257 -0.0185735 0.115409 -0.0316126 0.0485117 0.0841322 0.130059 0.0406342 0.155693 0.175817 0.665969 0.161362 -0.0659528 0.0800696 0.0921883 0.00973118 0.134347 0.027166 0.102381 -0.0111839 0.0612462 0.0653943 -0.0048061 0.0279347 0.268585 0.013685 0.0789026 0.0146592 -0.0385244 -0.0227252 0.0243665
internal_weight=0 146.818 82.5965 77.2176 18.4875 58.7301 15.224 3.90883 43.5061 11.3151 2.36527 140.91 58.8197 9.31675 0.884446 8.4323 0.391399 49.503 49.3744 1.26587 0.53295 9.44291 8.64072 9.0446 7.07291 82.0904 5.90798 4.40576 3.39359 48.1086 4.93644 4.60763 0.712324 0.0869332 3.89531 0.146974 3.74834 1.76312 1.67348 1.57541 0.625391 38.8925 38.4167 24.1491 21.6314 14.2677 6.67661 7.59106 0.780098 5.89651 4.85306 3.09375 0.804772 2.28898 1.54356 4.61368 1.50222 1.33806 19.4769 13.4956 8.85759 3.6845 0.475593 0.414078 5.98127 0.53047 5.4508 1.26446 5.17309 2.5163 2.65679 2.20348 2.00725 0.13948 1.14716 5.37889 9.97708 2.32506 0.786589 1.53847 2.80108 0.9459 1.85518 0.850824 0.802191 4.60568 2.79628 0.156321 2.63996 0.722954 2.28618 3.82467 4.63806 1.93952
internal_count=61292 53720 7572 7494 2500 4994 500 111 4494 389 46 52864 20445 2315 117 2198 24 18130 18120 255 43 1719 1665 781 719 32419 856 770 541 17865 944 1027 83 22 944 30 914 329 327 311 61 4179 4168 2629 2458 1539 475 1064 64 411 930 474 100 374 65 315 86 98 2370 2061 1107 631 82 76 309 23 286 70 476 296 180 208 138 32 39 78 291 225 113 112 249 88 161 86 54 647 263 29 234 93 172 1171 954 405
is_linear=0
shrinkage=0.05


Tree=8
num_leaves=95
num_cat=0
split_feature=12 4 4 2 14 7 5 14 16 4 4 16 13 8 6 11 5 5 6 17 7 4 12 15 17 4 7 4 5 12 16 10 17 17 3 6 16 17 15 7 2 15 10 16 13 4 4 6 16 16 5 4 13 3 13 10 11 4 16 12 5 10 10 6 4 12 6 13 1 14 11 15 12 7 13 3 3 17 3 10 16 17 10 16 3 11 10 17 17 3 11 6 8 6
split_gain=28.9322 14.8451 5.59397 5.13517 8.29234 9.23016 4.87014 5.64004 5.31236 4.48077 5.40025 9.55974 5.74132 7.88822 5.57616 8.00191 7.80403 9.77651 5.18045 4.9609 4.3709 4.94552 6.4704 7.46579 5.88631 5.82117 6.74974 6.8365 6.41105 5.52743 4.40312 4.33957 5.66196 4.46262 36.531 4.33288 4.28011 5.69442 4.34195 8.61581 6.34656 4.30519 9.97814 4.23262 4.18262 4.08875 5.44841 4.06612 4.00919 4.44518 3.94717 3.90634 6.20979 6.4524 5.56101 6.0519 5.6422 7.0955 5.67512 4.49924 3.89874 3.89844 3.87013 3.86344 3.82722 3.80146 3.75151 3.73842 3.64193 5.39806 3.59434 4.06872 3.55323 3.5506 10.3185 15.4927 7.19976 3.47584 3.40922 3.39015 4.90143 3.36996 3.29313 3.22617 3.13182 3.10902 3.08535 3.06499 3.05729 3.03548 2.91853 2.89605 2.86901 2.83297
threshold=3.7500000000000004 487.50000000000006 142.50000000000003 1.0000000180025095e-35 23.204251989043957 7.6800000000000006 11.150000000000002 167.50000000000003 146.00000000000003 577.50000000000011 477.50000000000006 141.50000000000003 29.500000000000004 29.850000000000005 216.50000000000003 20.250000000000004 12.350000000000001 12.700000000000001 53.500000000000007 4.4500000000000011 3.0250000000000004 487.50000000000006 3.2500000000000004 4.2950000000000008 5.1500000000000012 442.50000000000006 17.980000000000004 197.50000000000003 10.250000000000002 2.9500000000000006 133.00000000000003 194.50000000000003 4.5500000000000007 5.1500000000000012 29.386255879762377 105.00000000000001 131.00000000000003 3.1000000000000005 1.1050000000000002 3.8300000000000005 1.0000000180025095e-35 0.44 103.00000000000001 136.50000000000003 20.500000000000004 232.50000000000003 97.500000000000014 377.00000000000006 134.50000000000003 139.23835850485972 7.8500000000000005 97.500000000000014 13.500000000000002 23.406113038714391 22.500000000000004 107.50000000000001 12.500000000000002 187.50000000000003 142.50000000000003 3.5500000000000003 7.8500000000000005 135.00000000000003 244.50000000000003 282.00000000000006 52.500000000000007 2.6000000000000005 105.00000000000001 33.000000000000007 1.0000000180025095e-35 6.5000000000000009 7.5000000000000009 1.0150000000000003 2.9500000000000006 10.660000000000002 27.000000000000004 17.982361919837192 22.583543221210057 4.4500000000000011 19.460915858725766 244.50000000000003 136.50000000000003 3.7000000000000006 107.50000000000001 135.50000000000003 25.831609584362031 15.500000000000002 167.50000000000003 3.1000000000000005 3.9000000000000004 21.443733278834724 20.250000000000004 251.50000000000003 31.306175048197893 227.50000000000003
decision_type=2 2 2 2 2 2 2 2 2 2 2 2 2 2 2 2 2 2 2 2 2 2 2 2 2 2 2 2 2 2 2 2 2 2 2 2 2 2 2 2 2 2 2 2 2 2 2 2 2 2 2 2 2 2 2 2 2 2 2 2 2 2 2 2 2 2 2 2 2 2 2 2 2 2 2 2 2 2 2 2 2 2 2 2 2 2 2 2 2 2 2 2 2 2
left_child=6 2 50 31 5 -5 8 9 20 10 12 -12 13 51 45 19 -17 -18 -15 -16 62 22 23 25 35 26 28 -28 36 -23 -26 33 47 73 -35 89 68 -38 41 -40 -41 42 -39 -21 -7 46 -14 -33 -3 82 -2 61 53 59 56 -56 57 -54 72 -53 -6 -8 -1 64 -43 -25 67 -48 -22 -70 71 -30 -59 -4 -75 -76 -77 -66 -69 -37 -81 -57 90 -79 -83 -10 -51 -47 -63 -24 -50 93 -34 -46
right_child=1 48 3 4 60 44 7 -9 85 -11 11 -13 14 18 15 16 17 -19 -20 43 21 29 24 65 30 -27 27 -29 70 -31 -32 32 92 34 -36 79 37 38 39 40 -42 63 -44 -45 91 87 66 -49 49 86 -52 52 54 -55 55 81 -58 58 -60 -61 -62 88 -64 -65 77 -67 -68 78 69 -71 -72 -73 -74 74 75 76 -78 83 -80 80 -82 84 -84 -85 -86 -87 -88 -89 -90 -91 -92 -93 -94 -95
leaf_value=0.087847594908247076 0.14940991885957189 -0.15371062441162903 -0.039635478704498489 -0.050502006499706278 -0.32741630030105634 0.0083285399835307302 -0.055862073117705163 -0.06862564087067681 0.0026338211486361339 0.10831685051686291 -0.052029263660340552 -0.6192148906028353 -0.03409913216287723 0.23778217873020135 -0.018323852793837161 0.12947436706587556 0.76914646751225613 0.19875283507009248 -0.044394779276942804 0.18384817127484768 -0.10181270450578775 -0.046783548431438095 -0.17493570329335856 -0.2211756597955814 0.44006979043065109 -0.10724726848738381 0.10908921717988806 -0.0714083332276437 -0.0083422726524834609 0.074401195173526571 -0.050182128231392543 -0.050621952833991748 -0.050450365751232608 -0.050121522926144094 2.0264040771092664 -0.062206206053798285 -0.12263927137708629 0.39119864620952627 0.26294634844941478 -0.034860347829115616 0.078358591294709179 0.11051522429248795 0.021105766052966671 -0.051306346208856463 0.1237373650251217 0.12621017946821753 0.32848860594362395 0.19481164096301784 -0.050708632285370939 -0.049574008147812959 -0.048643966324541446 0.17056867361204481 -0.032700699065407374 -0.050309640465312749 -0.058004703709828499 -0.05375502221768394 -0.062207329857918298 0.15351737568891113 0.35523795122758073 0.46069825933661773 -0.045406048904306252 -0.056474311938273819 -0.068010106898632447 -0.068610591339792401 -0.029972462687086445 -0.060131888514655521 0.051201972020466703 0.19179603716982654 0.15550202421862322 -0.036403102394664197 -0.06932086082465784 0.27338181021790681 -0.051440904503235491 -0.050286035550781864 1.1243977170717461 0.3152823213596076 -0.050737633077182077 0.10936384465504989 -0.052033390008829873 0.1627973005115313 -0.067753326781347545 0.13617439047462859 0.10781048431607926 -0.055039309950551452 0.3275349084438397 0.10948626258567856 0.14538579802554932 -0.064300483101887546 0.12287861345467399 -0.05221038187441969 0.097119410141944959 0.030772697467545795 0.20326985788722066 0.25948670836664633
leaf_weight=1.8422546510118984 0.25238370010629196 0.25362649105954815 46.409708803170361 1.3767477560322721 0.12962780572706867 0.78058674256317351 2.0751321827992926 1.8389931829879049 1.2824814817868166 1.4183257480617601 0.70522297383285959 0.083038525190204382 1.5167078510858099 0.16659318748861451 1.3114329886739149 0.91342244553379692 0.12170936074107885 0.19626470725052059 6.8787907786900178 0.79862344102002658 1.5367070970824119 1.3905463479459275 1.3345599555177599 0.56193159046233532 0.10087799956090737 1.3560409434721794 2.3735856672283258 0.67344723176211108 0.89078850974328705 2.9102535984711722 0.083883557352237403 1.3094899884890758 0.13893022923730303 0.17611886328086157 0.024075356312096119 4.7546786687453277 0.70762045239098625 0.22409665142185875 0.4642023160122325 1.9099344630376434 3.5170975958462805 0.80797014920972099 0.97239069361239672 0.25165486754849553 1.0232382141985001 0.24267000844702113 0.25829696957953308 0.1937177670188247 0.77483620122075059 1.3802950849058104 78.058794110140298 0.42974221077747632 1.2074915908742698 0.22747085080482066 0.47531328420154784 0.19094223319552828 1.934128009015694 0.62382411770522572 0.24246879178099334 0.19392933417111635 2.2464924931991845 0.35968281701207139 0.50816434598527838 2.1589497183449566 4.0123898151796311 1.0533158570760859 3.0190476353745908 0.38866667239926755 0.43692082213237915 2.27166139613837 5.3864653845084831 0.14969646302051842 0.3199014775454998 1.2284271612297732 0.042517170775681623 0.26965633337385952 0.26776397135108709 1.0091304505476726 0.2271366436034441 0.44168483489193011 0.48221847857348621 1.2340205775108186 2.7965452983044088 0.42369530355790619 0.25862192991189648 1.4509463601280002 0.23791237012483168 1.6238688587909562 0.70008618058636785 0.8094420094275846 0.58668611641041934 0.44406038289889682 0.56267493055202067 0.6155272414907812
leaf_count=84 12 19 18442 424 2 134 602 24 10 59 78 12 168 3 272 29 9 25 1428 31 30 37 33 19 3 40 40 13 129 105 27 334 30 73 6 1303 22 15 15 108 70 22 41 45 47 2 9 6 179 400 32407 29 238 67 95 22 298 5 6 14 334 42 5 214 282 72 167 7 4 55 421 2 65 414 4 24 75 18 31 11 21 87 225 47 24 17 13 159 43 42 20 50 25 21
internal_value=0 -0.035907 -0.0393218 -0.027441 0.0139844 0.0558874 0.00131193 0.0164187 -0.00843081 0.0215307 0.0173118 -0.111779 0.0208963 0.00318413 0.0494427 0.100406 0.20374 0.41708 -0.0377225 0.0465271 -0.0123268 -0.0157832 -0.0211457 -0.0113349 -0.0614532 -0.00592246 -0.00133123 0.0691961 -0.00932607 0.0352194 0.217491 -0.0328552 0.0357469 -0.0359791 0.199601 -0.0680416 0.0043622 0.0160684 0.0224009 0.0561978 0.0385135 0.00167941 0.0904225 0.127503 0.10704 0.0242769 0.0462926 -0.018993 0.0408567 0.0493998 -0.0480057 0.0307034 0.050663 0.177643 0.0340016 0.0995486 0.00130393 0.0526218 0.139476 0.260784 -0.0607909 -0.0160159 0.0541509 -0.0109428 0.00896732 -0.116158 0.077612 0.168829 -0.0403293 -0.00544693 -0.0528869 0.0321899 0.0840412 -0.0369572 0.0317777 0.205606 0.132917 -0.00610053 0.101861 -0.0451763 0.0424646 0.144029 0.0767627 0.0607488 0.16933 0.0593528 -0.0209106 -0.0395321 0.0620067 -0.128602 0.0129911 0.144035 0.153029 0.174725
internal_weight=0 141.58 135.551 57.2394 6.61628 4.24016 82.7233 32.4332 50.29 30.5942 29.1759 0.788261 28.3876 17.5181 10.8695 3.59311 1.2314 0.317974 7.04538 2.36171 47.5566 45.2062 40.9054 32.898 8.00735 31.2828 29.9268 3.04703 26.8797 4.3008 0.184762 50.6231 2.20481 48.4183 0.200194 7.82258 20.4528 16.2075 15.4999 5.89123 5.42703 9.60862 1.19649 1.05028 2.86341 7.27639 5.40986 1.50321 6.0299 5.77628 78.3112 10.4728 7.33785 0.851142 6.48671 2.1589 4.32781 2.39369 1.18619 0.623672 2.37612 3.1349 2.35042 8.41214 6.25319 1.61525 3.89315 0.8741 4.24529 2.70858 6.42695 1.04048 0.943726 48.2181 1.80836 0.579937 0.53742 5.44522 0.615803 5.67858 0.923903 1.68358 4.15807 1.43283 1.49264 2.73343 1.61821 1.86654 1.05977 2.144 1.36152 2.08283 0.701605 1.63877
internal_count=61292 53720 52864 20445 1012 676 7572 4195 3377 4171 4112 90 4022 3068 954 411 63 34 1431 348 3350 3261 3119 1679 1440 1588 1548 53 1495 142 30 19433 395 19038 79 1410 943 854 832 193 178 639 56 76 252 543 382 340 856 837 32419 1637 950 110 840 228 612 314 76 43 336 687 89 583 369 91 214 47 89 59 552 131 70 18959 517 103 99 347 38 1335 32 133 424 65 111 27 413 161 85 75 199 118 55 68
is_linear=0
shrinkage=0.05


Tree=9
num_leaves=95
num_cat=0
split_feature=12 4 9 4 4 15 13 15 17 10 13 2 2 14 7 7 14 6 6 4 10 8 5 4 1 12 7 8 5 5 4 13 4 12 9 5 13 16 17 14 7 15 6 13 16 6 5 8 9 17 10 10 9 12 7 7 13 4 6 6 15 11 11 8 12 10 15 10 10 15 9 10 13 16 5 4 17 5 10 11 9 4 8 7 14 10 13 12 7 5 12 7 4 10
split_gain=27.5791 13.8762 8.80646 6.00108 5.58914 5.01948 13.4019 9.97145 6.09356 9.91578 5.56023 5.01023 4.86334 7.36491 7.83783 4.69581 4.51794 4.81639 5.02269 4.36388 4.03671 4.85188 3.94457 8.29522 5.04633 4.88642 4.0448 4.47198 3.91373 6.0185 5.01496 4.38799 5.28752 4.20702 3.78642 3.73364 3.547 3.72289 3.54691 3.54097 3.49954 22.8941 3.47042 6.5591 5.13148 4.95674 4.52312 3.23134 3.85199 4.22015 3.76295 5.71813 3.61634 3.23018 5.25183 3.11571 7.49991 4.8642 3.96588 2.9833 2.97379 2.96099 2.94834 29.2128 2.85403 3.26596 2.84418 2.84179 2.80742 3.25517 2.78267 2.73205 2.72916 2.77052 2.69558 2.61492 2.59645 8.20102 2.57706 2.60721 2.52294 5.19836 6.26342 4.05291 3.46433 4.22706 3.43894 3.2998 2.6803 2.44809 2.43186 2.31634 2.30804 2.26579
threshold=3.7500000000000004 487.50000000000006 1.9750000000000003 97.500000000000014 142.50000000000003 0.87463685866049456 12.000000000000002 0.59500000000000008 3.3000000000000003 149.00000000000003 86.500000000000014 1.0000000180025095e-35 1.0000000180025095e-35 23.204251989043957 7.6800000000000006 17.980000000000004 10.000000000000002 194.50000000000003 330.50000000000006 472.50000000000006 194.50000000000003 31.306175048197893 13.017387571020448 112.50000000000001 1.0000000180025095e-35 3.2500000000000004 4.9850000000000003 35.400000000000013 8.4000000000000004 11.150000000000002 122.50000000000001 23.650083945948591 417.50000000000006 3.0500000000000003 0.97500000000000009 10.550000000000002 57.000000000000007 139.23835850485972 4.1826233762047531 10.000000000000002 3.0250000000000004 1.2450000000000003 194.50000000000003 57.000000000000007 133.00000000000003 126.50000000000001 13.450000000000001 49.650000000000006 1.3050000000000004 4.3000000000000016 112.54313250563187 135.00000000000003 1.0250000000000001 3.6500000000000008 5.7600000000000007 10.660000000000002 27.000000000000004 252.50000000000003 251.50000000000003 105.00000000000001 0.50000000000000011 57.000000000000007 43.000000000000007 37.150000000000013 2.6000000000000005 107.50000000000001 1.2450000000000003 112.54313250563187 157.50000000000003 1.2450000000000003 1.175 167.50000000000003 20.500000000000004 142.50000000000003 10.250000000000002 102.50000000000001 5.1500000000000012 9.3000000000000025 107.50000000000001 20.250000000000004 1.175 232.50000000000003 34.250000000000007 8.6400000000000023 19.000000000000004 283.00000000000006 12.000000000000002 3.1500000000000008 9.865000000000002 9.3000000000000025 2.9500000000000006 8.6400000000000023 52.500000000000007 117.50000000000001
decision_type=2 2 2 2 2 2 2 2 2 2 2 2 2 2 2 2 2 2 2 2 2 2 2 2 2 2 2 2 2 2 2 2 2 2 2 2 2 2 2 2 2 2 2 2 2 2 2 2 2 2 2 2 2 2 2 2 2 2 2 2 2 2 2 2 2 2 2 2 2 2 2 2 2 2 2 2 2 2 2 2 2 2 2 2 2 2 2 2 2 2 2 2 2 2
left_child=2 4 3 15 40 7 -7 10 9 -8 28 16 20 14 -14 47 17 68 -19 22 55 -22 24 -24 26 -25 27 -18 30 33 -5 32 53 35 -16 39 37 78 -23 -30 41 -2 45 44 -44 -13 -47 48 49 -1 -51 52 -52 -31 -55 76 -57 58 67 -15 -4 -53 -42 -64 65 -41 70 -58 69 -10 -21 -39 73 -36 -62 -26 -6 -78 79 -3 84 82 83 -82 85 87 -83 -9 -85 -17 -33 -20 -50 -80
right_child=1 36 60 5 12 6 8 80 11 -11 -12 42 13 59 34 89 19 18 91 66 21 38 23 25 75 -27 -28 -29 29 31 -32 90 -34 -35 72 -37 -38 71 -40 64 62 -43 43 -45 -46 46 -48 -49 92 50 51 61 -54 54 -56 56 57 -59 -60 -61 74 -63 63 -65 -66 -67 -68 -69 -70 -71 -72 -73 -74 -75 -76 -77 77 -79 93 -81 81 86 -84 88 -86 -87 -88 -89 -90 -91 -92 -93 -94 -95
leaf_value=-0.04568898000054071 -0.050247561735066296 -0.050675426698267058 0.030567440860375706 0.24947074528183741 -0.039194901948800376 -0.13232822067032438 0.072168789269899267 0.027421887692871606 0.1591254729858439 -0.1395962867246324 -0.091427621757110389 0.082763954952019214 -0.050478580080635937 0.068567479439920392 -0.050791515064648442 0.10516458854478905 0.035514333902922829 -0.064455717108188093 0.31174037999492543 0.062395495982256279 -0.050583693991679751 -0.050705672120936351 0.55554462096653545 0.16501227911762928 0.087897905064926243 -0.050933576492806144 -0.024488176890521369 0.28468495356360357 -0.070428025253505361 -0.028661388167269826 0.021530797940499852 -0.052323040838358037 0.14899500205314198 -0.070042362447173545 -0.051265669395727347 -0.075053909494247506 -0.13441580454800126 -0.049471569339763849 0.1456225687708845 0.080382151539304364 -0.049190286830351364 1.2750700271397444 0.14301711486558405 0.25717562222316703 0.01441211218505758 -0.064679933267690989 0.09004286448668769 -0.12532416752591993 0.12958760968241331 -0.051526052385738902 0.0023485144234795599 -0.056797168293088757 0.16194341720152688 0.23039559113768956 -0.050646703560330901 -0.050271062163807417 0.17675662932068931 -0.050901327185324502 -0.050143740558472122 -0.083016454398315148 -0.041036462047862932 0.13407165202388907 -0.05014196273627608 1.5605703524810928 0.094861731606177932 -0.081672182341534338 0.10477532364779962 0.43883241584111748 0.28105839436317115 -0.023475502983145657 -0.076526402919114153 0.12983974893918054 0.14506165299278584 0.17405923846797566 -0.11834867954402069 -0.067563954133805768 0.51618642012082849 -0.050375654679694119 0.13050319934571208 0.089232443588181901 -0.089867979990121569 0.12194828936904133 0.11059143252446338 0.13731668511284043 -0.069072344819126358 0.23305700875147789 -0.07423849655527491 -0.054526740888329997 -0.053109848588767827 -0.018382053948787034 0.11833683993056282 0.070103955726168565 -0.018173666152210392 0.0409212144662396
