{"learner":{"attributes":{"best_iteration":"208","best_score":"0.980489867028772"},"feature_names":[],"feature_types":[],"gradient_booster":{"model":{"gbtree_model_param":{"num_parallel_tree":"1","num_trees":"259"},"iteration_indptr":[0,1,2,3,4,5,6,7,8,9,10,11,12,13,14,15,16,17,18,19,20,21,22,23,24,25,26,27,28,29,30,31,32,33,34,35,36,37,38,39,40,41,42,43,44,45,46,47,48,49,50,51,52,53,54,55,56,57,58,59,60,61,62,63,64,65,66,67,68,69,70,71,72,73,74,75,76,77,78,79,80,81,82,83,84,85,86,87,88,89,90,91,92,93,94,95,96,97,98,99,100,101,102,103,104,105,106,107,108,109,110,111,112,113,114,115,116,117,118,119,120,121,122,123,124,125,126,127,128,129,130,131,132,133,134,135,136,137,138,139,140,141,142,143,144,145,146,147,148,149,150,151,152,153,154,155,156,157,158,159,160,161,162,163,164,165,166,167,168,169,170,171,172,173,174,175,176,177,178,179,180,181,182,183,184,185,186,187,188,189,190,191,192,193,194,195,196,197,198,199,200,201,202,203,204,205,206,207,208,209,210,211,212,213,214,215,216,217,218,219,220,221,222,223,224,225,226,227,228,229,230,231,232,233,234,235,236,237,238,239,240,241,242,243,244,245,246,247,248,249,250,251,252,253,254,255,256,257,258,259],"tree_info":[0,0,0,0,0,0,0,0,0,0,0,0,0,0,0,0,0,0,0,0,0,0,0,0,0,0,0,0,0,0,0,0,0,0,0,0,0,0,0,0,0,0,0,0,0,0,0,0,0,0,0,0,0,0,0,0,0,0,0,0,0,0,0,0,0,0,0,0,0,0,0,0,0,0,0,0,0,0,0,0,0,0,0,0,0,0,0,0,0,0,0,0,0,0,0,0,0,0,0,0,0,0,0,0,0,0,0,0,0,0,0,0,0,0,0,0,0,0,0,0,0,0,0,0,0,0,0,0,0,0,0,0,0,0,0,0,0,0,0,0,0,0,0,0,0,0,0,0,0,0,0,0,0,0,0,0,0,0,0,0,0,0,0,0,0,0,0,0,0,0,0,0,0,0,0,0,0,0,0,0,0,0,0,0,0,0,0,0,0,0,0,0,0,0,0,0,0,0,0,0,0,0,0,0,0,0,0,0,0,0,0,0,0,0,0,0,0,0,0,0,0,0,0,0,0,0,0,0,0,0,0,0,0,0,0,0,0,0,0,0,0,0,0,0,0,0,0,0,0,0,0,0,0,0,0,0,0,0,0],"trees":[{"base_weights":[-1.1053114E0,-6.213825E-1,-1.1206411E0,-8.030229E-1,1.136472E-1,-1.1221981E0,-3.1961492E-1,9.736672E-3,-8.692629E-1,-2.542101E-1,1.2726634E0,1.0191025E-2,-1.1229833E0,-9.4236153E-1,1.6387684E0,1.1153471E0,-5.043331E-1,-8.9841044E-1,5.434189E-1,2.0036924E0,-4.915019E-1,4.329577E-3,1.9533708E0,-6.489436E-2,1.2714049E-1,-4.6772242E-1,-1.1237615E0,-7.6681376E-2,-7.5052655E-3,1.9048108E-1,-1.1312979E-2,1.4197733E-1,-2.0785742E-2,-7.240776E-2,3.6848333E-1,-9.715802E-1,-3.9938992E-1,-1.7909735E-2,8.422872E-2,2.1086493E-1,2.330039E-2,1.3404748E-1,-7.8567106E-1,-4.5926347E-2,4.0386635E-1,7.145852E-1,2.303639E-1,-7.299832E-2,7.643483E-1,-1.1243863E0,-4.189012E-1,-5.597202E-2,1.2714049E-1,-4.3147385E-2,-7.8777656E-2,-4.5997135E-2,1.2714049E-1,6.34794E-2,-2.8020332E-2,-6.5043606E-2,1.8232713E-2,-1.4765289E-2,6.52848E-2,1.2130095E-1,-2.8107848E-2,1.0167983E-1,-1.1312979E-2,-7.268189E-2,-8.453066E-2,9.252713E-2,-7.103824E-2],"categories":[],"categories_nodes":[],"categories_segments":[],"categories_sizes":[],"default_left":[0,0,0,0,0,0,0,0,0,0,0,0,0,0,0,0,0,0,0,0,0,0,0,0,0,0,0,0,0,0,0,0,0,0,0,0,0,0,0,0,0,0,0,0,0,0,0,0,0,0,0,0,0,0,0,0,0,0,0,0,0,0,0,0,0,0,0,0,0,0,0],"id":0,"left_children":[1,3,5,7,9,11,13,15,17,19,21,23,25,27,29,31,33,35,37,39,41,43,45,-1,-1,47,49,-1,-1,-1,-1,-1,-1,-1,51,53,55,-1,-1,-1,-1,57,59,-1,61,63,-1,-1,65,67,69,-1,-1,-1,-1,-1,-1,-1,-1,-1,-1,-1,-1,-1,-1,-1,-1,-1,-1,-1,-1],"loss_changes":[4.7541992E1,2.7047218E1,7.4995117E0,8.731018E0,1.7754137E1,5.604492E0,1.8158089E1,8.063899E0,6.6572037E0,1.8058563E1,8.639109E0,9.357278E0,2.678711E0,6.374569E-1,6.2712603E0,5.3981776E0,4.2587576E0,4.9855194E0,1.9238925E0,3.5407734E0,5.5594916E0,1.3561416E0,6.8304005E0,0E0,0E0,6.454607E0,2.2924805E0,0E0,0E0,0E0,0E0,0E0,0E0,0E0,7.293661E0,3.3812714E0,1.0232323E1,0E0,0E0,0E0,0E0,4.053352E0,1.9149227E0,0E0,1.1057807E0,4.927621E0,0E0,0E0,1.9513136E0,1.5263672E0,7.4125648E0,0E0,0E0,0E0,0E0,0E0,0E0,0E0,0E0,0E0,0E0,0E0,0E0,0E0,0E0,0E0,0E0,0E0,0E0,0E0,0E0],"parents":[2147483647,0,0,1,1,2,2,3,3,4,4,5,5,6,6,7,7,8,8,9,9,10,10,11,11,12,12,13,13,14,14,15,15,16,16,17,17,18,18,19,19,20,20,21,21,22,22,25,25,26,26,34,34,35,35,36,36,41,41,42,42,44,44,45,45,48,48,49,49,50,50],"right_children":[2,4,6,8,10,12,14,16,18,20,22,24,26,28,30,32,34,36,38,40,42,44,46,-1,-1,48,50,-1,-1,-1,-1,-1,-1,-1,52,54,56,-1,-1,-1,-1,58,60,-1,62,64,-1,-1,66,68,70,-1,-1,-1,-1,-1,-1,-1,-1,-1,-1,-1,-1,-1,-1,-1,-1,-1,-1,-1,-1],"split_conditions":[3.1E0,2.9E1,7.1E2,1.6649324E1,3.82E1,8.1E0,1.12E0,1.03E0,1.8E2,6.5E-1,4.9E1,1.38E2,1.3E2,2.9136316E1,2.122449E1,1.4E2,1.5625E1,1.62E2,1.5E0,1.52E2,2.7E0,1.3E1,7E1,-6.489436E-2,1.2714049E-1,1.05E0,1.8E2,-7.6681376E-2,-7.5052655E-3,1.9048108E-1,-1.1312979E-2,1.4197733E-1,-2.0785742E-2,-7.240776E-2,3.38E1,1.35E2,1.43E2,-1.7909735E-2,8.422872E-2,2.1086493E-1,2.330039E-2,3.01E1,1.5E0,-4.5926347E-2,1.52E2,1.35E2,2.303639E-1,-7.299832E-2,2.3781214E1,3.3E0,1.17E2,-5.597202E-2,1.2714049E-1,-4.3147385E-2,-7.8777656E-2,-4.5997135E-2,1.2714049E-1,6.34794E-2,-2.8020332E-2,-6.5043606E-2,1.8232713E-2,-1.4765289E-2,6.52848E-2,1.2130095E-1,-2.8107848E-2,1.0167983E-1,-1.1312979E-2,-7.268189E-2,-8.453066E-2,9.252713E-2,-7.103824E-2],"split_indices":[12,11,4,3,8,5,9,9,13,15,13,10,16,3,3,4,3,10,9,6,12,14,0,0,0,15,13,0,0,0,0,0,0,0,8,16,16,0,0,0,0,8,9,0,6,16,0,0,3,12,6,0,0,0,0,0,0,0,0,0,0,0,0,0,0,0,0,0,0,0,0],"split_type":[0,0,0,0,0,0,0,0,0,0,0,0,0,0,0,0,0,0,0,0,0,0,0,0,0,0,0,0,0,0,0,0,0,0,0,0,0,0,0,0,0,0,0,0,0,0,0,0,0,0,0,0,0,0,0,0,0,0,0,0,0,0,0,0,0,0,0,0,0,0,0],"sum_hessian":[6.50137E3,2.0090053E2,6.3004697E3,1.6101743E2,3.9883102E1,6.287847E3,1.2622578E1,1.219829E1,1.4881914E2,3.0866976E1,9.016127E0,4.3489556E0,6.283498E3,9.970776E0,2.651802E0,3.5003788E0,8.697911E0,1.4616733E2,2.651802E0,2.2275138E0,2.8639462E1,3.5003788E0,5.5157485E0,3.1821625E0,1.1667929E0,8.16755E0,6.2753306E3,8.910055E0,1.0607208E0,1.4850092E0,1.1667929E0,2.0153697E0,1.4850092E0,5.6218204E0,3.0760903E0,1.2665007E2,1.9517263E1,1.3789371E0,1.272865E0,1.0607208E0,1.1667929E0,9.334343E0,1.9305119E1,1.1667929E0,2.3335857E0,3.3943067E0,2.1214416E0,5.940037E0,2.2275138E0,6.269178E3,6.1521807E0,1.9092975E0,1.1667929E0,2.238121E1,1.0426886E2,1.835047E1,1.1667929E0,3.6064508E0,5.7278924E0,1.8032253E1,1.272865E0,1.272865E0,1.0607208E0,1.5910813E0,1.8032254E0,1.0607208E0,1.1667929E0,1.12860695E2,6.156318E3,1.1667929E0,4.985388E0],"tree_param":{"num_deleted":"0","num_feature":"18","num_nodes":"71","size_leaf_vector":"1"}},{"base_weights":[-1.0923225E0,-5.954711E-1,-1.10849E0,-7.792648E-1,1.1616866E-1,-1.1101328E0,-2.9824808E-1,1.5399984E-2,-8.470134E-1,-6.173927E-1,6.500897E-1,1.8894393E-2,-1.1109622E0,-9.2453176E-1,1.4728329E0,1.0099714E0,-4.8205805E-1,-8.7704587E-1,5.1083165E-1,2.0254248E-1,-9.6301E-1,1.8159224E-1,3.948002E-1,-6.362762E-2,1.1557161E-1,-1.1136932E0,-8.727602E-1,-5.0230003E-3,-7.565228E-2,1.6631715E-1,-1.0908321E-2,1.6687989E0,-2.0049483E-2,-7.1184374E-2,3.5285679E-1,-9.527267E-1,-3.7603232E-1,-1.926616E-2,8.225535E-2,8.948698E-2,-4.2930084E-1,-2.2071503E-2,-7.722775E-2,-7.444617E-2,1.2256271E0,-1.1141951E0,-4.0633628E-1,-9.836015E-1,-4.078802E-1,2.8073125E-2,1.5954849E-1,-5.4781165E-2,1.1557161E-1,-4.1383456E-2,-7.760483E-2,-4.4229906E-2,1.1557161E-1,-6.0087077E-2,2.9969469E-2,-3.3591256E-2,7.1398675E-2,2.8527541E-2,2.2980118E-1,-8.375837E-2,-7.223441E-2,-6.614271E-2,5.949678E-2,-2.2985613E-2,-7.5980574E-2,-6.207397E-2,2.8911885E-2],"categories":[],"categories_nodes":[],"categories_segments":[],"categories_sizes":[],"default_left":[0,0,0,0,0,0,0,0,0,0,0,0,0,0,0,0,0,0,0,0,0,0,0,0,0,0,0,0,0,0,0,0,0,0,0,0,0,0,0,0,0,0,0,0,0,0,0,0,0,0,0,0,0,0,0,0,0,0,0,0,0,0,0,0,0,0,0,0,0,0,0],"id":1,"left_children":[1,3,5,7,9,11,13,15,17,19,21,23,25,27,29,31,33,35,37,39,41,-1,43,-1,-1,45,47,-1,-1,-1,-1,49,-1,-1,51,53,55,-1,-1,-1,57,-1,-1,59,61,63,65,67,69,-1,-1,-1,-1,-1,-1,-1,-1,-1,-1,-1,-1,-1,-1,-1,-1,-1,-1,-1,-1,-1,-1],"loss_changes":[4.8351562E1,2.5522263E1,7.532715E0,8.339508E0,1.637354E1,5.5405273E0,1.6138206E1,6.983883E0,6.260208E0,5.2085123E0,9.935982E0,8.317462E0,2.8613281E0,6.8712234E-1,4.9815197E0,4.40238E0,4.0123873E0,4.9430084E0,1.9532673E0,4.3129063E0,2.5978184E-1,0E0,8.765299E0,0E0,0E0,1.612793E0,3.2781143E0,0E0,0E0,0E0,0E0,1.1265898E0,0E0,0E0,6.417814E0,3.401268E0,9.101873E0,0E0,0E0,0E0,1.6895765E0,0E0,0E0,6.2377753E0,1.1402291E1,1.1943359E0,3.9515903E0,8.260269E-1,5.4663286E0,0E0,0E0,0E0,0E0,0E0,0E0,0E0,0E0,0E0,0E0,0E0,0E0,0E0,0E0,0E0,0E0,0E0,0E0,0E0,0E0,0E0,0E0],"parents":[2147483647,0,0,1,1,2,2,3,3,4,4,5,5,6,6,7,7,8,8,9,9,10,10,11,11,12,12,13,13,14,14,15,15,16,16,17,17,18,18,19,19,20,20,22,22,25,25,26,26,31,31,34,34,35,35,36,36,40,40,43,43,44,44,45,45,46,46,47,47,48,48],"right_children":[2,4,6,8,10,12,14,16,18,20,22,24,26,28,30,32,34,36,38,40,42,-1,44,-1,-1,46,48,-1,-1,-1,-1,50,-1,-1,52,54,56,-1,-1,-1,58,-1,-1,60,62,64,66,68,70,-1,-1,-1,-1,-1,-1,-1,-1,-1,-1,-1,-1,-1,-1,-1,-1,-1,-1,-1,-1,-1,-1],"split_conditions":[3.1E0,2.9E1,7.1E2,1.6649324E1,1.09E0,8.1E0,1.12E0,1.03E0,1.8E2,1.52E2,6.5E-1,1.38E2,1.26E0,7.25E2,2.122449E1,1.4E2,1.5625E1,1.62E2,7.7E-1,1.9591837E1,5.58E0,1.8159224E-1,7.5E1,-6.362762E-2,1.1557161E-1,1.8E2,1E0,-5.0230003E-3,-7.565228E-2,1.6631715E-1,-1.0908321E-2,1.05E2,-2.0049483E-2,-7.1184374E-2,3.38E1,1.35E2,1.43E2,-1.926616E-2,8.225535E-2,8.948698E-2,1.53E2,-2.2071503E-2,-7.722775E-2,1.652E1,6.5E1,2.03E2,1.62E2,3.2E0,1.32E2,2.8073125E-2,1.5954849E-1,-5.4781165E-2,1.1557161E-1,-4.1383456E-2,-7.760483E-2,-4.4229906E-2,1.1557161E-1,-6.0087077E-2,2.9969469E-2,-3.3591256E-2,7.1398675E-2,2.8527541E-2,2.2980118E-1,-8.375837E-2,-7.223441E-2,-6.614271E-2,5.949678E-2,-2.2985613E-2,-7.5980574E-2,-6.207397E-2,2.8911885E-2],"split_indices":[12,11,4,3,9,5,9,9,13,6,15,10,9,4,3,4,3,10,15,3,7,0,0,0,0,13,2,0,0,0,0,4,0,0,8,16,16,0,0,0,10,0,0,7,13,10,10,12,10,0,0,0,0,0,0,0,0,0,0,0,0,0,0,0,0,0,0,0,0,0,0],"split_type":[0,0,0,0,0,0,0,0,0,0,0,0,0,0,0,0,0,0,0,0,0,0,0,0,0,0,0,0,0,0,0,0,0,0,0,0,0,0,0,0,0,0,0,0,0,0,0,0,0,0,0,0,0,0,0,0,0,0,0,0,0,0,0,0,0,0,0,0,0,0,0],"sum_hessian":[6.1002856E3,1.9343976E2,5.9068457E3,1.5365942E2,3.978033E1,5.894524E3,1.2321798E1,1.2131721E1,1.4152771E2,1.6691422E1,2.308891E1,4.3106265E0,5.8902134E3,9.455988E0,2.86581E0,3.70134E0,8.430381E0,1.388116E2,2.716105E0,5.072202E0,1.1619218E1,1.8398937E0,2.1249014E1,3.0279398E0,1.2826868E0,5.819809E3,7.040412E1,1.0056081E0,8.45038E0,1.7090054E0,1.1568046E0,2.2396343E0,1.4617058E0,5.3183846E0,3.1119962E0,1.1981177E2,1.899983E1,1.4187195E0,1.2973855E0,1.6293284E0,3.442874E0,1.5445718E0,1.0074647E1,1.4161227E1,7.087787E0,5.815109E3,4.7002144E0,5.5948505E1,1.4455618E1,1.0608793E0,1.1787548E0,1.8293093E0,1.2826868E0,2.165612E1,9.815565E1,1.7717144E1,1.2826868E0,2.3997505E0,1.0431236E0,1.0796773E1,3.3644547E0,5.682139E0,1.4056484E0,5.7110615E3,1.0404718E2,3.555546E0,1.1446683E0,2.8090923E0,5.3139412E1,9.425423E0,5.030195E0],"tree_param":{"num_deleted":"0","num_feature":"18","num_nodes":"71","size_leaf_vector":"1"}},{"base_weights":[-1.0801984E0,-5.703558E-1,-1.0972636E0,-7.297747E-1,2.63456E-1,-1.0989958E0,-2.7900136E-1,-8.081542E-1,4.720096E-2,-5.2611285E-1,1.1230645E0,2.5350502E-2,-1.0998713E0,-9.0703857E-1,1.3294599E0,-1.0297574E-2,-8.722912E-1,9.5851675E-2,-1.3979842E-1,-8.350945E-1,8.323326E-1,1.4166036E0,-4.5384547E-1,-6.239421E-2,1.0537935E-1,-1.1027563E0,-8.522238E-1,-7.454931E-2,-4.797524E-3,1.4664775E-1,-1.0518055E-2,9.06852E-2,-3.9366424E-1,-9.4837517E-1,-2.953695E-1,-5.7627773E-1,5.6287676E-1,1.0179444E-2,-9.5639604E-1,-1.5495762E-2,1.1261814E-1,-7.202292E-2,1.8544534E0,-5.822483E-3,-4.4992425E-2,-1.1032865E0,-3.868452E-1,-9.665946E-1,-3.8879508E-1,2.8705118E-2,-6.036543E-2,-4.937868E-3,-7.276674E-2,6.409181E-2,-4.5932256E-2,3.9624922E-2,-7.270505E-2,-4.7602084E-2,7.714258E-2,-7.695078E-2,-1.1190072E-2,6.571914E-2,-5.471211E-2,-9.395236E-3,1.5874366E-1,-8.295142E-2,-7.087733E-2,-6.5210685E-2,5.870227E-2,-7.593875E-2,-3.239942E-2,1.9007366E-2,-6.609459E-2],"categories":[],"categories_nodes":[],"categories_segments":[],"categories_sizes":[],"default_left":[0,0,0,0,0,0,0,0,0,0,0,0,0,0,0,0,0,0,0,0,0,0,0,0,0,0,0,0,0,0,0,0,0,0,0,0,0,0,0,0,0,0,0,0,0,0,0,0,0,0,0,0,0,0,0,0,0,0,0,0,0,0,0,0,0,0,0,0,0,0,0,0,0],"id":2,"left_children":[1,3,5,7,9,11,13,15,17,19,21,23,25,27,29,31,33,-1,35,37,39,41,43,-1,-1,45,47,-1,-1,-1,-1,-1,49,51,53,55,57,-1,59,-1,-1,61,63,-1,-1,65,67,69,71,-1,-1,-1,-1,-1,-1,-1,-1,-1,-1,-1,-1,-1,-1,-1,-1,-1,-1,-1,-1,-1,-1,-1,-1],"loss_changes":[4.9154297E1,2.510088E1,7.5390625E0,9.634384E0,2.1503263E1,5.4648438E0,1.4371474E1,7.318466E0,3.719525E0,7.7218666E0,7.618824E0,7.408152E0,3.0029297E0,6.6711235E-1,4.013574E0,5.929838E0,5.5370407E0,0E0,4.696888E0,1.7947273E0,2.815434E0,8.57304E0,1.24997795E-1,0E0,0E0,1.6430664E0,3.2258377E0,0E0,0E0,0E0,0E0,0E0,3.3826125E0,2.1849823E0,6.6826286E0,4.545494E0,3.981399E0,0E0,5.6011105E-1,0E0,0E0,3.0741398E0,5.4766693E0,0E0,0E0,1.3105469E0,3.8273172E0,8.8409424E-1,5.0065126E0,0E0,0E0,0E0,0E0,0E0,0E0,0E0,0E0,0E0,0E0,0E0,0E0,0E0,0E0,0E0,0E0,0E0,0E0,0E0,0E0,0E0,0E0,0E0,0E0],"parents":[2147483647,0,0,1,1,2,2,3,3,4,4,5,5,6,6,7,7,8,8,9,9,10,10,11,11,12,12,13,13,14,14,15,15,16,16,18,18,19,19,20,20,21,21,22,22,25,25,26,26,32,32,33,33,34,34,35,35,36,36,38,38,41,41,42,42,45,45,46,46,47,47,48,48],"right_children":[2,4,6,8,10,12,14,16,18,20,22,24,26,28,30,32,34,-1,36,38,40,42,44,-1,-1,46,48,-1,-1,-1,-1,-1,50,52,54,56,58,-1,60,-1,-1,62,64,-1,-1,66,68,70,72,-1,-1,-1,-1,-1,-1,-1,-1,-1,-1,-1,-1,-1,-1,-1,-1,-1,-1,-1,-1,-1,-1,-1,-1],"split_conditions":[3.1E0,3.82E1,7.1E2,1.652E1,1E0,8.1E0,1.12E0,1.6649324E1,4.7E-1,3.6E1,2.56E0,1.38E2,1.26E0,2.9136316E1,2.122449E1,1.36E2,3.6E1,9.5851675E-2,3.1E1,1.6528925E1,7E1,1.15E2,2.9E1,-6.239421E-2,1.0537935E-1,1.8E2,1E0,-7.454931E-2,-4.797524E-3,1.4664775E-1,-1.0518055E-2,9.06852E-2,1.03E0,1.3E2,1.33E0,1.34E2,1.02E0,1.0179444E-2,5.35E2,-1.5495762E-2,1.1261814E-1,1E0,9.1E1,-5.822483E-3,-4.4992425E-2,2.03E2,1.09E0,2.9E1,1.16E1,2.8705118E-2,-6.036543E-2,-4.937868E-3,-7.276674E-2,6.409181E-2,-4.5932256E-2,3.9624922E-2,-7.270505E-2,-4.7602084E-2,7.714258E-2,-7.695078E-2,-1.1190072E-2,6.571914E-2,-5.471211E-2,-9.395236E-3,1.5874366E-1,-8.295142E-2,-7.087733E-2,-6.5210685E-2,5.870227E-2,-7.593875E-2,-3.239942E-2,1.9007366E-2,-6.609459E-2],"split_indices":[12,8,4,7,2,5,9,3,15,11,9,10,9,3,3,6,11,0,13,3,0,4,11,0,0,13,2,0,0,0,0,0,9,16,15,16,9,0,4,0,0,1,10,0,0,10,9,11,5,0,0,0,0,0,0,0,0,0,0,0,0,0,0,0,0,0,0,0,0,0,0,0,0],"split_type":[0,0,0,0,0,0,0,0,0,0,0,0,0,0,0,0,0,0,0,0,0,0,0,0,0,0,0,0,0,0,0,0,0,0,0,0,0,0,0,0,0,0,0,0,0,0,0,0,0,0,0,0,0,0,0,0,0,0,0,0,0,0,0,0,0,0,0,0,0,0,0,0,0],"sum_hessian":[5.720532E3,1.8638794E2,5.5341445E3,1.565764E2,2.981153E1,5.5221113E3,1.203301E1,1.4219225E2,1.43841505E1,1.5741025E1,1.4070505E1,4.275046E0,5.5178364E3,8.967613E0,3.0653968E0,1.0666222E1,1.3152603E2,1.1276491E0,1.3256501E1,1.313801E1,2.6030145E0,1.1948054E1,2.1224506E0,2.881606E0,1.3934399E0,5.4508843E3,6.695213E1,7.9669147E0,1.0006981E0,1.9181716E0,1.1472253E0,2.036002E0,8.630219E0,1.1563263E2,1.5893398E1,8.288087E0,4.9684143E0,1.4460262E0,1.1691984E1,1.2906566E0,1.312358E0,2.9054503E0,9.042604E0,1.0218512E0,1.1005994E0,5.446309E3,4.5748844E0,5.2828667E1,1.4123468E1,3.0121827E0,5.618037E0,2.890394E0,1.1274224E2,3.0686502E0,1.2824748E1,2.0851698E0,6.2029176E0,1.2894793E0,3.678935E0,1.051414E1,1.1778444E0,1.0533822E0,1.8520682E0,1.1183538E0,7.92425E0,5.3479834E3,9.832562E1,3.4200943E0,1.15479E0,4.7826443E1,5.002224E0,6.340364E0,7.783104E0],"tree_param":{"num_deleted":"0","num_feature":"18","num_nodes":"73","size_leaf_vector":"1"}},{"base_weights":[-1.0688279E0,-5.470288E-1,-1.0868498E0,-7.063246E-1,2.4142675E-1,-1.0886748E0,-2.617196E-1,-7.860187E-1,4.795832E-2,-5.030696E-1,9.828079E-1,2.9922755E-2,-1.0895988E0,-8.899439E-1,1.205474E0,-5.790435E-3,-8.517397E-1,8.839978E-2,-1.3220368E-1,-8.703371E-1,6.151826E-1,1.2283752E0,-4.4217935E-1,-6.1190818E-2,9.638221E-2,-3.556585E-1,-1.0905337E0,-7.358747E-2,-4.3930723E-3,1.994583E-3,1.4461589E-1,1.0952905E0,-3.7594184E-1,-9.3031186E-1,-2.7800304E-1,-5.5484986E-1,5.093404E-1,-7.5267814E-2,-2.6293126E-1,9.034333E-2,-2.3696851E-2,-6.521054E-2,1.5731422E0,-5.6149224E-3,-4.4021096E-2,-6.929053E-2,8.620547E-1,-8.884719E-1,-1.0941372E0,1.04135014E-1,2.3241937E-2,2.6644262E-2,-5.891791E-2,-4.676532E-3,-7.147455E-2,-5.5819176E-2,3.8036752E-2,3.6828976E-2,-7.155424E-2,-4.658402E-2,6.9219775E-2,-5.025955E-2,2.542421E-2,6.153599E-2,-5.3567436E-2,3.868092E-3,1.3739882E-1,1.03368364E-1,-5.8952826E-3,-7.421997E-2,-6.4035608E-3,-8.224178E-2,-6.475771E-2],"categories":[],"categories_nodes":[],"categories_segments":[],"categories_sizes":[],"default_left":[0,0,0,0,0,0,0,0,0,0,0,0,0,0,0,0,0,0,0,0,0,0,0,0,0,0,0,0,0,0,0,0,0,0,0,0,0,0,0,0,0,0,0,0,0,0,0,0,0,0,0,0,0,0,0,0,0,0,0,0,0,0,0,0,0,0,0,0,0,0,0,0,0],"id":3,"left_children":[1,3,5,7,9,11,13,15,17,19,21,23,25,27,29,31,33,-1,35,37,39,41,43,-1,-1,45,47,-1,-1,-1,-1,49,51,53,55,57,59,-1,61,-1,-1,63,65,-1,-1,-1,67,69,71,-1,-1,-1,-1,-1,-1,-1,-1,-1,-1,-1,-1,-1,-1,-1,-1,-1,-1,-1,-1,-1,-1,-1,-1],"loss_changes":[4.9836914E1,2.2910267E1,7.519043E0,9.107155E0,1.7702244E1,5.3774414E0,1.2828656E1,6.995262E0,3.284832E0,7.1956205E0,6.127804E0,6.612706E0,3.1577148E0,6.6343117E-1,3.5685449E0,5.1446967E0,5.4170685E0,0E0,4.118837E0,7.5755787E-1,2.90248E0,6.2919807E0,1.19906664E-1,0E0,0E0,6.37154E0,2.7841797E0,0E0,0E0,0E0,0E0,3.0130434E-1,3.1052012E0,2.112297E0,6.451339E0,4.229539E0,3.4441671E0,0E0,1.1157773E0,0E0,0E0,2.816719E0,4.2367935E0,0E0,0E0,0E0,1.604279E0,7.6896286E0,1.8813477E0,0E0,0E0,0E0,0E0,0E0,0E0,0E0,0E0,0E0,0E0,0E0,0E0,0E0,0E0,0E0,0E0,0E0,0E0,0E0,0E0,0E0,0E0,0E0,0E0],"parents":[2147483647,0,0,1,1,2,2,3,3,4,4,5,5,6,6,7,7,8,8,9,9,10,10,11,11,12,12,13,13,14,14,15,15,16,16,18,18,19,19,20,20,21,21,22,22,25,25,26,26,31,31,32,32,33,33,34,34,35,35,36,36,38,38,41,41,42,42,46,46,47,47,48,48],"right_children":[2,4,6,8,10,12,14,16,18,20,22,24,26,28,30,32,34,-1,36,38,40,42,44,-1,-1,46,48,-1,-1,-1,-1,50,52,54,56,58,60,-1,62,-1,-1,64,66,-1,-1,-1,68,70,72,-1,-1,-1,-1,-1,-1,-1,-1,-1,-1,-1,-1,-1,-1,-1,-1,-1,-1,-1,-1,-1,-1,-1,-1],"split_conditions":[3.1E0,3.82E1,7.1E2,1.652E1,1E0,8.1E0,1.12E0,1.6649324E1,4.7E-1,2.9E1,2.56E0,1.38E2,1.3E2,2.1E1,9.2E-1,1.36E2,3.6E1,8.839978E-2,3.1E1,4.85E2,4.165247E0,1.15E2,2.9E1,-6.1190818E-2,9.638221E-2,1.05E0,3.3E0,-7.358747E-2,-4.3930723E-3,1.994583E-3,1.4461589E-1,2.7E0,1.03E0,1.3E2,1.32E2,1.34E2,1.02E0,-7.5267814E-2,1.1E2,9.034333E-2,-2.3696851E-2,1E0,2.3300167E1,-5.6149224E-3,-4.4021096E-2,-6.929053E-2,2.3781214E1,4.9E1,2.25E2,1.04135014E-1,2.3241937E-2,2.6644262E-2,-5.891791E-2,-4.676532E-3,-7.147455E-2,-5.5819176E-2,3.8036752E-2,3.6828976E-2,-7.155424E-2,-4.658402E-2,6.9219775E-2,-5.025955E-2,2.542421E-2,6.153599E-2,-5.3567436E-2,3.868092E-3,1.3739882E-1,1.03368364E-1,-5.8952826E-3,-7.421997E-2,-6.4035608E-3,-8.224178E-2,-6.475771E-2],"split_indices":[12,8,4,7,2,5,9,3,15,11,9,10,16,11,15,6,11,0,13,4,17,4,11,0,0,15,12,0,0,0,0,12,9,16,10,16,9,0,10,0,0,1,13,0,0,0,3,13,10,0,0,0,0,0,0,0,0,0,0,0,0,0,0,0,0,0,0,0,0,0,0,0,0],"split_type":[0,0,0,0,0,0,0,0,0,0,0,0,0,0,0,0,0,0,0,0,0,0,0,0,0,0,0,0,0,0,0,0,0,0,0,0,0,0,0,0,0,0,0,0,0,0,0,0,0,0,0,0,0,0,0,0,0,0,0,0,0,0,0,0,0,0,0,0,0,0,0,0,0],"sum_hessian":[5.361857E3,1.8005232E2,5.1818047E3,1.4987622E2,3.0176105E1,5.170051E3,1.1754162E1,1.3551613E2,1.4360099E1,1.52168045E1,1.49593E1,4.2412295E0,5.1658096E3,8.505645E0,3.248517E0,1.0612656E1,1.24903465E2,1.2119015E0,1.3148197E1,1.1621616E1,3.5951886E0,1.2878014E1,2.081287E0,2.7429063E0,1.4983232E0,7.057412E0,5.158752E3,7.502275E0,1.00337E0,1.6286968E0,1.6198202E0,2.1771886E0,8.435467E0,1.09311905E2,1.5591559E1,8.007818E0,5.140379E0,8.996107E0,2.625509E0,2.0217803E0,1.5734085E0,2.8806188E0,9.997395E0,1.0172958E0,1.0639911E0,4.976539E0,2.0808728E0,9.4722916E1,5.0640293E3,1.0262537E0,1.1509349E0,3.0765316E0,5.3589354E0,2.8793418E0,1.0643256E2,9.8151245E0,5.7764344E0,2.148576E0,5.859242E0,1.2424972E0,3.897882E0,1.4984804E0,1.1270286E0,1.1064789E0,1.7741399E0,1.627807E0,8.369588E0,1.0432137E0,1.0376589E0,8.392285E1,1.0800061E1,5.0077485E3,5.6280815E1],"tree_param":{"num_deleted":"0","num_feature":"18","num_nodes":"73","size_leaf_vector":"1"}},{"base_weights":[-1.058104E0,-5.245729E-1,-1.0771413E0,-7.119584E-1,1.1230199E-1,-1.0834414E0,-7.99588E-1,-7.6728904E-1,2.812468E-1,-5.715991E-1,5.566091E-1,-1.0865246E0,-9.0837854E-1,9.949499E-1,-8.7128896E-1,-6.829789E-2,-8.3376914E-1,-5.3428745E-1,1.451323E0,2.2132514E-1,-9.33704E-1,1.4981736E-1,3.3237648E-1,-1.0897765E0,-9.076058E-1,-9.9864715E-1,-1.6985592E-1,-5.3328726E-2,1.7105551E-1,-9.1992295E-1,7.878394E-1,-5.963334E-1,6.8034947E-1,-3.8122153E-1,-9.1279566E-1,1.0702755E-2,-6.205127E-2,1.6391325E-1,1.3500129E-2,8.359857E-2,-3.970834E-1,-1.8212914E-2,-7.549642E-2,-8.929451E-2,1.0355164E0,-4.5814744E-1,-1.0899774E0,-9.584569E-1,2.9965228E-1,-1.0223504E0,1.0841006E-3,-6.005876E-1,8.3339304E-1,2.2620382E-2,-9.367742E-1,8.928615E-2,-9.090842E-3,1.8409178E-2,-6.919323E-2,-2.2616949E-2,1.3206199E-1,6.1924197E-2,-4.6938136E-2,-7.03488E-2,6.9239264E-4,2.7052073E-2,-5.769023E-2,-3.2749265E-2,5.917677E-2,2.5019161E-2,1.7740437E-1,-5.192417E-3,-4.5668554E-2,-5.0909642E-2,-8.1780314E-2,-7.431067E-2,1.6109105E-2,-5.300801E-2,9.636017E-2,-7.757232E-2,-1.2919031E-2,2.4260068E-2,-6.9648415E-2,1.4678586E-1,-4.7426958E-2,-7.210953E-2,-5.4839384E-3],"categories":[],"categories_nodes":[],"categories_segments":[],"categories_sizes":[],"default_left":[0,0,0,0,0,0,0,0,0,0,0,0,0,0,0,0,0,0,0,0,0,0,0,0,0,0,0,0,0,0,0,0,0,0,0,0,0,0,0,0,0,0,0,0,0,0,0,0,0,0,0,0,0,0,0,0,0,0,0,0,0,0,0,0,0,0,0,0,0,0,0,0,0,0,0,0,0,0,0,0,0,0,0,0,0,0,0],"id":4,"left_children":[1,3,5,7,9,11,13,15,17,19,21,23,25,27,29,31,33,35,37,39,41,-1,43,45,47,49,51,-1,-1,53,55,57,59,61,63,-1,-1,-1,-1,-1,65,-1,-1,67,69,71,73,75,77,79,-1,81,83,-1,85,-1,-1,-1,-1,-1,-1,-1,-1,-1,-1,-1,-1,-1,-1,-1,-1,-1,-1,-1,-1,-1,-1,-1,-1,-1,-1,-1,-1,-1,-1,-1,-1],"loss_changes":[5.046582E1,2.0970005E1,7.6152344E0,7.6559296E0,1.2672601E1,1.5708008E0,1.5209335E1,5.9148254E0,8.291048E0,4.9456463E0,7.4631844E0,1.7182617E0,5.7055435E0,1.20398655E1,9.416481E0,5.248369E0,3.8456345E0,1.183896E0,2.8771462E0,3.7477353E0,3.3598518E-1,0E0,6.9015694E0,8.0078125E-2,5.7531357E0,1.895668E0,5.1690984E0,0E0,0E0,2.4461746E0,1.4642763E0,2.3455956E0,6.401937E0,6.170232E0,2.3104477E0,0E0,0E0,0E0,0E0,0E0,1.4822881E0,0E0,0E0,5.005377E0,7.3216248E0,1.441027E-1,5.9570312E-2,3.4647675E0,5.2314324E0,5.992813E-1,0E0,2.7678683E0,7.2726736E0,0E0,2.145401E0,0E0,0E0,0E0,0E0,0E0,0E0,0E0,0E0,0E0,0E0,0E0,0E0,0E0,0E0,0E0,0E0,0E0,0E0,0E0,0E0,0E0,0E0,0E0,0E0,0E0,0E0,0E0,0E0,0E0,0E0,0E0,0E0],"parents":[2147483647,0,0,1,1,2,2,3,3,4,4,5,5,6,6,7,7,8,8,9,9,10,10,11,11,12,12,13,13,14,14,15,15,16,16,17,17,18,18,19,19,20,20,22,22,23,23,24,24,25,25,26,26,29,29,30,30,31,31,32,32,33,33,34,34,40,40,43,43,44,44,45,45,46,46,47,47,48,48,49,49,51,51,52,52,54,54],"right_children":[2,4,6,8,10,12,14,16,18,20,22,24,26,28,30,32,34,36,38,40,42,-1,44,46,48,50,52,-1,-1,54,56,58,60,62,64,-1,-1,-1,-1,-1,66,-1,-1,68,70,72,74,76,78,80,-1,82,84,-1,86,-1,-1,-1,-1,-1,-1,-1,-1,-1,-1,-1,-1,-1,-1,-1,-1,-1,-1,-1,-1,-1,-1,-1,-1,-1,-1,-1,-1,-1,-1,-1,-1],"split_conditions":[3.1E0,2.9E1,1.2E0,2.25E2,1.09E0,2.03E2,8.7E0,1.6649324E1,3.47E1,1.52E2,6.5E-1,4.75E2,1E0,1.2E2,7.1E2,1.5625E1,1.34E2,1.36E2,2.7E0,2.7E0,5.58E0,1.4981736E-1,7.5E1,8.1E0,8E1,8.5E1,3.5E1,-5.3328726E-2,1.7105551E-1,1.3E2,6.5E1,1.03E0,3.3E1,2.72E1,5.64E1,1.0702755E-2,-6.205127E-2,1.6391325E-1,1.3500129E-2,8.359857E-2,1.9591837E1,-1.8212914E-2,-7.549642E-2,1.652E1,6.5E1,3.06E1,3.2E0,3.04E0,2.3148148E1,3.5379814E1,1.0841006E-3,2.79E1,4.165247E0,2.2620382E-2,2.25E2,8.928615E-2,-9.090842E-3,1.8409178E-2,-6.919323E-2,-2.2616949E-2,1.3206199E-1,6.1924197E-2,-4.6938136E-2,-7.03488E-2,6.9239264E-4,2.7052073E-2,-5.769023E-2,-3.2749265E-2,5.917677E-2,2.5019161E-2,1.7740437E-1,-5.192417E-3,-4.5668554E-2,-5.0909642E-2,-8.1780314E-2,-7.431067E-2,1.6109105E-2,-5.300801E-2,9.636017E-2,-7.757232E-2,-1.2919031E-2,2.4260068E-2,-6.9648415E-2,1.4678586E-1,-4.7426958E-2,-7.210953E-2,-5.4839384E-3],"split_indices":[12,11,9,10,9,10,5,3,8,6,15,4,2,10,4,3,16,16,12,12,7,0,0,5,0,0,13,0,0,16,0,9,8,8,8,0,0,0,0,0,3,0,0,7,13,8,17,15,3,3,0,8,17,0,10,0,0,0,0,0,0,0,0,0,0,0,0,0,0,0,0,0,0,0,0,0,0,0,0,0,0,0,0,0,0,0,0],"split_type":[0,0,0,0,0,0,0,0,0,0,0,0,0,0,0,0,0,0,0,0,0,0,0,0,0,0,0,0,0,0,0,0,0,0,0,0,0,0,0,0,0,0,0,0,0,0,0,0,0,0,0,0,0,0,0,0,0,0,0,0,0,0,0,0,0,0,0,0,0,0,0,0,0,0,0,0,0,0,0,0,0,0,0,0,0,0,0],"sum_hessian":[5.023225E3,1.7404482E2,4.84918E3,1.3438676E2,3.9658054E1,4.7387134E3,1.1046695E2,1.27510704E2,6.876054E0,1.5505174E1,2.4152882E1,4.6515845E3,8.7129036E1,3.7494297E0,1.0671752E2,1.1250195E1,1.1626051E2,4.372104E0,2.5039496E0,4.9828E0,1.0522373E1,2.18746E0,2.1965422E1,4.563549E3,8.803556E1,7.732543E1,9.803602E0,1.8035092E0,1.9459203E0,1.04111244E2,2.6062727E0,6.716423E0,4.533771E0,1.8149698E1,9.811082E1,1.475857E0,2.896247E0,1.1314517E0,1.3724979E0,1.7100708E0,3.2727292E0,1.417936E0,9.104438E0,1.427672E1,7.6887016E0,2.1765642E0,4.561372E3,8.467503E1,3.3605196E0,7.5548706E1,1.7767249E0,7.139647E0,2.6639557E0,1.1867536E0,1.0292449E2,1.5916852E0,1.0145874E0,1.9451294E0,4.771294E0,2.7529056E0,1.7808656E0,2.6584597E0,1.5491238E1,9.548501E1,2.6258082E0,1.0879502E0,2.184779E0,1.0590985E1,3.685735E0,5.851197E0,1.8375052E0,1.0156947E0,1.1608696E0,6.378811E0,4.5549937E3,8.255412E1,2.120916E0,1.8020868E0,1.5584328E0,7.4287994E1,1.2607118E0,1.874278E0,5.265369E0,1.3181317E0,1.345824E0,9.995422E1,2.9702718E0],"tree_param":{"num_deleted":"0","num_feature":"18","num_nodes":"87","size_leaf_vector":"1"}},{"base_weights":[-1.0479172E0,-5.0139934E-1,-1.068056E0,-6.620593E-1,2.3109764E-1,-1.0747316E0,-7.788131E-1,-7.443872E-1,5.8908314E-2,-4.6962744E-1,8.6429435E-1,-1.0780096E0,-8.9086616E-1,9.084401E-1,-8.524562E-1,1.5476534E-2,-8.135422E-1,3.1809026E-1,-6.4384794E-1,-9.111924E-1,4.325283E-1,1.0680023E0,-4.2058578E-1,-1.081465E0,-8.901468E-1,-9.8498106E-1,-1.5637861E-1,-5.2238356E-2,1.496884E-1,-9.02799E-1,7.315774E-1,1.0356997E0,-3.4943545E-1,-8.966739E-1,-2.5020054E-1,6.2834626E-1,-2.7550888E-1,-7.842751E-3,-5.8840968E-2,-1.01655545E-2,-7.400954E-2,1.0704691E0,-4.507398E-1,1.2339771E0,-4.279448E-2,-4.2448625E-2,-4.8448117E-3,-4.4632092E-1,-1.0816779E0,-9.43114E-1,2.8204626E-1,-1.0098563E0,1.0314713E-3,-5.805331E-1,7.712044E-1,2.1486929E-2,-9.2034906E-1,1.0403753E-1,-1.9781874E-3,9.781685E-2,2.2339106E-2,-6.6520095E-2,1.4327144E-2,-2.887428E-3,-6.909149E-2,4.492254E-2,-5.000008E-2,-3.3573404E-2,8.178641E-2,4.379078E-2,-6.0077917E-2,1.106574E-1,1.5011976E-2,-6.067053E-3,-4.4452287E-2,-1.4986345E-2,1.0477622E-1,-5.0068423E-3,-4.4692054E-2,-4.943342E-2,-8.1159756E-2,-7.3272884E-2,1.5145829E-2,-5.193391E-2,8.744804E-2,-7.6679684E-2,-1.2454353E-2,2.2767702E-2,-6.856499E-2,1.3100319E-1,-4.6439674E-2,-7.0371084E-2,1.6863655E-2],"categories":[],"categories_nodes":[],"categories_segments":[],"categories_sizes":[],"default_left":[0,0,0,0,0,0,0,0,0,0,0,0,0,0,0,0,0,0,0,0,0,0,0,0,0,0,0,0,0,0,0,0,0,0,0,0,0,0,0,0,0,0,0,0,0,0,0,0,0,0,0,0,0,0,0,0,0,0,0,0,0,0,0,0,0,0,0,0,0,0,0,0,0,0,0,0,0,0,0,0,0,0,0,0,0,0,0,0,0,0,0,0,0],"id":5,"left_children":[1,3,5,7,9,11,13,15,17,19,21,23,25,27,29,31,33,35,37,39,41,43,45,47,49,51,53,-1,-1,55,57,59,61,63,65,67,69,-1,-1,-1,-1,71,73,75,-1,-1,-1,77,79,81,83,85,-1,87,89,-1,91,-1,-1,-1,-1,-1,-1,-1,-1,-1,-1,-1,-1,-1,-1,-1,-1,-1,-1,-1,-1,-1,-1,-1,-1,-1,-1,-1,-1,-1,-1,-1,-1,-1,-1,-1,-1],"loss_changes":[5.124707E1,2.0052414E1,7.9223633E0,8.290489E0,1.4230414E1,1.7104492E0,1.3942543E1,6.5690613E0,2.967142E0,6.54403E0,4.8253593E0,1.8608398E0,5.610359E0,9.97006E0,8.799286E0,4.602084E0,5.132271E0,2.336893E0,2.5309634E-1,4.929247E-1,3.7231872E0,4.7058125E0,1.1899948E-1,9.375E-2,5.4941483E0,1.8455963E0,4.641891E0,0E0,0E0,2.3376236E0,1.8732067E0,2.5600576E-1,2.8236003E0,2.0559464E0,6.091503E0,4.476577E0,2.6030807E0,0E0,0E0,0E0,0E0,9.8605347E-1,1.15629196E-1,3.476328E0,0E0,0E0,0E0,1.3804346E-1,1.0205078E-1,3.3296585E0,4.6063013E0,5.915146E-1,0E0,2.6038003E0,6.20109E0,0E0,2.2267075E0,0E0,0E0,0E0,0E0,0E0,0E0,0E0,0E0,0E0,0E0,0E0,0E0,0E0,0E0,0E0,0E0,0E0,0E0,0E0,0E0,0E0,0E0,0E0,0E0,0E0,0E0,0E0,0E0,0E0,0E0,0E0,0E0,0E0,0E0,0E0,0E0],"parents":[2147483647,0,0,1,1,2,2,3,3,4,4,5,5,6,6,7,7,8,8,9,9,10,10,11,11,12,12,13,13,14,14,15,15,16,16,17,17,18,18,19,19,20,20,21,21,22,22,23,23,24,24,25,25,26,26,29,29,30,30,31,31,32,32,33,33,34,34,35,35,36,36,41,41,42,42,43,43,47,47,48,48,49,49,50,50,51,51,53,53,54,54,56,56],"right_children":[2,4,6,8,10,12,14,16,18,20,22,24,26,28,30,32,34,36,38,40,42,44,46,48,50,52,54,-1,-1,56,58,60,62,64,66,68,70,-1,-1,-1,-1,72,74,76,-1,-1,-1,78,80,82,84,86,-1,88,90,-1,92,-1,-1,-1,-1,-1,-1,-1,-1,-1,-1,-1,-1,-1,-1,-1,-1,-1,-1,-1,-1,-1,-1,-1,-1,-1,-1,-1,-1,-1,-1,-1,-1,-1,-1,-1,-1],"split_conditions":[3.1E0,3.82E1,1.2E0,1.652E1,1E0,2.03E2,8.7E0,1.6649324E1,3E0,2.1E1,2.56E0,4.75E2,1E0,1.2E2,7.1E2,1.36E2,3.6E1,1.26E0,1.35E2,1.6528925E1,1.52E2,2.91E2,7.3E1,8.1E0,8E1,8.5E1,3.5E1,-5.2238356E-2,1.496884E-1,1.3E2,1.52E2,2.7E0,4E0,1.3E2,2.7E0,1.953125E1,6.5E-1,-7.842751E-3,-5.8840968E-2,-1.01655545E-2,-7.400954E-2,1.69E0,3.1E1,9.1E1,-4.279448E-2,-4.2448625E-2,-4.8448117E-3,3.06E1,3.2E0,3.04E0,2.3148148E1,3.5379814E1,1.0314713E-3,2.79E1,4.165247E0,2.1486929E-2,1.8E2,1.0403753E-1,-1.9781874E-3,9.781685E-2,2.2339106E-2,-6.6520095E-2,1.4327144E-2,-2.887428E-3,-6.909149E-2,4.492254E-2,-5.000008E-2,-3.3573404E-2,8.178641E-2,4.379078E-2,-6.0077917E-2,1.106574E-1,1.5011976E-2,-6.067053E-3,-4.4452287E-2,-1.4986345E-2,1.0477622E-1,-5.0068423E-3,-4.4692054E-2,-4.943342E-2,-8.1159756E-2,-7.3272884E-2,1.5145829E-2,-5.193391E-2,8.744804E-2,-7.6679684E-2,-1.2454353E-2,2.2767702E-2,-6.856499E-2,1.3100319E-1,-4.6439674E-2,-7.0371084E-2,1.6863655E-2],"split_indices":[12,8,9,7,2,10,5,3,12,11,9,4,2,10,4,6,11,9,16,3,6,6,14,5,0,0,13,0,0,16,6,12,17,16,12,3,15,0,0,0,0,15,13,10,0,0,0,8,17,15,3,3,0,8,17,0,13,0,0,0,0,0,0,0,0,0,0,0,0,0,0,0,0,0,0,0,0,0,0,0,0,0,0,0,0,0,0,0,0,0,0,0,0],"split_type":[0,0,0,0,0,0,0,0,0,0,0,0,0,0,0,0,0,0,0,0,0,0,0,0,0,0,0,0,0,0,0,0,0,0,0,0,0,0,0,0,0,0,0,0,0,0,0,0,0,0,0,0,0,0,0,0,0,0,0,0,0,0,0,0,0,0,0,0,0,0,0,0,0,0,0,0,0,0,0,0,0,0,0,0,0,0,0,0,0,0,0,0,0],"sum_hessian":[4.703866E3,1.6809348E2,4.5357725E3,1.379359E2,3.015758E1,4.4307954E3,1.0497713E2,1.2377002E2,1.4165883E1,1.4438065E1,1.5719514E1,4.3484062E3,8.238941E1,3.9162116E0,1.0106092E2,1.0389387E1,1.1338063E2,1.0748954E1,3.4169297E0,9.686794E0,4.7512703E0,1.3714048E1,2.0054657E0,4.2652E3,8.320571E1,7.272909E1,9.660322E0,1.7268893E0,2.1893222E0,9.8364815E1,2.6961076E0,2.252794E0,8.136593E0,9.82851E1,1.5095527E1,7.02084E0,3.7281137E0,1.0677203E0,2.3492095E0,1.108339E0,8.578456E0,2.6356962E0,2.1155741E0,1.2676922E1,1.0371268E0,1.0050756E0,1.00039E0,2.132226E0,4.2630684E3,7.979546E1,3.4102423E0,7.09508E1,1.7782917E0,6.8858056E0,2.774517E0,1.2075838E0,9.715723E1,1.0005425E0,1.6955651E0,1.088897E0,1.163897E0,3.7580745E0,4.3785186E0,2.8044455E0,9.548066E1,4.8231063E0,1.0272421E1,2.11887E0,4.90197E0,1.372566E0,2.3555477E0,1.324226E0,1.3114702E0,1.0222148E0,1.0933595E0,1.2712996E0,1.14056225E1,1.0115633E0,1.1206627E0,6.116644E0,4.2569517E3,7.764637E1,2.1490993E0,1.7250526E0,1.6851898E0,6.97033E1,1.2474943E0,1.9114144E0,4.974391E0,1.4799328E0,1.2945844E0,9.583724E1,1.3199863E0],"tree_param":{"num_deleted":"0","num_feature":"18","num_nodes":"93","size_leaf_vector":"1"}},{"base_weights":[-1.038231E0,-4.8069635E-1,-1.0595267E0,-7.2181755E-1,-1.3306692E-2,-1.0666041E0,-7.5810295E-1,3.6590047E-2,-8.005492E-1,-6.261789E-1,3.858773E-1,-1.07009E0,-8.7360436E-1,8.3103144E-1,-8.335146E-1,1.0016265E0,-3.998156E-1,-9.1003305E-1,-4.8731503E-1,3.1403187E-1,-7.9705584E-1,6.741685E-2,1.13994E0,-1.0737649E0,-8.7281877E-1,-9.715714E-1,-1.4478998E-1,-5.1173043E-2,1.7647496E0,-8.856834E-1,6.912858E-1,1.2557562E-1,-1.467383E-2,4.001692E-2,-6.785295E-1,2.9316748E-2,-9.35249E-1,-7.3832405E-1,4.9715948E-1,-5.148491E-2,8.823473E-2,3.0931347E-5,-8.7707496E-1,7.6700765E-1,-4.6153218E-1,-4.7465093E-2,1.4529108E0,-4.3487775E-1,-1.073991E0,-9.279011E-1,2.6441944E-1,-9.976801E-1,9.814095E-4,-5.610567E-1,7.1269524E-1,1.6035688E-1,4.7399692E-2,2.0413117E-2,-9.0394944E-1,-3.2070007E-3,1.0010694E-1,2.4006018E-2,-6.954081E-2,-4.4871423E-2,-7.40969E-2,-7.18842E-2,-1.5591691E-2,1.1692734E-1,-2.8662903E-2,-5.4706987E-3,-6.918905E-2,1.3398596E-2,1.1468153E-1,-4.93824E-2,4.3580532E-2,5.6139268E-2,1.5456435E-1,-4.8279148E-3,-4.3743696E-2,-4.797333E-2,-8.0585346E-2,-7.224905E-2,1.4244768E-2,-5.0883483E-2,7.9587795E-2,-7.5832635E-2,-1.0237572E-2,2.1376813E-2,-6.750182E-2,1.1748287E-1,-4.547741E-2,-6.983981E-2,-1.5936668E-3],"categories":[],"categories_nodes":[],"categories_segments":[],"categories_sizes":[],"default_left":[0,0,0,0,0,0,0,0,0,0,0,0,0,0,0,0,0,0,0,0,0,0,0,0,0,0,0,0,0,0,0,0,0,0,0,0,0,0,0,0,0,0,0,0,0,0,0,0,0,0,0,0,0,0,0,0,0,0,0,0,0,0,0,0,0,0,0,0,0,0,0,0,0,0,0,0,0,0,0,0,0,0,0,0,0,0,0,0,0,0,0,0,0],"id":6,"left_children":[1,3,5,7,9,11,13,15,17,19,21,23,25,27,29,31,33,35,37,39,41,43,45,47,49,51,53,-1,55,57,59,-1,-1,-1,61,-1,63,65,67,-1,-1,-1,69,71,73,-1,75,77,79,81,83,85,-1,87,89,-1,-1,-1,91,-1,-1,-1,-1,-1,-1,-1,-1,-1,-1,-1,-1,-1,-1,-1,-1,-1,-1,-1,-1,-1,-1,-1,-1,-1,-1,-1,-1,-1,-1,-1,-1,-1,-1],"loss_changes":[5.178711E1,1.845942E1,8.240723E0,6.483433E0,1.41354885E1,1.8515625E0,1.2768944E1,5.084472E0,2.9162598E0,3.9103518E0,8.33036E0,2.0092773E0,5.494976E0,8.362689E0,8.304817E0,3.3468554E0,2.540318E0,2.7091446E0,7.1692057E0,4.4496965E0,1.24856E0,9.855825E0,6.6523323E0,1.0888672E-1,5.2357826E0,1.797287E0,4.1576886E0,0E0,9.163284E-2,2.2328873E0,1.8334405E0,0E0,0E0,0E0,2.0073526E0,0E0,6.589241E-1,2.4088793E0,6.375722E0,0E0,0E0,0E0,5.8235836E-1,4.8522506E0,3.5124786E0,0E0,2.3480835E0,1.3231081E-1,1.4355469E-1,3.2002563E0,4.069394E0,6.4360046E-1,0E0,2.4495885E0,5.3203826E0,0E0,0E0,0E0,2.210205E0,0E0,0E0,0E0,0E0,0E0,0E0,0E0,0E0,0E0,0E0,0E0,0E0,0E0,0E0,0E0,0E0,0E0,0E0,0E0,0E0,0E0,0E0,0E0,0E0,0E0,0E0,0E0,0E0,0E0,0E0,0E0,0E0,0E0,0E0],"parents":[2147483647,0,0,1,1,2,2,3,3,4,4,5,5,6,6,7,7,8,8,9,9,10,10,11,11,12,12,13,13,14,14,15,15,16,16,17,17,18,18,19,19,20,20,21,21,22,22,23,23,24,24,25,25,26,26,28,28,29,29,30,30,34,34,36,36,37,37,38,38,42,42,43,43,44,44,46,46,47,47,48,48,49,49,50,50,51,51,53,53,54,54,58,58],"right_children":[2,4,6,8,10,12,14,16,18,20,22,24,26,28,30,32,34,36,38,40,42,44,46,48,50,52,54,-1,56,58,60,-1,-1,-1,62,-1,64,66,68,-1,-1,-1,70,72,74,-1,76,78,80,82,84,86,-1,88,90,-1,-1,-1,92,-1,-1,-1,-1,-1,-1,-1,-1,-1,-1,-1,-1,-1,-1,-1,-1,-1,-1,-1,-1,-1,-1,-1,-1,-1,-1,-1,-1,-1,-1,-1,-1,-1,-1],"split_conditions":[3.1E0,2.1E1,1.2E0,1.6649324E1,1.09E0,2.03E2,8.7E0,1E0,3.38E1,1.17E2,5.3E1,4.75E2,1E0,1.2E2,7.1E2,1.2E2,4.7E-1,1.3E2,1.62E2,1E2,6.1E-1,2.7E0,1.01E2,8.1E0,8E1,8.5E1,3.5E1,-5.1173043E-2,1.05E2,1.3E2,3.5E1,1.2557562E-1,-1.467383E-2,4.001692E-2,1.36E2,2.9316748E-2,1.35E2,1E0,2.7E0,-5.148491E-2,8.823473E-2,3.0931347E-5,4.77E0,1.37E2,2.25E2,-4.7465093E-2,4.29E1,3.06E1,3.2E0,3.04E0,2.3148148E1,1.379E1,9.814095E-4,2.79E1,4.165247E0,1.6035688E-1,4.7399692E-2,2.0413117E-2,2.25E2,-3.2070007E-3,1.0010694E-1,2.4006018E-2,-6.954081E-2,-4.4871423E-2,-7.40969E-2,-7.18842E-2,-1.5591691E-2,1.1692734E-1,-2.8662903E-2,-5.4706987E-3,-6.918905E-2,1.3398596E-2,1.1468153E-1,-4.93824E-2,4.3580532E-2,5.6139268E-2,1.5456435E-1,-4.8279148E-3,-4.3743696E-2,-4.797333E-2,-8.0585346E-2,-7.224905E-2,1.4244768E-2,-5.0883483E-2,7.9587795E-2,-7.5832635E-2,-1.0237572E-2,2.1376813E-2,-6.750182E-2,1.1748287E-1,-4.547741E-2,-6.983981E-2,-1.5936668E-3],"split_indices":[12,11,9,3,9,10,5,9,8,6,14,4,2,10,4,4,15,16,10,4,15,12,10,5,0,0,13,0,4,16,13,0,0,0,6,0,16,2,12,0,0,0,7,16,10,0,8,8,17,15,3,7,0,8,17,0,0,0,10,0,0,0,0,0,0,0,0,0,0,0,0,0,0,0,0,0,0,0,0,0,0,0,0,0,0,0,0,0,0,0,0,0,0],"split_type":[0,0,0,0,0,0,0,0,0,0,0,0,0,0,0,0,0,0,0,0,0,0,0,0,0,0,0,0,0,0,0,0,0,0,0,0,0,0,0,0,0,0,0,0,0,0,0,0,0,0,0,0,0,0,0,0,0,0,0,0,0,0,0,0,0,0,0,0,0,0,0,0,0,0,0,0,0,0,0,0,0,0,0,0,0,0,0,0,0,0,0,0,0],"sum_hessian":[4.4036533E3,1.628813E2,4.240772E3,1.0709025E2,5.5791042E1,4.1410015E3,9.977061E1,1.0122014E1,9.696824E1,2.1781296E1,3.4009747E1,4.0630703E3,7.793096E1,4.0661187E0,9.570448E1,2.7486567E0,7.373358E0,7.044168E1,2.6526552E1,3.2209575E0,1.8560339E1,2.4677286E1,9.33246E0,3.984404E3,7.866624E1,6.8403145E1,9.527818E0,1.6542404E0,2.4118783E0,9.29437E1,2.7607875E0,1.5047338E0,1.2439231E0,1.4852154E0,5.888142E0,1.0636736E0,6.937801E1,2.1336475E1,5.1900754E0,1.5855787E0,1.6353787E0,1.7832599E0,1.6777079E1,1.0431056E1,1.424623E1,1.2469639E0,8.085497E0,2.089835E0,3.9823142E3,7.520762E1,3.4586198E0,6.662336E1,1.7797832E0,6.6468134E0,2.8810043E0,1.1464919E0,1.2653865E0,1.2275902E0,9.171611E1,1.7257156E0,1.0350717E0,1.1167177E0,4.7714243E0,1.1055139E1,5.8322872E1,1.4508488E1,6.8279886E0,2.000871E0,3.1892045E0,1.0367903E0,1.5740289E1,6.5830584E0,3.847998E0,1.2293109E1,1.9531215E0,4.7792892E0,3.3062074E0,1.0075907E0,1.0822444E0,5.8701086E0,3.976444E3,7.303176E1,2.1758544E0,1.6520671E0,1.8065526E0,6.542954E1,1.1938148E0,1.9467539E0,4.7000594E0,1.6351417E0,1.2458626E0,8.891641E1,2.7996984E0],"tree_param":{"num_deleted":"0","num_feature":"18","num_nodes":"93","size_leaf_vector":"1"}},{"base_weights":[-1.0289401E0,-5.643587E-1,-1.0567462E0,-7.833268E-1,-4.402312E-2,-1.0586349E0,-2.11224E-1,-1.080878E-1,-8.390263E-1,-5.142417E-1,4.6286315E-1,-1.1378795E-1,-1.0598754E0,-7.873087E-1,8.676377E-1,7.4470705E-1,-3.8805947E-1,-9.072363E-1,-2.8558323E-1,4.0940297E-1,-8.1276274E-1,-6.843041E-2,8.749693E-1,-6.365963E-2,9.076269E-2,-5.6126997E-2,-1.0608027E0,-6.771851E-2,-3.8806612E-3,-8.1652505E-3,1.3761449E-1,1.4104687E-1,-2.7222486E-2,-7.927943E-1,1.4724228E-1,-3.8517892E-1,-9.952632E-1,-7.4248195E-1,4.6581495E-1,-3.9853168E-1,1.2264904E0,1.5946055E-2,-8.716548E-1,-6.435902E-1,5.171797E-1,2.8807282E-1,1.4598855E0,6.0180217E-2,-5.7315845E-2,-1.0638924E0,-7.8449804E-1,-4.903527E-3,-6.863116E-2,9.043514E-2,-4.370746E-2,-4.8700854E-2,2.57222E-2,-7.518895E-2,-2.8475603E-2,2.5729729E-2,-6.681867E-2,-1.8353667E-2,9.080944E-2,-6.555096E-2,6.4638E-2,-9.888421E-3,1.2401017E-1,-7.000815E-2,3.272952E-3,3.319424E-3,-6.9677934E-2,-5.319711E-2,7.235546E-2,5.530546E-2,-4.7876317E-2,2.6573228E-2,1.4571765E-1,-3.807324E-2,-7.984817E-2,-6.981828E-2,6.335633E-3],"categories":[],"categories_nodes":[],"categories_segments":[],"categories_sizes":[],"default_left":[0,0,0,0,0,0,0,0,0,0,0,0,0,0,0,0,0,0,0,0,0,0,0,0,0,0,0,0,0,0,0,0,0,0,0,0,0,0,0,0,0,0,0,0,0,0,0,0,0,0,0,0,0,0,0,0,0,0,0,0,0,0,0,0,0,0,0,0,0,0,0,0,0,0,0,0,0,0,0,0,0],"id":7,"left_children":[1,3,5,7,9,11,13,15,17,19,21,23,25,27,29,31,33,35,37,39,41,43,45,-1,-1,47,49,-1,-1,-1,-1,-1,-1,51,53,55,57,59,61,63,65,-1,67,69,71,73,75,-1,-1,77,79,-1,-1,-1,-1,-1,-1,-1,-1,-1,-1,-1,-1,-1,-1,-1,-1,-1,-1,-1,-1,-1,-1,-1,-1,-1,-1,-1,-1,-1,-1],"loss_changes":[5.2654785E1,2.6732948E1,5.9848633E0,6.1259384E0,1.707538E1,4.426758E0,6.845214E0,3.5703454E0,5.4996033E0,1.0567817E1,7.618412E0,7.0675135E0,3.5463867E0,5.4747534E-1,3.908822E0,5.387567E0,2.5008178E0,5.836632E0,6.5932446E0,6.91331E0,1.8996029E0,5.7245483E0,6.2783775E0,0E0,0E0,3.428702E0,2.4692383E0,0E0,0E0,0E0,0E0,0E0,0E0,5.115104E-1,5.0156007E0,4.2929115E0,1.3388824E-1,2.1911697E0,4.263904E0,4.1380606E0,3.1664867E0,0E0,1.5700855E0,1.7142689E0,5.3425503E0,5.0440793E0,4.399534E0,0E0,0E0,1.0546875E0,6.0087013E0,0E0,0E0,0E0,0E0,0E0,0E0,0E0,0E0,0E0,0E0,0E0,0E0,0E0,0E0,0E0,0E0,0E0,0E0,0E0,0E0,0E0,0E0,0E0,0E0,0E0,0E0,0E0,0E0,0E0,0E0],"parents":[2147483647,0,0,1,1,2,2,3,3,4,4,5,5,6,6,7,7,8,8,9,9,10,10,11,11,12,12,13,13,14,14,15,15,16,16,17,17,18,18,19,19,20,20,21,21,22,22,25,25,26,26,33,33,34,34,35,35,36,36,37,37,38,38,39,39,40,40,42,42,43,43,44,44,45,45,46,46,49,49,50,50],"right_children":[2,4,6,8,10,12,14,16,18,20,22,24,26,28,30,32,34,36,38,40,42,44,46,-1,-1,48,50,-1,-1,-1,-1,-1,-1,52,54,56,58,60,62,64,66,-1,68,70,72,74,76,-1,-1,78,80,-1,-1,-1,-1,-1,-1,-1,-1,-1,-1,-1,-1,-1,-1,-1,-1,-1,-1,-1,-1,-1,-1,-1,-1,-1,-1,-1,-1,-1,-1],"split_conditions":[3.3E0,2.1E1,7.2E2,1.6649324E1,3.1E1,1.3E2,1.12E0,1.52E2,3.82E1,2.7E0,1.2E2,1.05E0,8.1E0,2.754821E1,4.1368937E0,1.3E1,1.7E1,1.35E2,1E0,1.32E2,4.24E0,7E1,2.9E0,-6.365963E-2,9.076269E-2,1.36E2,2.25E2,-6.771851E-2,-3.8806612E-3,-8.1652505E-3,1.3761449E-1,1.4104687E-1,-2.7222486E-2,4.5E1,1.03E0,4.9E1,5.45E2,3.5E0,1.38E2,1.652E1,2.85E1,1.5946055E-2,4.29E1,4E0,1.05E0,3.04E0,1E0,6.0180217E-2,-5.7315845E-2,3.2E0,1E0,-4.903527E-3,-6.863116E-2,9.043514E-2,-4.370746E-2,-4.8700854E-2,2.57222E-2,-7.518895E-2,-2.8475603E-2,2.5729729E-2,-6.681867E-2,-1.8353667E-2,9.080944E-2,-6.555096E-2,6.4638E-2,-9.888421E-3,1.2401017E-1,-7.000815E-2,3.272952E-3,3.319424E-3,-6.9677934E-2,-5.319711E-2,7.235546E-2,5.530546E-2,-4.7876317E-2,2.6573228E-2,1.4571765E-1,-3.807324E-2,-7.984817E-2,-6.981828E-2,6.335633E-3],"split_indices":[12,11,4,3,13,16,9,6,8,12,10,15,5,3,12,14,14,16,2,10,7,0,12,0,0,6,10,0,0,0,0,0,0,0,9,13,4,17,10,7,8,0,8,17,9,15,2,0,0,17,2,0,0,0,0,0,0,0,0,0,0,0,0,0,0,0,0,0,0,0,0,0,0,0,0,0,0,0,0,0,0],"split_type":[0,0,0,0,0,0,0,0,0,0,0,0,0,0,0,0,0,0,0,0,0,0,0,0,0,0,0,0,0,0,0,0,0,0,0,0,0,0,0,0,0,0,0,0,0,0,0,0,0,0,0,0,0,0,0,0,0,0,0,0,0,0,0,0,0,0,0,0,0,0,0,0,0,0,0,0,0,0,0,0,0],"sum_hessian":[4.121135E3,2.3393211E2,3.8872026E3,1.6429001E2,6.96421E1,3.878288E3,8.914657E0,1.2743411E1,1.515466E2,3.6120247E1,3.3521854E1,5.207191E0,3.8730808E3,5.987647E0,2.9270098E0,2.7393627E0,1.0004048E1,1.3434924E2,1.7197353E1,8.7318535E0,2.7388393E1,1.5007677E1,1.8514177E1,3.5791101E0,1.6280807E0,3.631426E0,3.8694495E3,4.9778066E0,1.0098408E0,1.8981141E0,1.0288957E0,1.0079235E0,1.7314394E0,5.4228654E0,4.581183E0,2.0160433E1,1.1418881E2,1.070182E1,6.4955325E0,4.6480865E0,4.0837665E0,1.3458251E0,2.6042568E1,7.5214458E0,7.486232E0,9.986435E0,8.527741E0,1.5811404E0,2.0502856E0,3.8238398E3,4.560961E1,1.0013144E0,4.421551E0,1.6038017E0,2.977381E0,1.4872859E1,5.2875743E0,1.12237305E2,1.951507E0,1.129582E0,9.572238E0,3.6683328E0,2.8271997E0,3.5974686E0,1.050618E0,1.1419909E0,2.9417756E0,2.4377153E1,1.6654149E0,2.4536967E0,5.067749E0,1.8451238E0,5.641108E0,6.862177E0,3.1242583E0,3.1199734E0,5.4077682E0,6.0602813E0,3.8177795E3,3.897199E1,6.6376243E0],"tree_param":{"num_deleted":"0","num_feature":"18","num_nodes":"81","size_leaf_vector":"1"}},{"base_weights":[-1.019985E0,-5.430893E-1,-1.0494281E0,-7.637645E-1,-4.031641E-2,-1.0514284E0,-1.9512708E-1,-9.648343E-2,-8.210741E-1,-5.762345E-1,3.6873817E-1,-1.03863835E-1,-1.0527457E0,-7.70923E-1,8.177837E-1,7.0614284E-1,-3.705972E-1,-8.9154786E-1,-2.6944E-1,6.010646E-2,-6.811606E-1,-1.3027026E-1,7.424912E-1,-6.289932E-2,8.433149E-2,-5.2552644E-2,-1.0537289E0,-6.677371E-2,-3.8529E-3,-7.7921143E-3,1.2667634E-1,1.2940535E-1,-2.6276274E-2,-7.746926E-1,1.4317083E-1,-3.663794E-1,-9.837217E-1,-7.227813E-1,4.3211624E-1,-7.369297E-1,3.0780962E-2,1.121783E0,-4.0720975E-1,1.0627595E0,-2.7975395E-2,5.6008022E-2,-5.612001E-2,-1.0570223E0,-7.650865E-1,-6.608324E-3,-6.740665E-2,8.270081E-2,-4.2388167E-2,-4.7091153E-2,2.3663899E-2,-7.434974E-2,-2.7511723E-2,-7.199399E-2,6.393239E-3,-1.7473418E-2,8.1810445E-2,-7.2188795E-2,-2.8043425E-2,1.24910824E-1,-6.708347E-3,-6.459194E-2,7.675997E-3,-2.8723147E-4,1.0812206E-1,-5.405584E-2,6.383376E-2,-3.6656138E-2,-7.933656E-2,-6.8728864E-2,5.89538E-3],"categories":[],"categories_nodes":[],"categories_segments":[],"categories_sizes":[],"default_left":[0,0,0,0,0,0,0,0,0,0,0,0,0,0,0,0,0,0,0,0,0,0,0,0,0,0,0,0,0,0,0,0,0,0,0,0,0,0,0,0,0,0,0,0,0,0,0,0,0,0,0,0,0,0,0,0,0,0,0,0,0,0,0,0,0,0,0,0,0,0,0,0,0,0,0],"id":8,"left_children":[1,3,5,7,9,11,13,15,17,19,21,23,25,27,29,31,33,35,37,-1,39,41,43,-1,-1,45,47,-1,-1,-1,-1,-1,-1,49,51,53,55,57,59,61,-1,63,65,67,69,-1,-1,71,73,-1,-1,-1,-1,-1,-1,-1,-1,-1,-1,-1,-1,-1,-1,-1,-1,-1,-1,-1,-1,-1,-1,-1,-1,-1,-1],"loss_changes":[5.3586914E1,2.5082848E1,6.0004883E0,5.934334E0,1.5579881E1,4.412842E0,6.294165E0,3.2473671E0,5.3843536E0,4.9886837E0,7.6251345E0,6.4838223E0,3.5024414E0,5.3038454E-1,3.391323E0,4.6953626E0,2.3472235E0,5.8287888E0,5.980791E0,0E0,2.0739546E0,6.7456627E0,5.761526E0,0E0,0E0,3.1197147E0,2.6269531E0,0E0,0E0,0E0,0E0,0E0,0E0,4.4767046E-1,4.420004E0,3.886378E0,1.4406586E-1,2.2280693E0,3.5932655E0,1.9366474E0,0E0,2.4876928E0,3.6938133E0,6.646324E0,5.3605776E0,0E0,0E0,1.1027832E0,5.7389317E0,0E0,0E0,0E0,0E0,0E0,0E0,0E0,0E0,0E0,0E0,0E0,0E0,0E0,0E0,0E0,0E0,0E0,0E0,0E0,0E0,0E0,0E0,0E0,0E0,0E0,0E0],"parents":[2147483647,0,0,1,1,2,2,3,3,4,4,5,5,6,6,7,7,8,8,9,9,10,10,11,11,12,12,13,13,14,14,15,15,16,16,17,17,18,18,20,20,21,21,22,22,25,25,26,26,33,33,34,34,35,35,36,36,37,37,38,38,39,39,41,41,42,42,43,43,44,44,47,47,48,48],"right_children":[2,4,6,8,10,12,14,16,18,20,22,24,26,28,30,32,34,36,38,-1,40,42,44,-1,-1,46,48,-1,-1,-1,-1,-1,-1,50,52,54,56,58,60,62,-1,64,66,68,70,-1,-1,72,74,-1,-1,-1,-1,-1,-1,-1,-1,-1,-1,-1,-1,-1,-1,-1,-1,-1,-1,-1,-1,-1,-1,-1,-1,-1,-1],"split_conditions":[3.3E0,2.1E1,7.2E2,1.6649324E1,1.09E0,1.3E2,1.12E0,1.52E2,3.82E1,1.6528925E1,3.5E1,2.1E1,8.1E0,1.05E0,4.1368937E0,1.3E1,1.7E1,1.35E2,1E0,6.010646E-2,4.75E2,6.5E-1,3.6E2,-6.289932E-2,8.433149E-2,1.36E2,2.25E2,-6.677371E-2,-3.8529E-3,-7.7921143E-3,1.2667634E-1,1.2940535E-1,-2.6276274E-2,4.7E-1,1.03E0,4.9E1,5.45E2,7.5E1,1.38E2,1.26E2,3.0780962E-2,2.9E0,9.51E0,1.1E2,7.3E1,5.6008022E-2,-5.612001E-2,3.2E0,1E0,-6.608324E-3,-6.740665E-2,8.270081E-2,-4.2388167E-2,-4.7091153E-2,2.3663899E-2,-7.434974E-2,-2.7511723E-2,-7.199399E-2,6.393239E-3,-1.7473418E-2,8.1810445E-2,-7.2188795E-2,-2.8043425E-2,1.24910824E-1,-6.708347E-3,-6.459194E-2,7.675997E-3,-2.8723147E-4,1.0812206E-1,-5.405584E-2,6.383376E-2,-3.6656138E-2,-7.933656E-2,-6.8728864E-2,5.89538E-3],"split_indices":[12,11,4,3,9,16,9,6,8,3,13,11,5,15,12,14,14,16,2,0,4,15,4,0,0,6,10,0,0,0,0,0,0,15,9,13,4,0,10,10,0,12,7,10,14,0,0,17,2,0,0,0,0,0,0,0,0,0,0,0,0,0,0,0,0,0,0,0,0,0,0,0,0,0,0],"split_type":[0,0,0,0,0,0,0,0,0,0,0,0,0,0,0,0,0,0,0,0,0,0,0,0,0,0,0,0,0,0,0,0,0,0,0,0,0,0,0,0,0,0,0,0,0,0,0,0,0,0,0,0,0,0,0,0,0,0,0,0,0,0,0,0,0,0,0,0,0,0,0,0,0,0,0],"sum_hessian":[3.855968E3,2.2535194E2,3.630616E3,1.562515E2,6.910044E1,3.621905E3,8.710951E0,1.2570565E1,1.4368094E2,2.9734905E1,3.936554E1,5.1391735E0,3.6167659E3,5.706153E0,3.0047975E0,2.798945E0,9.771621E0,1.2685806E2,1.6822874E1,1.6346334E0,2.8100271E1,1.7136953E1,2.2228586E1,3.4140217E0,1.7251517E0,3.6051378E0,3.6131606E3,4.6905427E0,1.0156105E0,1.8881125E0,1.1166849E0,1.1023242E0,1.6966207E0,5.1853266E0,4.5862937E0,1.9683651E1,1.0717441E2,1.0200876E1,6.621998E0,2.7043497E1,1.056774E0,2.5513892E0,1.4585564E1,1.5433712E1,6.7948737E0,1.6434913E0,1.9616464E0,3.5697664E3,4.3394337E1,1.0553075E0,4.130019E0,1.711394E0,2.8748999E0,1.4284767E1,5.398883E0,1.0526919E2,1.9052252E0,7.741053E0,2.4598234E0,3.6165638E0,3.0054338E0,1.5660351E1,1.1383146E1,1.5020969E0,1.0492924E0,7.3481736E0,7.2373896E0,4.3047805E0,1.1128932E1,3.9008963E0,2.8939774E0,5.868631E0,3.5638977E3,3.6722725E1,6.6716094E0],"tree_param":{"num_deleted":"0","num_feature":"18","num_nodes":"75","size_leaf_vector":"1"}},{"base_weights":[-1.0113114E0,-5.222737E-1,-1.042496E0,-7.443858E-1,-3.672953E-2,-1.0446134E0,-1.805384E-1,-8.6624086E-2,-8.031894E-1,-8.08955E-1,2.2870705E-1,-9.523986E-2,-1.0460126E0,-7.54647E-1,7.710874E-1,6.6899914E-1,-3.543536E-1,-8.758427E-1,-2.5538933E-1,-8.986415E-1,2.9747311E-3,-1.8597458E-1,5.965868E-1,-6.181691E-2,7.791669E-2,-4.9782574E-2,-1.0470549E0,-6.577427E-2,-3.7135887E-3,-7.4355477E-3,1.1700601E-1,1.3273142E-1,-2.8432123E-2,-7.56958E-1,1.3841432E-1,-3.4825546E-1,-9.723117E-1,-7.040016E-1,4.01142E-1,-9.517329E-1,-4.892952E-3,-5.198885E-1,6.24338E-1,1.1481563E0,1.4830744E-1,-5.461489E-2,5.569304E-2,-1.0505679E0,-7.456645E-1,-6.371539E-3,-6.624421E-2,7.785116E-2,-4.217467E-2,-4.852614E-2,1.7730992E-2,-7.352192E-2,-2.6575563E-2,-7.109449E-2,6.0288087E-3,-1.6629595E-2,7.404575E-2,-7.5675465E-2,-7.0479424E-3,-7.280935E-2,-6.71546E-3,7.6813984E-4,1.02818616E-1,1.4627986E-1,2.5297513E-2,-1.3807976E-2,1.15315914E-1,-3.5266936E-2,-7.885642E-2,-6.7638226E-2,5.4872455E-3],"categories":[],"categories_nodes":[],"categories_segments":[],"categories_sizes":[],"default_left":[0,0,0,0,0,0,0,0,0,0,0,0,0,0,0,0,0,0,0,0,0,0,0,0,0,0,0,0,0,0,0,0,0,0,0,0,0,0,0,0,0,0,0,0,0,0,0,0,0,0,0,0,0,0,0,0,0,0,0,0,0,0,0,0,0,0,0,0,0,0,0,0,0,0,0],"id":9,"left_children":[1,3,5,7,9,11,13,15,17,19,21,23,25,27,29,31,33,35,37,39,-1,41,43,-1,-1,45,47,-1,-1,-1,-1,-1,-1,49,51,53,55,57,59,61,-1,63,65,67,69,-1,-1,71,73,-1,-1,-1,-1,-1,-1,-1,-1,-1,-1,-1,-1,-1,-1,-1,-1,-1,-1,-1,-1,-1,-1,-1,-1,-1,-1],"loss_changes":[5.4482666E1,2.3515076E1,6.000244E0,5.721756E0,1.4445084E1,4.393799E0,5.782173E0,2.9495623E0,5.241623E0,1.4068632E0,8.1280365E0,5.8815603E0,3.454834E0,5.1233315E-1,2.9534316E0,5.1173525E0,2.198593E0,5.811096E0,5.4341426E0,6.6074467E-1,0E0,7.215382E0,6.77407E0,0E0,0E0,3.0025527E0,2.7885742E0,0E0,0E0,0E0,0E0,0E0,0E0,4.3106055E-1,4.1082335E0,3.687751E0,1.5367126E-1,2.1337996E0,3.0437098E0,6.5606403E-1,0E0,3.518621E0,3.60161E0,7.4368134E0,7.9682813E0,0E0,0E0,1.1513672E0,5.4775887E0,0E0,0E0,0E0,0E0,0E0,0E0,0E0,0E0,0E0,0E0,0E0,0E0,0E0,0E0,0E0,0E0,0E0,0E0,0E0,0E0,0E0,0E0,0E0,0E0,0E0,0E0],"parents":[2147483647,0,0,1,1,2,2,3,3,4,4,5,5,6,6,7,7,8,8,9,9,10,10,11,11,12,12,13,13,14,14,15,15,16,16,17,17,18,18,19,19,21,21,22,22,25,25,26,26,33,33,34,34,35,35,36,36,37,37,38,38,39,39,41,41,42,42,43,43,44,44,47,47,48,48],"right_children":[2,4,6,8,10,12,14,16,18,20,22,24,26,28,30,32,34,36,38,40,-1,42,44,-1,-1,46,48,-1,-1,-1,-1,-1,-1,50,52,54,56,58,60,62,-1,64,66,68,70,-1,-1,72,74,-1,-1,-1,-1,-1,-1,-1,-1,-1,-1,-1,-1,-1,-1,-1,-1,-1,-1,-1,-1,-1,-1,-1,-1,-1,-1],"split_conditions":[3.3E0,2.1E1,7.2E2,1.6649324E1,1E0,1.3E2,1.12E0,1.52E2,3.82E1,7.3E1,1.26E2,1.05E0,8.1E0,1.05E0,4.1368937E0,1.2E1,1.7E1,1.35E2,1E0,2.8537455E1,2.9747311E-3,1.22E1,9.5E0,-6.181691E-2,7.791669E-2,1.38E2,2.25E2,-6.577427E-2,-3.7135887E-3,-7.4355477E-3,1.1700601E-1,1.3273142E-1,-2.8432123E-2,4.7E-1,2.4E1,1.13E1,5.45E2,7.5E1,1.38E2,4.9E1,-4.892952E-3,3.1E1,3.5E1,7.46E0,2.64E2,-5.461489E-2,5.569304E-2,3.2E0,1E0,-6.371539E-3,-6.624421E-2,7.785116E-2,-4.217467E-2,-4.852614E-2,1.7730992E-2,-7.352192E-2,-2.6575563E-2,-7.109449E-2,6.0288087E-3,-1.6629595E-2,7.404575E-2,-7.5675465E-2,-7.0479424E-3,-7.280935E-2,-6.71546E-3,7.6813984E-4,1.02818616E-1,1.4627986E-1,2.5297513E-2,-1.3807976E-2,1.15315914E-1,-3.5266936E-2,-7.885642E-2,-6.7638226E-2,5.4872455E-3],"split_indices":[12,11,4,3,9,16,9,6,8,14,10,15,5,15,12,14,14,16,2,3,0,7,5,0,0,10,10,0,0,0,0,0,0,15,14,5,4,0,10,13,0,13,14,7,10,0,0,17,2,0,0,0,0,0,0,0,0,0,0,0,0,0,0,0,0,0,0,0,0,0,0,0,0,0,0],"split_type":[0,0,0,0,0,0,0,0,0,0,0,0,0,0,0,0,0,0,0,0,0,0,0,0,0,0,0,0,0,0,0,0,0,0,0,0,0,0,0,0,0,0,0,0,0,0,0,0,0,0,0,0,0,0,0,0,0,0,0,0,0,0,0,0,0,0,0,0,0,0,0,0,0,0,0],"sum_hessian":[3.6072354E3,2.1729822E2,3.3899373E3,1.4872905E2,6.856917E1,3.3814187E3,8.518446E0,1.2408129E1,1.3632092E2,1.7016375E1,5.155279E1,5.0782566E0,3.3763406E3,5.4421997E0,3.076246E0,2.8541017E0,9.554027E0,1.1982942E2,1.6491505E1,1.53365755E1,1.6797984E0,2.4467262E1,2.7085527E1,3.2576106E0,1.820646E0,3.579712E0,3.3727607E3,4.429875E0,1.0123248E0,1.8785852E0,1.1976608E0,1.056245E0,1.7978566E0,4.9629946E0,4.5910325E0,1.923632E1,1.005931E2,9.754134E0,6.73737E0,1.4284598E1,1.0519768E0,1.758092E1,6.8863425E0,1.1443737E1,1.5641791E1,1.9721377E0,1.6075742E0,3.331444E3,4.1316746E1,1.0498134E0,3.913181E0,1.7995268E0,2.7915053E0,1.2660366E1,6.575954E0,9.873175E1,1.8613484E0,7.281324E0,2.47281E0,3.5677388E0,3.1696312E0,1.3225215E1,1.0593833E0,7.97217E0,9.60875E0,4.3346214E0,2.5517209E0,5.0459943E0,6.3977423E0,1.3321685E1,2.3201065E0,5.688748E0,3.3257554E3,3.46134E1,6.703347E0],"tree_param":{"num_deleted":"0","num_feature":"18","num_nodes":"75","size_leaf_vector":"1"}},{"base_weights":[-1.002857E0,-5.016655E-1,-1.0359027E0,-7.250297E-1,-3.2680076E-2,-1.0381429E0,-1.6732323E-1,-7.739588E-2,-7.852655E-1,-7.911395E-1,2.1464956E-1,-8.786423E-2,-1.0396283E0,-7.385407E-1,7.2751343E-1,4.1431987E-1,-4.708524E-1,-9.227731E-1,-4.760615E-1,-8.835911E-1,2.8306057E-3,-1.74487E-1,5.475696E-1,-6.1102092E-2,7.26453E-2,-1.0436349E0,-7.0921135E-1,-6.47845E-2,-3.5793127E-3,-2.0777266E-2,9.8413266E-2,9.4332284E-1,-4.4083047E-1,-6.595247E-2,2.0193629E-1,-9.780818E-1,-4.6238455E-1,-5.823485E-1,8.397695E-1,-9.390846E-1,-4.5242836E-3,-5.001227E-1,5.768346E-1,9.62773E-1,7.469592E-2,-1.3287628E-1,-1.0444795E0,-7.9784197E-1,1.0324887E-1,-1.5702857E-2,1.127362E-1,-4.4521358E-2,-4.385014E-3,-4.6389274E-2,6.409427E-2,-7.5018704E-2,-2.246231E-2,4.5962878E-2,-6.305795E-2,6.351494E-2,-4.8222292E-2,1.2099124E-1,-1.588469E-2,-7.492659E-2,-6.796054E-3,-7.187729E-2,-6.2895487E-3,7.209701E-4,9.263033E-2,1.1509129E-1,2.9344363E-2,-1.957354E-2,1.0232474E-1,-5.352648E-2,5.3298272E-2,-7.860288E-2,-6.342809E-2,-6.6978835E-2,-1.51983425E-2],"categories":[],"categories_nodes":[],"categories_segments":[],"categories_sizes":[],"default_left":[0,0,0,0,0,0,0,0,0,0,0,0,0,0,0,0,0,0,0,0,0,0,0,0,0,0,0,0,0,0,0,0,0,0,0,0,0,0,0,0,0,0,0,0,0,0,0,0,0,0,0,0,0,0,0,0,0,0,0,0,0,0,0,0,0,0,0,0,0,0,0,0,0,0,0,0,0,0,0],"id":10,"left_children":[1,3,5,7,9,11,13,15,17,19,21,23,25,27,29,31,33,35,37,39,-1,41,43,-1,-1,45,47,-1,-1,-1,-1,49,51,-1,53,55,57,59,61,63,-1,65,67,69,71,73,75,77,-1,-1,-1,-1,-1,-1,-1,-1,-1,-1,-1,-1,-1,-1,-1,-1,-1,-1,-1,-1,-1,-1,-1,-1,-1,-1,-1,-1,-1,-1,-1],"loss_changes":[5.5378906E1,2.2048916E1,5.98584E0,5.5053787E0,1.3118239E1,4.364502E0,5.3088756E0,2.758709E0,5.1063995E0,1.3504238E0,6.9407964E0,5.4112606E0,3.4328613E0,4.9472857E-1,2.795586E0,3.3209648E0,2.3293116E0,1.8195114E0,6.393113E0,6.516409E-1,0E0,6.4344077E0,5.5664663E0,0E0,0E0,2.2548828E0,8.656631E0,0E0,0E0,0E0,0E0,3.080526E0,1.4849192E-1,0E0,2.54787E0,8.850479E-1,5.1798525E0,3.9795504E0,3.2408814E0,6.446142E-1,0E0,3.3646512E0,2.9974532E0,4.368972E0,6.6376457E0,2.4810953E0,1.3132324E0,2.0772972E0,0E0,0E0,0E0,0E0,0E0,0E0,0E0,0E0,0E0,0E0,0E0,0E0,0E0,0E0,0E0,0E0,0E0,0E0,0E0,0E0,0E0,0E0,0E0,0E0,0E0,0E0,0E0,0E0,0E0,0E0,0E0],"parents":[2147483647,0,0,1,1,2,2,3,3,4,4,5,5,6,6,7,7,8,8,9,9,10,10,11,11,12,12,13,13,14,14,15,15,16,16,17,17,18,18,19,19,21,21,22,22,25,25,26,26,31,31,32,32,34,34,35,35,36,36,37,37,38,38,39,39,41,41,42,42,43,43,44,44,45,45,46,46,47,47],"right_children":[2,4,6,8,10,12,14,16,18,20,22,24,26,28,30,32,34,36,38,40,-1,42,44,-1,-1,46,48,-1,-1,-1,-1,50,52,-1,54,56,58,60,62,64,-1,66,68,70,72,74,76,78,-1,-1,-1,-1,-1,-1,-1,-1,-1,-1,-1,-1,-1,-1,-1,-1,-1,-1,-1,-1,-1,-1,-1,-1,-1,-1,-1,-1,-1,-1,-1],"split_conditions":[3.3E0,2.1E1,7.2E2,1.6649324E1,1E0,1.3E2,1.12E0,1.05E0,1.15E0,7.3E1,1.26E2,2.1E1,2.25E2,1.05E0,1.1E2,1.514818E2,1.5625E1,4.9E1,1.33E0,1.29E1,2.8306057E-3,1.22E1,9.8E0,-6.1102092E-2,7.26453E-2,8.1E0,1.5E0,-6.47845E-2,-3.5793127E-3,-2.0777266E-2,9.8413266E-2,1E2,2.58E2,-6.595247E-2,3.38E1,3.82E1,1.35E2,3.2E0,1.36E2,4.9E1,-4.5242836E-3,3.1E1,3.5E1,7.46E0,2.64E2,1.38E2,4.75E2,4E1,1.0324887E-1,-1.5702857E-2,1.127362E-1,-4.4521358E-2,-4.385014E-3,-4.6389274E-2,6.409427E-2,-7.5018704E-2,-2.246231E-2,4.5962878E-2,-6.305795E-2,6.351494E-2,-4.8222292E-2,1.2099124E-1,-1.588469E-2,-7.492659E-2,-6.796054E-3,-7.187729E-2,-6.2895487E-3,7.209701E-4,9.263033E-2,1.1509129E-1,2.9344363E-2,-1.957354E-2,1.0232474E-1,-5.352648E-2,5.3298272E-2,-7.860288E-2,-6.342809E-2,-6.6978835E-2,-1.51983425E-2],"split_indices":[12,11,4,3,9,16,9,9,9,14,10,11,10,15,10,4,3,13,15,5,0,7,5,0,0,5,9,0,0,0,0,4,6,0,8,8,16,17,6,13,0,13,14,7,10,10,4,13,0,0,0,0,0,0,0,0,0,0,0,0,0,0,0,0,0,0,0,0,0,0,0,0,0,0,0,0,0,0,0],"split_type":[0,0,0,0,0,0,0,0,0,0,0,0,0,0,0,0,0,0,0,0,0,0,0,0,0,0,0,0,0,0,0,0,0,0,0,0,0,0,0,0,0,0,0,0,0,0,0,0,0,0,0,0,0,0,0,0,0,0,0,0,0,0,0,0,0,0,0,0,0,0,0,0,0,0,0,0,0,0,0],"sum_hessian":[3.3740747E3,2.0970793E2,3.164367E3,1.4168263E2,6.80253E1,3.1560317E3,8.335052E0,1.2250848E1,1.294318E2,1.6187155E1,5.1838146E1,5.019412E0,3.1510125E3,5.1940823E0,3.140969E0,5.421897E0,6.828951E0,8.821633E1,4.1215454E1,1.4503464E1,1.6836903E0,2.4120535E1,2.7717613E1,3.109195E0,1.910217E0,3.1111284E3,3.988402E1,4.1849165E0,1.0091658E0,1.3491274E0,1.7918416E0,3.2860267E0,2.1358702E0,4.057943E0,2.7710083E0,7.775123E1,1.0465102E1,3.8650837E1,2.5646155E0,1.3455778E1,1.0476855E0,1.7060543E1,7.059991E0,1.4207133E1,1.3510479E1,3.0290234E0,3.1080994E3,3.8850716E1,1.0333093E0,1.2788515E0,2.0071752E0,1.131315E0,1.0045553E0,1.2508466E0,1.5201616E0,7.483263E1,2.9186063E0,2.5628726E0,7.90223E0,1.0448068E0,3.760603E1,1.16997E0,1.3946456E0,1.2402237E1,1.0535412E0,7.5008936E0,9.55965E0,4.3371468E0,2.7228441E0,6.2595997E0,7.947534E0,1.1353046E1,2.1574316E0,1.885009E0,1.1440144E0,3.0492332E3,5.886613E1,3.306167E1,5.789047E0],"tree_param":{"num_deleted":"0","num_feature":"18","num_nodes":"79","size_leaf_vector":"1"}},{"base_weights":[-9.945702E-1,-4.8133278E-1,-1.0295922E0,-6.287582E-1,2.1132135E-1,-1.0319593E0,-1.5773968E-1,-7.504423E-1,-1.2166482E-1,-3.0785352E-1,5.950669E-1,-1.038036E0,-7.309545E-1,-7.22595E-1,6.778299E-1,-2.6995766E-1,-8.5394216E-1,1.3498417E0,-3.2543412E-1,-6.086836E-1,4.9890527E-1,9.3167454E-1,2.6686035E-2,-1.0425333E0,-7.9385656E-1,-8.8970864E-1,1.08165644E-1,-6.3802555E-2,-3.4498929E-3,-8.820039E-3,1.0391456E-1,4.60754E-1,-5.582173E-1,-1.3080981E-1,-9.089255E-1,-1.0478747E-2,1.4100285E-1,-8.7822413E-1,-4.4585127E-2,-7.019701E-2,-4.4111118E-2,-4.780002E-2,1.1173404E0,1.1177278E0,-2.451959E-2,-6.301746E-2,5.355149E-1,-3.8285902E-1,-1.0435387E0,-8.5482126E-1,3.6369565E-1,-9.7005844E-1,-4.3527374E-1,1.2816705E-1,-2.6624838E-1,-3.2207852E-3,9.737211E-2,-5.753692E-2,2.9569337E-2,2.8529072E-2,-4.9767725E-2,-6.933896E-2,-9.709772E-3,-7.219237E-2,-5.430157E-3,-3.2511737E-2,3.8933326E-2,7.653294E-2,-4.7331385E-2,1.16805874E-1,1.6731843E-2,-8.594923E-3,9.3591675E-2,-3.4584656E-2,8.735149E-2,6.0938578E-2,-6.351487E-2,-1.3042376E-2,-7.8312635E-2,4.2989098E-2,-6.790094E-2,-4.1722104E-2,7.5839885E-2,2.3909358E-2,-7.5988986E-2,-5.6198172E-2,1.2891221E-2,3.1794347E-2,-4.812619E-2],"categories":[],"categories_nodes":[],"categories_segments":[],"categories_sizes":[],"default_left":[0,0,0,0,0,0,0,0,0,0,0,0,0,0,0,0,0,0,0,0,0,0,0,0,0,0,0,0,0,0,0,0,0,0,0,0,0,0,0,0,0,0,0,0,0,0,0,0,0,0,0,0,0,0,0,0,0,0,0,0,0,0,0,0,0,0,0,0,0,0,0,0,0,0,0,0,0,0,0,0,0,0,0,0,0,0,0,0,0],"id":11,"left_children":[1,3,5,7,9,11,13,15,17,19,21,23,25,27,29,31,33,35,37,39,41,43,45,47,49,51,53,-1,-1,-1,-1,55,57,59,61,-1,-1,63,65,-1,67,-1,69,71,-1,-1,73,75,77,79,81,83,85,-1,87,-1,-1,-1,-1,-1,-1,-1,-1,-1,-1,-1,-1,-1,-1,-1,-1,-1,-1,-1,-1,-1,-1,-1,-1,-1,-1,-1,-1,-1,-1,-1,-1,-1,-1],"loss_changes":[5.6243896E1,2.091528E1,5.934082E0,1.02786255E1,7.447982E0,4.6296387E0,4.822273E0,6.4999084E0,1.0549104E1,4.2248106E0,4.0517473E0,2.3408203E0,8.312489E0,4.7754192E-1,2.5376186E0,5.617544E0,4.290146E0,3.6549253E0,4.68375E0,2.2163777E0,4.1818542E0,3.4922132E0,4.4000397E0,1.4777832E0,4.2890587E0,1.475502E0,6.870258E0,0E0,0E0,0E0,0E0,3.323973E0,4.0242763E0,2.7045827E0,1.1308899E0,0E0,0E0,6.232152E-1,4.8782616E0,0E0,4.1015286E0,0E0,1.0538025E0,2.0452795E0,0E0,0E0,4.4584274E0,3.952726E0,1.3654785E0,4.4041862E0,2.6605208E0,2.7326546E0,1.96355E0,0E0,2.7440028E0,0E0,0E0,0E0,0E0,0E0,0E0,0E0,0E0,0E0,0E0,0E0,0E0,0E0,0E0,0E0,0E0,0E0,0E0,0E0,0E0,0E0,0E0,0E0,0E0,0E0,0E0,0E0,0E0,0E0,0E0,0E0,0E0,0E0,0E0],"parents":[2147483647,0,0,1,1,2,2,3,3,4,4,5,5,6,6,7,7,8,8,9,9,10,10,11,11,12,12,13,13,14,14,15,15,16,16,17,17,18,18,19,19,20,20,21,21,22,22,23,23,24,24,25,25,26,26,31,31,32,32,33,33,34,34,37,37,38,38,40,40,42,42,43,43,46,46,47,47,48,48,49,49,50,50,51,51,52,52,54,54],"right_children":[2,4,6,8,10,12,14,16,18,20,22,24,26,28,30,32,34,36,38,40,42,44,46,48,50,52,54,-1,-1,-1,-1,56,58,60,62,-1,-1,64,66,-1,68,-1,70,72,-1,-1,74,76,78,80,82,84,86,-1,88,-1,-1,-1,-1,-1,-1,-1,-1,-1,-1,-1,-1,-1,-1,-1,-1,-1,-1,-1,-1,-1,-1,-1,-1,-1,-1,-1,-1,-1,-1,-1,-1,-1,-1],"split_conditions":[3.3E0,3.82E1,7.2E2,2.9E1,1.8E1,2.03E2,1.12E0,1.35E2,6.5E-1,7.5E1,1.01E1,4.75E2,1E0,1.05E0,4.1368937E0,2.79E1,1.6649324E1,8E1,1E0,1E0,1.45E2,6.4E1,6.5E1,3.2E0,8E1,4.6E0,1E1,-6.3802555E-2,-3.4498929E-3,-8.820039E-3,1.0391456E-1,3.1E1,7.3E1,1.05E0,2.64E2,-1.0478747E-2,1.4100285E-1,1.22E1,7.5E1,-7.019701E-2,1E0,-4.780002E-2,1.78E2,9.1E1,-2.451959E-2,-6.301746E-2,3.5E1,1.66E2,8.1E0,1.34E2,2.3148148E1,9.5E0,2E2,1.2816705E-1,1.7E1,-3.2207852E-3,9.737211E-2,-5.753692E-2,2.9569337E-2,2.8529072E-2,-4.9767725E-2,-6.933896E-2,-9.709772E-3,-7.219237E-2,-5.430157E-3,-3.2511737E-2,3.8933326E-2,7.653294E-2,-4.7331385E-2,1.16805874E-1,1.6731843E-2,-8.594923E-3,9.3591675E-2,-3.4584656E-2,8.735149E-2,6.0938578E-2,-6.351487E-2,-1.3042376E-2,-7.8312635E-2,4.2989098E-2,-6.790094E-2,-4.1722104E-2,7.5839885E-2,2.3909358E-2,-7.5988986E-2,-5.6198172E-2,1.2891221E-2,3.1794347E-2,-4.812619E-2],"split_indices":[12,8,4,11,11,10,9,16,15,0,5,4,2,15,12,8,3,4,9,2,4,11,0,17,0,17,11,0,0,0,0,13,14,9,10,0,0,5,0,0,1,0,6,10,0,0,13,6,5,16,3,5,4,0,14,0,0,0,0,0,0,0,0,0,0,0,0,0,0,0,0,0,0,0,0,0,0,0,0,0,0,0,0,0,0,0,0,0,0],"split_type":[0,0,0,0,0,0,0,0,0,0,0,0,0,0,0,0,0,0,0,0,0,0,0,0,0,0,0,0,0,0,0,0,0,0,0,0,0,0,0,0,0,0,0,0,0,0,0,0,0,0,0,0,0,0,0,0,0,0,0,0,0,0,0,0,0,0,0,0,0,0,0,0,0,0,0,0,0,0,0,0,0,0,0,0,0,0,0,0,0],"sum_hessian":[3.1556562E3,2.0252E2,2.9531365E3,1.6705586E2,3.5464138E1,2.944957E3,8.179444E0,1.3433937E2,3.2716496E1,1.5156483E1,2.0307655E1,2.8842798E3,6.0677235E1,4.960973E0,3.2184715E0,2.4448534E1,1.0989084E2,3.2953048E0,2.942119E1,1.1218694E1,3.9377887E0,1.2352852E1,7.954803E0,2.8289077E3,5.5371998E1,5.097326E1,9.703975E0,3.9548442E0,1.0061283E0,1.9078889E0,1.3105826E0,6.7470303E0,1.7701504E1,8.003893E0,1.0188694E2,1.0583652E0,2.2369397E0,9.195271E0,2.022592E1,6.6854124E0,4.533282E0,1.3771042E0,2.5606847E0,1.0859477E1,1.4933751E0,2.7012434E0,5.2535596E0,4.8858294E0,2.8240217E3,5.2850075E1,2.5219233E0,4.2350506E1,8.622753E0,1.163878E0,8.540096E0,4.80564E0,1.9413905E0,1.4676522E1,3.0249822E0,4.230561E0,3.7733319E0,9.9706116E1,2.1808288E0,8.147957E0,1.0473137E0,1.2105259E1,8.120662E0,1.3487257E0,3.1845562E0,1.2191436E0,1.3415409E0,1.0488497E0,9.810627E0,2.136426E0,3.1171336E0,1.1561824E0,3.7296472E0,2.2442944E0,2.8217776E3,1.452495E0,5.1397583E1,1.0999476E0,1.4219756E0,1.1643051E0,4.1186203E1,5.5289345E0,3.093818E0,2.9633372E0,5.5767593E0],"tree_param":{"num_deleted":"0","num_feature":"18","num_nodes":"89","size_leaf_vector":"1"}},{"base_weights":[-9.864242E-1,-4.6171987E-1,-1.0235153E0,-6.863518E-1,-2.3795312E-2,-1.0309069E0,-6.940753E-1,-4.500066E-1,-8.726092E-1,-7.555841E-1,1.9234042E-1,-1.0373089E0,-7.147679E-1,-7.700753E-1,6.833226E-1,2.064663E-1,-6.171624E-1,-1.0043337E0,-5.3697616E-1,-2.7540758E-1,-7.285184E-2,-1.9527024E-1,4.6436816E-1,-3.6455417E-1,-1.0383832E0,-8.8831055E-1,1.40982E-1,-8.6257946E-1,8.457241E-2,9.9925846E-2,-1.8398954E-2,-2.797497E-1,1.3517846E0,1.8564386E-2,-7.2883236E-1,-1.0230055E0,-1.0851497E-2,4.218476E-1,-7.0396763E-1,-6.797568E-1,6.686802E-2,7.715512E-1,-6.517696E-1,3.1021085E-1,1.3482267E-1,5.6804124E-2,-6.25003E-2,-1.6606283E-1,-1.0390568E0,-9.7964656E-1,-3.9871827E-1,1.2481737E-1,-2.3596932E-1,-9.395081E-1,-1.8864125E-1,6.823145E-1,-5.6147326E-2,5.233246E-2,-4.3815445E-2,1.519794E-2,1.3600469E-1,7.586546E-2,-2.5744941E-2,-5.9133556E-2,3.105643E-2,-7.8088984E-2,-1.9241316E-2,-5.216162E-2,1.2985083E-1,-6.530666E-2,3.0970064E-3,-4.713096E-3,-6.0940605E-2,-8.816684E-3,1.0346861E-1,1.3346736E-2,-5.576179E-2,5.5546146E-3,7.2643645E-2,2.8346194E-2,-4.476553E-2,-7.795637E-2,-3.199453E-2,-7.527897E-2,-2.7777401E-3,-5.4962493E-2,1.854862E-2,2.942812E-2,-4.558501E-2,-5.397646E-3,-7.1711294E-2,-6.1505865E-2,4.5523934E-2,9.5092855E-2,-4.2301666E-2],"categories":[],"categories_nodes":[],"categories_segments":[],"categories_sizes":[],"default_left":[0,0,0,0,0,0,0,0,0,0,0,0,0,0,0,0,0,0,0,0,0,0,0,0,0,0,0,0,0,0,0,0,0,0,0,0,0,0,0,0,0,0,0,0,0,0,0,0,0,0,0,0,0,0,0,0,0,0,0,0,0,0,0,0,0,0,0,0,0,0,0,0,0,0,0,0,0,0,0,0,0,0,0,0,0,0,0,0,0,0,0,0,0,0,0],"id":12,"left_children":[1,3,5,7,9,11,13,15,17,19,21,23,25,27,29,31,33,35,37,39,-1,41,43,45,47,49,51,53,55,-1,-1,57,59,61,63,65,-1,67,69,71,-1,73,75,77,-1,-1,-1,79,81,83,85,-1,87,89,91,93,-1,-1,-1,-1,-1,-1,-1,-1,-1,-1,-1,-1,-1,-1,-1,-1,-1,-1,-1,-1,-1,-1,-1,-1,-1,-1,-1,-1,-1,-1,-1,-1,-1,-1,-1,-1,-1,-1,-1],"loss_changes":[5.69834E1,1.9336811E1,5.996826E0,5.329979E0,1.0858914E1,4.7106934E0,7.1788063E0,6.6412E0,2.6278915E0,1.3537054E0,5.688427E0,1.5285645E0,8.543827E0,4.871605E0,2.6490731E0,7.504165E0,3.3901463E0,6.5932465E-1,3.8739657E0,3.5538576E0,0E0,1.047627E1,5.9149356E0,3.654029E0,1.3747559E0,1.7230377E0,6.376198E0,2.6669197E0,3.9167821E0,0E0,0E0,3.327653E0,1.7463918E0,3.2508993E0,3.0847244E0,4.16584E-1,0E0,6.9674582E0,2.447526E0,3.754747E-1,0E0,4.3278112E0,1.3417268E0,4.504862E0,0E0,0E0,0E0,9.807128E-1,1.3867188E-1,8.511696E-1,2.1493125E0,0E0,2.3948088E0,6.384697E-1,3.9500237E0,4.0032187E0,0E0,0E0,0E0,0E0,0E0,0E0,0E0,0E0,0E0,0E0,0E0,0E0,0E0,0E0,0E0,0E0,0E0,0E0,0E0,0E0,0E0,0E0,0E0,0E0,0E0,0E0,0E0,0E0,0E0,0E0,0E0,0E0,0E0,0E0,0E0,0E0,0E0,0E0,0E0],"parents":[2147483647,0,0,1,1,2,2,3,3,4,4,5,5,6,6,7,7,8,8,9,9,10,10,11,11,12,12,13,13,14,14,15,15,16,16,17,17,18,18,19,19,21,21,22,22,23,23,24,24,25,25,26,26,27,27,28,28,31,31,32,32,33,33,34,34,35,35,37,37,38,38,39,39,41,41,42,42,43,43,47,47,48,48,49,49,50,50,52,52,53,53,54,54,55,55],"right_children":[2,4,6,8,10,12,14,16,18,20,22,24,26,28,30,32,34,36,38,40,-1,42,44,46,48,50,52,54,56,-1,-1,58,60,62,64,66,-1,68,70,72,-1,74,76,78,-1,-1,-1,80,82,84,86,-1,88,90,92,94,-1,-1,-1,-1,-1,-1,-1,-1,-1,-1,-1,-1,-1,-1,-1,-1,-1,-1,-1,-1,-1,-1,-1,-1,-1,-1,-1,-1,-1,-1,-1,-1,-1,-1,-1,-1,-1,-1,-1],"split_conditions":[3.3E0,2.1E1,4.75E2,2.1604939E1,1E0,2.03E2,1.5E0,1.36E2,7E1,1.16E0,3.1E1,3.2E0,1E0,1.33E0,1.52E2,8.9E0,1.34E2,5.45E2,2.7E0,1.05E0,-7.285184E-2,2.7E0,3.2E0,1.66E2,8.1E0,4.6E0,1E1,1.53E2,2E2,9.9925846E-2,-1.8398954E-2,5.3E-1,6E1,2.79E1,1.43E2,1.45E2,-1.0851497E-2,1E0,4.9E1,1.66E2,6.686802E-2,1.32E2,4.77E0,1.652E1,1.3482267E-1,5.6804124E-2,-6.25003E-2,4E1,1.8E2,4.25E2,2E2,1.2481737E-1,1.7E1,8.4E1,4.2E0,2.2E1,-5.6147326E-2,5.233246E-2,-4.3815445E-2,1.519794E-2,1.3600469E-1,7.586546E-2,-2.5744941E-2,-5.9133556E-2,3.105643E-2,-7.8088984E-2,-1.9241316E-2,-5.216162E-2,1.2985083E-1,-6.530666E-2,3.0970064E-3,-4.713096E-3,-6.0940605E-2,-8.816684E-3,1.0346861E-1,1.3346736E-2,-5.576179E-2,5.5546146E-3,7.2643645E-2,2.8346194E-2,-4.476553E-2,-7.795637E-2,-3.199453E-2,-7.527897E-2,-2.7777401E-3,-5.4962493E-2,1.854862E-2,2.942812E-2,-4.558501E-2,-5.397646E-3,-7.1711294E-2,-6.1505865E-2,4.5523934E-2,9.5092855E-2,-4.2301666E-2],"split_indices":[12,11,4,3,9,10,9,6,0,15,13,17,2,15,6,7,16,4,12,15,0,12,12,6,5,17,11,10,6,0,0,15,0,8,16,16,0,2,13,6,0,10,7,7,0,0,0,0,13,4,4,0,14,10,17,14,0,0,0,0,0,0,0,0,0,0,0,0,0,0,0,0,0,0,0,0,0,0,0,0,0,0,0,0,0,0,0,0,0,0,0,0,0,0,0],"split_type":[0,0,0,0,0,0,0,0,0,0,0,0,0,0,0,0,0,0,0,0,0,0,0,0,0,0,0,0,0,0,0,0,0,0,0,0,0,0,0,0,0,0,0,0,0,0,0,0,0,0,0,0,0,0,0,0,0,0,0,0,0,0,0,0,0,0,0,0,0,0,0,0,0,0,0,0,0,0,0,0,0,0,0,0,0,0,0,0,0,0,0,0,0,0,0],"sum_hessian":[2.9512227E3,1.9573466E2,2.755488E3,1.289982E2,6.6736465E1,2.6929375E3,6.2550407E1,5.836011E1,7.0638084E1,1.464746E1,5.2089005E1,2.6372502E3,5.5687347E1,5.9697433E1,2.8529763E0,1.1796483E1,4.656363E1,4.929796E1,2.1340128E1,5.2470965E0,9.400363E0,2.1597305E1,3.04917E1,4.747472E0,2.6325027E3,4.6266613E1,9.4207325E0,5.3858673E1,5.838758E0,1.423428E0,1.4295483E0,8.81152E0,2.9849634E0,7.0817313E0,3.94819E1,4.8063965E1,1.2339919E0,2.9389932E0,1.8401134E1,4.2069364E0,1.04016E0,6.7055182E0,1.4891788E1,2.8436441E1,2.0552576E0,1.2176389E0,3.5298328E0,2.2219858E0,2.6302808E3,3.8148808E1,8.1178055E0,1.1913884E0,8.229344E0,4.7987003E1,5.8716726E0,3.505208E0,2.33355E0,1.7858518E0,7.025668E0,1.2678158E0,1.7171475E0,1.4117714E0,5.6699595E0,3.781937E1,1.6625261E0,4.6600124E1,1.4638426E0,1.8388621E0,1.100131E0,1.4898495E1,3.5026402E0,1.0060586E0,3.200878E0,3.050911E0,3.6546073E0,1.3887438E0,1.3503043E1,2.1748148E1,6.688293E0,1.0362059E0,1.1857799E0,2.6280332E3,2.2476034E0,3.7135582E1,1.0132248E0,5.2620335E0,2.8557723E0,3.0388474E0,5.1904964E0,1.0034525E0,4.6983547E1,3.2564836E0,2.615189E0,2.3729668E0,1.1322412E0],"tree_param":{"num_deleted":"0","num_feature":"18","num_nodes":"95","size_leaf_vector":"1"}},{"base_weights":[-9.782898E-1,-4.415806E-1,-1.0176364E0,-5.890421E-1,2.030495E-1,-1.0255115E0,-6.748169E-1,-7.1331245E-1,-1.06639795E-1,-2.568192E-1,5.49788E-1,-1.0323511E0,-6.954386E-1,2.0030238E-1,-7.992551E-1,-2.305704E-1,-8.2387125E-1,1.1869041E0,-3.0097446E-1,-7.394211E-1,2.7857772E-1,7.0111054E-1,-4.906267E-1,-3.4726554E-1,-1.033499E0,-8.747934E-1,1.3962202E-1,1.02192014E-1,-3.2416648E-1,-8.980637E-1,-2.7898577E-1,4.3882474E-1,-5.165683E-1,-9.073578E-2,-8.8389117E-1,-1.0467406E-2,1.6327069E0,-4.8704037E-1,4.2869952E-1,-6.8640724E-2,-9.998136E-2,-4.7089353E-1,1.0599163E0,9.0676415E-1,6.7256704E-2,-6.439398E-3,-4.7475472E-2,5.2983277E-2,-6.149412E-2,-1.6019687E-1,-1.0342171E0,-9.705476E-1,-3.821461E-1,1.13399E-1,-2.2344252E-1,-6.236617E-2,4.6710595E-2,-7.6531395E-2,-6.116813E-1,-7.224011E-1,3.3137268E-1,-2.123576E-2,6.6715606E-2,-5.4992113E-2,2.9232014E-2,5.78517E-2,-2.9619463E-2,-6.986583E-2,-3.6796615E-2,1.5173335E-1,2.6533363E-2,-4.978908E-2,4.669836E-3,-3.238288E-2,1.2545769E-1,3.1585667E-2,-4.2741887E-2,-6.0826782E-2,3.1899467E-2,1.0911447E-2,1.033192E-1,1.0058155E-2,8.5413046E-2,5.570627E-2,-5.6512255E-2,2.8674638E-2,-4.4117466E-2,-7.759521E-2,-3.0956127E-2,-7.47003E-2,-2.676326E-3,-5.3728476E-2,1.7300412E-2,-6.1049633E-2,1.506965E-2,-7.01567E-2,-1.4766967E-2,-5.7424684E-3,-6.36289E-2,-2.991799E-2,7.177243E-2],"categories":[],"categories_nodes":[],"categories_segments":[],"categories_sizes":[],"default_left":[0,0,0,0,0,0,0,0,0,0,0,0,0,0,0,0,0,0,0,0,0,0,0,0,0,0,0,0,0,0,0,0,0,0,0,0,0,0,0,0,0,0,0,0,0,0,0,0,0,0,0,0,0,0,0,0,0,0,0,0,0,0,0,0,0,0,0,0,0,0,0,0,0,0,0,0,0,0,0,0,0,0,0,0,0,0,0,0,0,0,0,0,0,0,0,0,0,0,0,0,0],"id":13,"left_children":[1,3,5,7,9,11,13,15,17,19,21,23,25,27,29,31,33,35,37,39,41,43,45,47,49,51,53,-1,55,57,59,61,63,65,67,-1,69,71,73,-1,75,77,79,81,83,-1,-1,-1,-1,85,87,89,91,-1,93,-1,-1,-1,95,97,99,-1,-1,-1,-1,-1,-1,-1,-1,-1,-1,-1,-1,-1,-1,-1,-1,-1,-1,-1,-1,-1,-1,-1,-1,-1,-1,-1,-1,-1,-1,-1,-1,-1,-1,-1,-1,-1,-1,-1,-1],"loss_changes":[5.7860107E1,1.8215229E1,6.2509766E0,9.226746E0,5.910751E0,4.9536133E0,6.767658E0,6.3863373E0,8.64344E0,4.40104E0,3.6419039E0,1.5749512E0,8.219198E0,5.533678E0,2.4906387E0,4.8883185E0,4.31427E0,2.893425E0,4.2078533E0,8.990798E-1,5.431669E0,2.376544E0,1.3284338E-1,3.3779075E0,1.3735352E0,1.7349854E0,5.5301485E0,0E0,3.6716738E0,9.3027496E-1,2.935342E0,2.7997036E0,3.7260728E0,2.578682E0,1.2707748E0,0E0,1.0081043E0,2.3663535E0,7.6983504E0,0E0,9.802572E-1,1.8665688E0,1.0868998E0,2.3645668E0,3.698117E0,0E0,0E0,0E0,0E0,9.679656E-1,1.6040039E-1,8.38501E-1,1.991107E0,0E0,2.4471576E0,0E0,0E0,0E0,1.9343042E0,4.3008208E-1,2.6099014E0,0E0,0E0,0E0,0E0,0E0,0E0,0E0,0E0,0E0,0E0,0E0,0E0,0E0,0E0,0E0,0E0,0E0,0E0,0E0,0E0,0E0,0E0,0E0,0E0,0E0,0E0,0E0,0E0,0E0,0E0,0E0,0E0,0E0,0E0,0E0,0E0,0E0,0E0,0E0,0E0],"parents":[2147483647,0,0,1,1,2,2,3,3,4,4,5,5,6,6,7,7,8,8,9,9,10,10,11,11,12,12,13,13,14,14,15,15,16,16,17,17,18,18,19,19,20,20,21,21,22,22,23,23,24,24,25,25,26,26,28,28,29,29,30,30,31,31,32,32,33,33,34,34,36,36,37,37,38,38,40,40,41,41,42,42,43,43,44,44,49,49,50,50,51,51,52,52,54,54,58,58,59,59,60,60],"right_children":[2,4,6,8,10,12,14,16,18,20,22,24,26,28,30,32,34,36,38,40,42,44,46,48,50,52,54,-1,56,58,60,62,64,66,68,-1,70,72,74,-1,76,78,80,82,84,-1,-1,-1,-1,86,88,90,92,-1,94,-1,-1,-1,96,98,100,-1,-1,-1,-1,-1,-1,-1,-1,-1,-1,-1,-1,-1,-1,-1,-1,-1,-1,-1,-1,-1,-1,-1,-1,-1,-1,-1,-1,-1,-1,-1,-1,-1,-1,-1,-1,-1,-1,-1,-1],"split_conditions":[3.3E0,3.82E1,4.75E2,2.9E1,1E0,2.03E2,1.52E2,1.35E2,6.5E-1,7E1,2.56E0,3.2E0,1E0,1.37E2,2.1E1,2.79E1,1.6649324E1,8E1,1.3947672E2,1.33E0,4E1,1.36E2,5E1,1.66E2,8.1E0,4.6E0,1E1,1.02192014E-1,1.15E0,1.15E2,5.65E2,1.04E1,7.3E1,1.52E2,1.62E2,-1.0467406E-2,1.52E2,1.62E2,3.5E1,-6.8640724E-2,6.3E0,3.55E2,9.3E1,5.2E0,2.7E0,-6.439398E-3,-4.7475472E-2,5.2983277E-2,-6.149412E-2,9.5E1,1.8E2,4.25E2,2E2,1.13399E-1,7.9E0,-6.236617E-2,4.6710595E-2,-7.6531395E-2,4.2E0,9.6E1,4.4E0,-2.123576E-2,6.6715606E-2,-5.4992113E-2,2.9232014E-2,5.78517E-2,-2.9619463E-2,-6.986583E-2,-3.6796615E-2,1.5173335E-1,2.6533363E-2,-4.978908E-2,4.669836E-3,-3.238288E-2,1.2545769E-1,3.1585667E-2,-4.2741887E-2,-6.0826782E-2,3.1899467E-2,1.0911447E-2,1.033192E-1,1.0058155E-2,8.5413046E-2,5.570627E-2,-5.6512255E-2,2.8674638E-2,-4.4117466E-2,-7.759521E-2,-3.0956127E-2,-7.47003E-2,-2.676326E-3,-5.3728476E-2,1.7300412E-2,-6.1049633E-2,1.506965E-2,-7.01567E-2,-1.4766967E-2,-5.7424684E-3,-6.36289E-2,-2.991799E-2,7.177243E-2],"split_indices":[12,8,4,11,2,10,6,16,15,0,9,17,2,16,11,8,3,4,16,15,13,6,0,6,5,17,11,0,9,10,4,5,14,6,10,0,6,10,14,0,7,4,6,7,12,0,0,0,0,4,13,4,4,0,7,0,0,0,17,10,17,0,0,0,0,0,0,0,0,0,0,0,0,0,0,0,0,0,0,0,0,0,0,0,0,0,0,0,0,0,0,0,0,0,0,0,0,0,0,0,0],"split_type":[0,0,0,0,0,0,0,0,0,0,0,0,0,0,0,0,0,0,0,0,0,0,0,0,0,0,0,0,0,0,0,0,0,0,0,0,0,0,0,0,0,0,0,0,0,0,0,0,0,0,0,0,0,0,0,0,0,0,0,0,0,0,0,0,0,0,0,0,0,0,0,0,0,0,0,0,0,0,0,0,0,0,0,0,0,0,0,0,0,0,0,0,0,0,0,0,0,0,0,0,0],"sum_hessian":[2.7601692E3,1.8936374E2,2.5708054E3,1.5418059E2,3.518315E1,2.511129E3,5.967649E1,1.2221774E2,3.1962843E1,1.5235759E1,1.9947393E1,2.4580664E3,5.3062508E1,7.3534255E0,5.2323067E1,2.3349659E1,9.886809E1,3.5076244E0,2.845522E1,7.812537E0,7.4232216E0,1.7699259E1,2.2481356E0,4.6193633E0,2.453447E3,4.3641567E1,9.420942E0,1.7895914E0,5.563834E0,4.3361732E1,8.961334E0,6.8297825E0,1.6519876E1,7.671649E0,9.119644E1,1.0551122E0,2.4525123E0,2.2938465E1,5.5167546E0,5.7896385E0,2.0228987E0,3.9916747E0,3.4315472E0,1.3038399E1,4.6608586E0,1.0021551E0,1.2459805E0,1.277271E0,3.3420923E0,2.199837E0,2.451247E3,3.5727306E1,7.9142604E0,1.3088912E0,8.112051E0,3.7021413E0,1.8616931E0,2.8585611E1,1.477612E1,5.084188E0,3.877147E0,2.7678962E0,4.0618863E0,1.34868145E1,3.0330617E0,1.6003643E0,6.071285E0,8.011949E1,1.1076947E1,1.4331505E0,1.0193617E0,1.7195063E1,5.743401E0,3.6471255E0,1.8696291E0,1.0083907E0,1.014508E0,2.962441E0,1.0292335E0,1.2606643E0,2.170883E0,3.3761146E0,9.662285E0,2.6088066E0,2.052052E0,1.0172638E0,1.1825732E0,2.4490625E3,2.1847625E0,3.471657E1,1.0107341E0,5.011808E0,2.9024525E0,3.008006E0,5.104045E0,7.5939116E0,7.1822085E0,1.0923256E0,3.9918623E0,1.9560858E0,1.921061E0],"tree_param":{"num_deleted":"0","num_feature":"18","num_nodes":"101","size_leaf_vector":"1"}},{"base_weights":[-9.702642E-1,-4.2241082E-1,-1.0119411E0,-6.479217E-1,-1.1015379E-2,-1.020322E0,-6.563007E-1,-4.0537432E-1,-8.4647536E-1,-7.2592473E-1,1.8541372E-1,-1.0276225E0,-6.765133E-1,1.942879E-1,-7.8325087E-1,2.0714551E-1,-5.732583E-1,-9.90187E-1,-4.9386528E-1,-2.3561747E-1,-7.165867E-2,-1.4840366E-1,4.5091143E-1,-3.3096603E-1,-1.0288488E0,-8.611523E-1,1.3425173E-1,1.1208284E0,-3.9947075E-1,-8.314681E-1,1.8064976E-1,-2.5213873E-1,1.1912137E0,4.2409636E-2,-6.89882E-1,-1.0110137E0,-8.304124E-3,4.2016104E-1,-6.6640645E-1,-6.5218514E-1,6.475972E-2,-4.593116E-1,5.0972444E-1,5.99103E-1,-3.9990768E-1,4.9451772E-2,-6.0495373E-2,-1.5453194E-1,-1.0296139E0,-9.614688E-1,-3.661477E-1,-6.0474817E-2,6.0444814E-1,1.2756738E-1,-1.0076199E-2,-6.1030254E-2,3.2131717E-2,-8.820528E-1,7.2069675E-2,-4.286763E-2,6.418677E-2,4.8453785E-2,-4.1669436E-2,1.3487796E-1,2.0436756E-2,-2.8583748E-2,5.9252873E-2,-5.649838E-2,3.1145802E-2,-7.734473E-2,-1.756858E-2,-5.0367113E-2,1.1734171E-1,-6.33246E-2,5.007882E-3,-5.1912284E-3,-5.8986906E-2,-6.974805E-2,-6.0303793E-3,-2.582522E-3,7.044983E-2,5.2572276E-2,-4.994688E-2,-6.4895146E-2,3.7094526E-2,-4.3758452E-2,2.7790153E-2,-7.725194E-2,-2.9943122E-2,-7.4128814E-2,-2.5786217E-3,-5.249637E-2,1.6145526E-2,7.7453256E-2,-5.1607613E-2,-6.8886206E-2,2.6023671E-2,-4.6148628E-2,6.122302E-2],"categories":[],"categories_nodes":[],"categories_segments":[],"categories_sizes":[],"default_left":[0,0,0,0,0,0,0,0,0,0,0,0,0,0,0,0,0,0,0,0,0,0,0,0,0,0,0,0,0,0,0,0,0,0,0,0,0,0,0,0,0,0,0,0,0,0,0,0,0,0,0,0,0,0,0,0,0,0,0,0,0,0,0,0,0,0,0,0,0,0,0,0,0,0,0,0,0,0,0,0,0,0,0,0,0,0,0,0,0,0,0,0,0,0,0,0,0,0,0],"id":14,"left_children":[1,3,5,7,9,11,13,15,17,19,21,23,25,27,29,31,33,35,37,39,-1,41,43,45,47,49,51,53,55,57,59,61,63,65,67,69,-1,71,73,75,-1,77,79,81,83,-1,-1,85,87,89,91,-1,93,-1,-1,-1,-1,95,97,-1,-1,-1,-1,-1,-1,-1,-1,-1,-1,-1,-1,-1,-1,-1,-1,-1,-1,-1,-1,-1,-1,-1,-1,-1,-1,-1,-1,-1,-1,-1,-1,-1,-1,-1,-1,-1,-1,-1,-1],"loss_changes":[5.854004E1,1.709045E1,6.4816895E0,5.3888206E0,9.440853E0,5.1835938E0,6.419716E0,5.825405E0,2.7808685E0,1.4052396E0,4.7449484E0,1.6171875E0,7.8443203E0,5.0353827E0,2.5067177E0,6.028065E0,3.1757364E0,7.0952225E-1,3.5412626E0,3.285787E0,0E0,5.1726236E0,3.977682E0,3.1228757E0,1.3708496E0,1.7428246E0,5.10534E0,2.791101E0,2.3445024E0,2.2787247E0,2.133168E0,2.9388695E0,1.8568287E0,2.8092382E0,2.899578E0,4.4558716E-1,0E0,5.919544E0,2.3760304E0,3.2780576E-1,0E0,2.942277E0,1.9534099E0,3.7720776E0,2.508276E0,0E0,0E0,9.3152726E-1,1.8237305E-1,8.2596016E-1,1.8438089E0,0E0,4.880604E0,0E0,0E0,0E0,0E0,2.377037E0,2.2897344E0,0E0,0E0,0E0,0E0,0E0,0E0,0E0,0E0,0E0,0E0,0E0,0E0,0E0,0E0,0E0,0E0,0E0,0E0,0E0,0E0,0E0,0E0,0E0,0E0,0E0,0E0,0E0,0E0,0E0,0E0,0E0,0E0,0E0,0E0,0E0,0E0,0E0,0E0,0E0,0E0],"parents":[2147483647,0,0,1,1,2,2,3,3,4,4,5,5,6,6,7,7,8,8,9,9,10,10,11,11,12,12,13,13,14,14,15,15,16,16,17,17,18,18,19,19,21,21,22,22,23,23,24,24,25,25,26,26,27,27,28,28,29,29,30,30,31,31,32,32,33,33,34,34,35,35,37,37,38,38,39,39,41,41,42,42,43,43,44,44,47,47,48,48,49,49,50,50,52,52,57,57,58,58],"right_children":[2,4,6,8,10,12,14,16,18,20,22,24,26,28,30,32,34,36,38,40,-1,42,44,46,48,50,52,54,56,58,60,62,64,66,68,70,-1,72,74,76,-1,78,80,82,84,-1,-1,86,88,90,92,-1,94,-1,-1,-1,-1,96,98,-1,-1,-1,-1,-1,-1,-1,-1,-1,-1,-1,-1,-1,-1,-1,-1,-1,-1,-1,-1,-1,-1,-1,-1,-1,-1,-1,-1,-1,-1,-1,-1,-1,-1,-1,-1,-1,-1,-1,-1],"split_conditions":[3.3E0,2.1E1,4.75E2,2.1604939E1,1E0,2.03E2,1.52E2,1.36E2,7E1,1.16E0,1.26E2,3.2E0,1E0,1.1E1,8E1,8.9E0,1.34E2,5.45E2,2.7E0,1.05E0,-7.165867E-2,1.22E1,4.1E2,1.66E2,8.1E0,4.6E0,7.46E0,4E0,4.2E0,2.9E1,7.05E0,5.3E-1,1E0,1.1E1,1.43E2,1.45E2,-8.304124E-3,1E0,4.9E1,6.1E-1,6.475972E-2,3.1E1,2E1,4.07E2,7.5E1,4.9451772E-2,-6.0495373E-2,1.09E0,1.8E2,4.25E2,2E2,-6.0474817E-2,2.5390625E1,1.2756738E-1,-1.0076199E-2,-6.1030254E-2,3.2131717E-2,9.1E2,5.6E2,-4.286763E-2,6.418677E-2,4.8453785E-2,-4.1669436E-2,1.3487796E-1,2.0436756E-2,-2.8583748E-2,5.9252873E-2,-5.649838E-2,3.1145802E-2,-7.734473E-2,-1.756858E-2,-5.0367113E-2,1.1734171E-1,-6.33246E-2,5.007882E-3,-5.1912284E-3,-5.8986906E-2,-6.974805E-2,-6.0303793E-3,-2.582522E-3,7.044983E-2,5.2572276E-2,-4.994688E-2,-6.4895146E-2,3.7094526E-2,-4.3758452E-2,2.7790153E-2,-7.725194E-2,-2.9943122E-2,-7.4128814E-2,-2.5786217E-3,-5.249637E-2,1.6145526E-2,7.7453256E-2,-5.1607613E-2,-6.8886206E-2,2.6023671E-2,-4.6148628E-2,6.122302E-2],"split_indices":[12,11,4,3,9,10,6,6,0,15,10,17,2,5,0,7,16,4,12,15,0,7,4,6,5,17,7,12,12,11,7,15,1,5,16,16,0,2,13,15,0,13,14,6,0,0,0,9,13,4,4,0,3,0,0,0,0,4,4,0,0,0,0,0,0,0,0,0,0,0,0,0,0,0,0,0,0,0,0,0,0,0,0,0,0,0,0,0,0,0,0,0,0,0,0,0,0,0,0],"split_type":[0,0,0,0,0,0,0,0,0,0,0,0,0,0,0,0,0,0,0,0,0,0,0,0,0,0,0,0,0,0,0,0,0,0,0,0,0,0,0,0,0,0,0,0,0,0,0,0,0,0,0,0,0,0,0,0,0,0,0,0,0,0,0,0,0,0,0,0,0,0,0,0,0,0,0,0,0,0,0,0,0,0,0,0,0,0,0,0,0,0,0,0,0,0,0,0,0,0,0],"sum_hessian":[2.5815852E3,1.8329262E2,2.3982927E3,1.1802242E2,6.5270195E1,2.3412505E3,5.7042233E1,5.44948E1,6.3527622E1,1.3487273E1,5.1782925E1,2.290622E3,5.0628365E1,7.3390274E0,4.9703205E1,1.1672859E1,4.282194E1,4.3848377E1,1.9679243E1,4.94671E0,8.540564E0,2.3135313E1,2.8647612E1,4.5007143E0,2.2861213E3,4.118661E1,9.441752E0,2.519597E0,4.8194304E0,4.7466194E1,2.2370107E0,8.465583E0,3.2072766E0,6.9211044E0,3.5900837E1,4.26879E1,1.1604781E0,2.8970683E0,1.6782175E1,3.8819876E0,1.0647224E0,1.591769E1,7.2176223E0,2.465004E1,3.9975731E0,1.3349574E0,3.1657572E0,2.176341E0,2.283945E3,3.346278E1,7.723834E0,2.9085662E0,6.5331864E0,1.4803569E0,1.0392401E0,3.2235253E0,1.5959053E0,4.49722E1,2.4939954E0,1.130717E0,1.1062937E0,1.8527268E0,6.612856E0,1.354594E0,1.8526827E0,4.7311654E0,2.1899388E0,3.425327E1,1.6475704E0,4.128405E1,1.403852E0,1.6941078E0,1.2029605E0,1.338292E1,3.3992543E0,1.0106311E0,2.8713565E0,6.4506235E0,9.467067E0,3.5900986E0,3.6275234E0,2.3225838E1,1.4242015E0,2.6510534E0,1.3465198E0,1.1366541E0,1.039687E0,2.2818196E3,2.125416E0,3.245444E1,1.0083394E0,4.777263E0,2.9465709E0,5.058257E0,1.4749295E0,4.392296E1,1.0492424E0,1.3865718E0,1.1074238E0],"tree_param":{"num_deleted":"0","num_feature":"18","num_nodes":"99","size_leaf_vector":"1"}},{"base_weights":[-9.622202E-1,-4.0432435E-1,-1.006373E0,-5.504484E-1,1.9280058E-1,-1.015305E0,-6.3630146E-1,-6.765939E-1,-9.249599E-2,-4.8364874E-2,7.490475E-1,-1.02309E0,-6.585454E-1,-7.182813E-1,6.2272555E-1,-1.969162E-1,-7.9369396E-1,1.0764682E0,-2.7899498E-1,3.166132E-1,-5.312615E-1,-5.4494865E-2,1.1542093E0,-3.1562486E-1,-1.0243996E0,-8.473566E-1,1.1796757E-1,-8.2018816E-1,1.02056235E-1,8.3310574E-2,-1.5910914E-2,4.2290023E-1,-4.801305E-1,-5.2046966E-2,-8.587911E-1,-1.0876721E-2,1.4792147E0,-4.6229196E-1,4.0721112E-1,7.000664E-1,-4.4818747E-1,-7.998786E-1,4.5285136E-2,-5.6399155E-2,6.565618E-2,-9.739555E-3,1.3942485E0,6.925335E-2,-6.134484E-2,-1.4929591E-1,-1.0252159E0,-9.5236886E-1,-3.5071915E-1,1.00395024E-1,-2.2426058E-1,-9.0884686E-1,-1.1302929E-1,6.4260644E-1,-5.4266304E-2,1.0327927E-3,9.458509E-2,-5.269541E-2,2.8600644E-2,3.4431726E-2,-4.6780035E-2,-6.8302624E-2,-3.3986386E-2,1.3702546E-1,2.4439178E-2,-5.6496315E-2,-9.117307E-3,-3.0720087E-2,1.1087113E-1,7.477613E-2,-1.7295502E-2,-6.62518E-2,4.0181942E-2,-1.6623475E-2,-7.230159E-2,1.2127613E-1,1.5212788E-2,-4.3271005E-2,2.7556771E-2,-7.692422E-2,-2.8955547E-2,-7.576259E-2,-2.4942674E-2,1.6056826E-2,-5.155791E-2,2.7057033E-2,-4.406549E-2,-6.199324E-3,-6.9731556E-2,-5.835978E-2,4.6033174E-2,8.521384E-2,-4.0203437E-2],"categories":[],"categories_nodes":[],"categories_segments":[],"categories_sizes":[],"default_left":[0,0,0,0,0,0,0,0,0,0,0,0,0,0,0,0,0,0,0,0,0,0,0,0,0,0,0,0,0,0,0,0,0,0,0,0,0,0,0,0,0,0,0,0,0,0,0,0,0,0,0,0,0,0,0,0,0,0,0,0,0,0,0,0,0,0,0,0,0,0,0,0,0,0,0,0,0,0,0,0,0,0,0,0,0,0,0,0,0,0,0,0,0,0,0,0,0],"id":15,"left_children":[1,3,5,7,9,11,13,15,17,19,21,23,25,27,29,31,33,35,37,39,41,43,45,47,49,51,53,55,57,-1,-1,59,61,63,65,-1,67,69,71,73,75,77,-1,-1,-1,-1,79,-1,-1,81,83,85,87,-1,89,91,93,95,-1,-1,-1,-1,-1,-1,-1,-1,-1,-1,-1,-1,-1,-1,-1,-1,-1,-1,-1,-1,-1,-1,-1,-1,-1,-1,-1,-1,-1,-1,-1,-1,-1,-1,-1,-1,-1,-1,-1],"loss_changes":[5.9104736E1,1.5711784E1,6.7521973E0,8.253166E0,4.8525705E0,5.390869E0,6.167881E0,6.1742516E0,7.3304186E0,4.7478414E0,3.6177626E0,1.6552734E0,7.348568E0,4.472616E0,1.8345742E0,4.3185234E0,4.3128853E0,2.498478E0,3.7860339E0,4.8375506E0,4.0071735E0,3.65164E0,2.4323645E0,4.110267E0,1.3688965E0,1.7464771E0,4.7064347E0,2.8320408E0,3.4508274E0,0E0,0E0,2.6866002E0,3.4417615E0,2.7255867E0,1.3331528E0,0E0,8.409982E-1,2.1930547E0,6.345978E0,3.1772137E0,2.940022E0,7.142768E-1,0E0,0E0,0E0,0E0,1.3278561E0,0E0,0E0,9.09375E-1,2.03125E-1,8.2281685E-1,1.7724186E0,0E0,2.1448214E0,6.391716E-1,3.5505118E0,3.269367E0,0E0,0E0,0E0,0E0,0E0,0E0,0E0,0E0,0E0,0E0,0E0,0E0,0E0,0E0,0E0,0E0,0E0,0E0,0E0,0E0,0E0,0E0,0E0,0E0,0E0,0E0,0E0,0E0,0E0,0E0,0E0,0E0,0E0,0E0,0E0,0E0,0E0,0E0,0E0],"parents":[2147483647,0,0,1,1,2,2,3,3,4,4,5,5,6,6,7,7,8,8,9,9,10,10,11,11,12,12,13,13,14,14,15,15,16,16,17,17,18,18,19,19,20,20,21,21,22,22,23,23,24,24,25,25,26,26,27,27,28,28,31,31,32,32,33,33,34,34,36,36,37,37,38,38,39,39,40,40,41,41,46,46,49,49,50,50,51,51,52,52,54,54,55,55,56,56,57,57],"right_children":[2,4,6,8,10,12,14,16,18,20,22,24,26,28,30,32,34,36,38,40,42,44,46,48,50,52,54,56,58,-1,-1,60,62,64,66,-1,68,70,72,74,76,78,-1,-1,-1,-1,80,-1,-1,82,84,86,88,-1,90,92,94,96,-1,-1,-1,-1,-1,-1,-1,-1,-1,-1,-1,-1,-1,-1,-1,-1,-1,-1,-1,-1,-1,-1,-1,-1,-1,-1,-1,-1,-1,-1,-1,-1,-1,-1,-1,-1,-1,-1,-1],"split_conditions":[3.3E0,3.82E1,4.75E2,2.9E1,7.5E1,2.03E2,1.5E0,1.35E2,6.5E-1,1.01E1,1.45E2,3.2E0,1E0,1.33E0,5.94E0,2.79E1,1.6649324E1,8E1,1.3947672E2,3.1E2,1.652E1,2.9E1,9.1E1,1.52E2,8.1E0,4.6E0,1E1,1.53E2,2E2,8.3310574E-2,-1.5910914E-2,1.85E2,7.3E1,1.05E0,1.62E2,-1.0876721E-2,1.52E2,1.12E0,3.5E1,1.52E2,5.3E1,1.9591837E1,4.5285136E-2,-5.6399155E-2,6.565618E-2,-9.739555E-3,3.04E0,6.925335E-2,-6.134484E-2,9.2E-1,1.8E2,1.09E0,1.37E2,1.00395024E-1,1.7E1,7E0,4.2E0,2.2E1,-5.4266304E-2,1.0327927E-3,9.458509E-2,-5.269541E-2,2.8600644E-2,3.4431726E-2,-4.6780035E-2,-6.8302624E-2,-3.3986386E-2,1.3702546E-1,2.4439178E-2,-5.6496315E-2,-9.117307E-3,-3.0720087E-2,1.1087113E-1,7.477613E-2,-1.7295502E-2,-6.62518E-2,4.0181942E-2,-1.6623475E-2,-7.230159E-2,1.2127613E-1,1.5212788E-2,-4.3271005E-2,2.7556771E-2,-7.692422E-2,-2.8955547E-2,-7.576259E-2,-2.4942674E-2,1.6056826E-2,-5.155791E-2,2.7057033E-2,-4.406549E-2,-6.199324E-3,-6.9731556E-2,-5.835978E-2,4.6033174E-2,8.521384E-2,-4.0203437E-2],"split_indices":[12,8,4,11,0,10,9,16,15,5,4,17,2,15,7,8,3,4,16,4,7,11,10,6,5,17,11,10,6,0,0,4,14,9,10,0,6,9,14,6,14,3,0,0,0,0,15,0,0,15,13,9,16,0,14,14,17,14,0,0,0,0,0,0,0,0,0,0,0,0,0,0,0,0,0,0,0,0,0,0,0,0,0,0,0,0,0,0,0,0,0,0,0,0,0,0,0],"split_type":[0,0,0,0,0,0,0,0,0,0,0,0,0,0,0,0,0,0,0,0,0,0,0,0,0,0,0,0,0,0,0,0,0,0,0,0,0,0,0,0,0,0,0,0,0,0,0,0,0,0,0,0,0,0,0,0,0,0,0,0,0,0,0,0,0,0,0,0,0,0,0,0,0,0,0,0,0,0,0,0,0,0,0,0,0,0,0,0,0,0,0,0,0,0,0,0,0],"sum_hessian":[2.4149575E3,1.7785252E2,2.237105E3,1.429492E2,3.490332E1,2.182681E3,5.4424065E1,1.1170266E2,3.1246542E1,2.4984247E1,9.919075E0,2.134241E3,4.8439953E1,5.150019E1,2.9238715E0,2.2444544E1,8.925812E1,3.642651E0,2.7603891E1,1.4425589E1,1.0558658E1,3.6150255E0,6.3040495E0,4.390792E0,2.12985E3,3.889202E1,9.547933E0,4.5809647E1,5.690544E0,1.6365803E0,1.2872912E0,6.8845162E0,1.5560026E1,7.3475475E0,8.191057E1,1.0619066E0,2.5807447E0,2.2042328E1,5.5615625E0,9.664618E0,4.7609715E0,8.776876E0,1.7817814E0,2.17498E0,1.4400454E0,1.0651455E0,5.238904E0,1.0247755E0,3.3660161E0,2.1559656E0,2.1276943E3,3.134632E1,7.5457015E0,1.4532319E0,8.094701E0,4.0452755E1,5.3568945E0,3.5729074E0,2.1176364E0,5.3094707E0,1.5750456E0,1.251297E1,3.0470562E0,3.9831915E0,3.364356E0,7.15137E1,1.0396862E1,1.5340755E0,1.0466692E0,1.1235799E1,1.0806529E1,3.5056703E0,2.055892E0,7.2728086E0,2.391809E0,3.371909E0,1.3890628E0,2.4602768E0,6.3165994E0,4.1126976E0,1.1262063E0,1.1158781E0,1.0400873E0,2.125625E3,2.069352E0,2.809638E1,3.2499382E0,2.9543276E0,4.591374E0,3.1036117E0,4.9910893E0,1.120674E0,3.933208E1,2.76031E0,2.5965846E0,2.5437183E0,1.029189E0],"tree_param":{"num_deleted":"0","num_feature":"18","num_nodes":"97","size_leaf_vector":"1"}},{"base_weights":[-9.5415777E-1,-3.8591236E-1,-1.0008906E0,-6.0946846E-1,-4.1012135E-3,-1.0104102E0,-6.1702585E-1,-8.497584E-1,-3.8992485E-1,-6.937511E-1,1.7083746E-1,-1.0187234E0,-6.395291E-1,-7.8646713E-1,4.599337E-2,-8.8141155E-1,2.3503961E-2,-5.7070166E-1,1.6449296E-1,-1.9623826E-1,-7.0352644E-2,7.379989E-1,4.4054553E-2,-2.9850593E-1,-1.0201228E0,-8.3349335E-1,1.1614993E-1,-8.455246E-1,2.2942844E-1,-4.6781287E-1,8.854374E-1,-2.3724186E-1,-9.413405E-1,1.486492E-1,-6.7316246E-1,-6.224299E-2,5.1440096E-1,-6.244493E-1,6.305783E-2,-2.9914439E-2,1.0806017E0,-1.5290079E-1,5.3356427E-1,6.466178E-2,-6.0362276E-2,-1.4433953E-1,-1.0209936E0,-9.433008E-1,-3.3576554E-1,-5.940401E-2,5.394863E-1,-8.8826054E-1,1.1506715E-2,-6.676973E-3,3.377956E-2,-7.5061566E-1,4.1218545E-2,1.21101126E-1,-2.399073E-2,4.3161467E-2,-6.1002713E-2,-7.206203E-2,-4.1866237E-3,4.8945922E-2,-5.2547406E-2,-5.465177E-3,-5.866481E-2,5.9299134E-2,-5.308524E-2,-5.4023615E-3,-5.718305E-2,1.2368894E-1,6.1688665E-3,-3.88306E-2,3.188448E-2,5.871309E-2,-2.3434829E-2,-4.3410767E-2,2.9335136E-2,-7.6609835E-2,-2.799342E-2,-7.5333215E-2,-2.3936957E-2,-4.433658E-2,2.8323047E-2,6.820008E-2,-5.008446E-2,-6.9879316E-2,-1.7690955E-2,-4.1739517E-3,-6.513588E-2],"categories":[],"categories_nodes":[],"categories_segments":[],"categories_sizes":[],"default_left":[0,0,0,0,0,0,0,0,0,0,0,0,0,0,0,0,0,0,0,0,0,0,0,0,0,0,0,0,0,0,0,0,0,0,0,0,0,0,0,0,0,0,0,0,0,0,0,0,0,0,0,0,0,0,0,0,0,0,0,0,0,0,0,0,0,0,0,0,0,0,0,0,0,0,0,0,0,0,0,0,0,0,0,0,0,0,0,0,0,0,0],"id":16,"left_children":[1,3,5,7,9,11,13,15,17,19,21,23,25,27,29,31,-1,33,35,37,-1,39,41,43,45,47,49,51,53,55,57,59,61,63,65,-1,67,69,-1,-1,71,73,75,-1,-1,77,79,81,83,-1,85,87,-1,-1,-1,89,-1,-1,-1,-1,-1,-1,-1,-1,-1,-1,-1,-1,-1,-1,-1,-1,-1,-1,-1,-1,-1,-1,-1,-1,-1,-1,-1,-1,-1,-1,-1,-1,-1,-1,-1],"loss_changes":[5.963037E1,1.4795586E1,7.005371E0,5.436714E0,7.9641643E0,5.6242676E0,6.000227E0,2.1669617E0,6.0055723E0,1.4390879E0,3.7551165E0,1.7004395E0,7.031702E0,2.7340794E0,5.482314E0,1.7168007E0,0E0,3.3949823E0,5.743468E0,3.0396059E0,0E0,4.154572E0,4.3347163E0,3.791665E0,1.3664551E0,1.747652E0,4.4801955E0,1.8535233E0,2.5912136E-1,2.6979816E0,4.7418156E0,3.0969903E0,7.3394775E-1,3.1933417E0,2.5160408E0,0E0,4.5842686E0,2.9433167E-1,0E0,0E0,4.1874456E0,7.0180016E0,2.9608784E0,0E0,0E0,9.560312E-1,2.2363281E-1,8.3922386E-1,1.7499754E0,0E0,4.08323E0,8.7818146E-1,0E0,0E0,0E0,4.9540758E-1,0E0,0E0,0E0,0E0,0E0,0E0,0E0,0E0,0E0,0E0,0E0,0E0,0E0,0E0,0E0,0E0,0E0,0E0,0E0,0E0,0E0,0E0,0E0,0E0,0E0,0E0,0E0,0E0,0E0,0E0,0E0,0E0,0E0,0E0,0E0],"parents":[2147483647,0,0,1,1,2,2,3,3,4,4,5,5,6,6,7,7,8,8,9,9,10,10,11,11,12,12,13,13,14,14,15,15,17,17,18,18,19,19,21,21,22,22,23,23,24,24,25,25,26,26,27,27,28,28,29,29,30,30,31,31,32,32,33,33,34,34,36,36,37,37,40,40,41,41,42,42,45,45,46,46,47,47,48,48,50,50,51,51,55,55],"right_children":[2,4,6,8,10,12,14,16,18,20,22,24,26,28,30,32,-1,34,36,38,-1,40,42,44,46,48,50,52,54,56,58,60,62,64,66,-1,68,70,-1,-1,72,74,76,-1,-1,78,80,82,84,-1,86,88,-1,-1,-1,90,-1,-1,-1,-1,-1,-1,-1,-1,-1,-1,-1,-1,-1,-1,-1,-1,-1,-1,-1,-1,-1,-1,-1,-1,-1,-1,-1,-1,-1,-1,-1,-1,-1,-1,-1],"split_conditions":[3.3E0,2.1E1,4.75E2,6E1,1E0,2.03E2,1.12E0,2.09E2,1.26E0,1.16E0,4.77E0,3.2E0,1E0,8E1,1.95E1,1.6649324E1,2.3503961E-2,1.7301039E1,1.2E2,1.05E0,-7.0352644E-2,2.9E1,1.652E1,1.52E2,8.1E0,4.6E0,7.46E0,3.04E0,2.4458725E1,7.45E2,6.5E1,1.2E2,1.45E2,1.05E0,2.72E1,-6.224299E-2,8E1,6.5E1,6.305783E-2,-2.9914439E-2,1.45E2,7.5E1,3E0,6.466178E-2,-6.0362276E-2,1.05E0,1.8E2,1.09E0,2.9E1,-5.940401E-2,2.5390625E1,3.47E2,1.1506715E-2,-6.676973E-3,3.377956E-2,1.04E1,4.1218545E-2,1.21101126E-1,-2.399073E-2,4.3161467E-2,-6.1002713E-2,-7.206203E-2,-4.1866237E-3,4.8945922E-2,-5.2547406E-2,-5.465177E-3,-5.866481E-2,5.9299134E-2,-5.308524E-2,-5.4023615E-3,-5.718305E-2,1.2368894E-1,6.1688665E-3,-3.88306E-2,3.188448E-2,5.871309E-2,-2.3434829E-2,-4.3410767E-2,2.9335136E-2,-7.6609835E-2,-2.799342E-2,-7.5333215E-2,-2.3936957E-2,-4.433658E-2,2.8323047E-2,6.820008E-2,-5.008446E-2,-6.9879316E-2,-1.7690955E-2,-4.1739517E-3,-6.513588E-2],"split_indices":[12,11,4,0,9,10,9,14,9,15,7,17,2,0,11,3,0,3,4,15,0,11,7,6,5,17,7,15,3,4,0,4,16,9,8,0,0,0,0,0,4,0,12,0,0,15,13,9,11,0,3,6,0,0,0,5,0,0,0,0,0,0,0,0,0,0,0,0,0,0,0,0,0,0,0,0,0,0,0,0,0,0,0,0,0,0,0,0,0,0,0],"split_type":[0,0,0,0,0,0,0,0,0,0,0,0,0,0,0,0,0,0,0,0,0,0,0,0,0,0,0,0,0,0,0,0,0,0,0,0,0,0,0,0,0,0,0,0,0,0,0,0,0,0,0,0,0,0,0,0,0,0,0,0,0,0,0,0,0,0,0,0,0,0,0,0,0,0,0,0,0,0,0,0,0,0,0,0,0,0,0,0,0,0,0],"sum_hessian":[2.2590186E3,1.7236855E2,2.08665E3,1.08338486E2,6.403006E1,2.0345619E3,5.208799E1,5.0354763E1,5.798372E1,1.2355612E1,5.1674446E1,1.9882489E3,4.631302E1,4.1337566E1,1.0750426E1,4.9256542E1,1.0982225E0,4.370397E1,1.427975E1,4.662734E0,7.6928782E0,8.5600815E0,4.3114365E1,4.271266E0,1.9839777E3,3.6771664E1,9.541357E0,3.922499E1,2.112576E0,6.9432926E0,3.8071337E0,4.6145034E0,4.4642036E1,5.392664E0,3.8311306E1,3.3597972E0,1.0919952E1,3.5816174E0,1.0811167E0,1.9442565E0,6.615825E0,3.123467E1,1.1879695E1,1.0838797E0,3.1873865E0,2.136232E0,1.9818414E3,2.9392052E1,7.379611E0,2.7565725E0,6.7847843E0,3.7722008E1,1.5029821E0,1.1099806E0,1.0025953E0,5.638255E0,1.3050376E0,2.160402E0,1.6467316E0,1.9146584E0,2.6998448E0,4.3597595E1,1.0444419E0,3.5297077E0,1.8629559E0,6.145498E0,3.216581E1,9.194757E0,1.7251948E0,1.0200543E0,2.561563E0,3.7998238E0,2.8160014E0,1.9212423E1,1.2022246E1,9.233725E0,2.6459703E0,1.1346645E0,1.0015675E0,1.9798251E3,2.0163724E0,2.6214691E1,3.1773596E0,5.5604243E0,1.8191863E0,5.3826175E0,1.4021667E0,3.4964386E1,2.7576222E0,1.0310391E0,4.607216E0],"tree_param":{"num_deleted":"0","num_feature":"18","num_nodes":"91","size_leaf_vector":"1"}},{"base_weights":[-9.4601196E-1,-3.69022E-1,-9.9552274E-1,8.646182E-2,-5.515264E-1,-1.0056329E0,-5.9815913E-1,4.1375867E-1,-2.7943602E-1,-5.916632E-1,1.1388149E-1,-1.0144963E0,-6.217776E-1,2.1522148E-1,-7.347144E-1,-6.118151E-2,5.763005E-1,-4.5913553E-1,7.521789E-1,-9.027759E-1,-3.961004E-1,-2.8252697E-1,-1.0159909E0,-8.1925493E-1,1.0124313E-1,6.860056E-1,-5.4675426E-2,-8.483591E-1,-2.0944574E-1,-1.1321137E-1,9.028826E-1,2.4555728E-2,-8.439923E-1,-9.03733E-3,8.55582E-2,-9.5410496E-1,-3.3421463E-1,1.08672075E-1,-5.3087765E-1,6.0408566E-2,-5.938492E-2,-1.393072E-1,-1.0169196E0,-9.341502E-1,-3.1964418E-1,8.94269E-2,-2.216935E-1,-2.1468785E-2,1.139066E0,-7.494418E-2,-5.1738566E-1,-6.710295E-1,3.5624543E-1,-4.360815E-2,4.3067705E-2,-2.1135274E-2,8.325163E-2,9.721256E-2,-1.9541278E-2,-7.350754E-2,1.5746752E-2,-3.1186847E-2,-7.450398E-2,3.0508375E-2,-4.618754E-2,8.0004215E-2,-3.1289605E-3,-4.5809627E-2,7.4046575E-2,-4.252329E-2,2.7946267E-2,-7.630676E-2,-2.7056674E-2,-7.491147E-2,-2.2961529E-2,-4.9921997E-2,1.7774032E-2,2.38627E-2,-4.288294E-2,1.29798995E-2,1.1204752E-1,-6.730647E-2,-5.695941E-3,-2.3156716E-3,-6.081432E-2,-2.7270012E-2,6.784866E-2],"categories":[],"categories_nodes":[],"categories_segments":[],"categories_sizes":[],"default_left":[0,0,0,0,0,0,0,0,0,0,0,0,0,0,0,0,0,0,0,0,0,0,0,0,0,0,0,0,0,0,0,0,0,0,0,0,0,0,0,0,0,0,0,0,0,0,0,0,0,0,0,0,0,0,0,0,0,0,0,0,0,0,0,0,0,0,0,0,0,0,0,0,0,0,0,0,0,0,0,0,0,0,0,0,0,0,0],"id":17,"left_children":[1,3,5,7,9,11,13,15,17,19,-1,21,23,25,27,-1,29,31,33,35,37,39,41,43,45,47,-1,49,51,53,55,57,59,-1,-1,61,63,65,67,-1,-1,69,71,73,75,-1,77,-1,79,-1,81,83,85,-1,-1,-1,-1,-1,-1,-1,-1,-1,-1,-1,-1,-1,-1,-1,-1,-1,-1,-1,-1,-1,-1,-1,-1,-1,-1,-1,-1,-1,-1,-1,-1,-1,-1],"loss_changes":[6.0051025E1,1.4073729E1,7.2211914E0,5.999457E0,1.0917725E1,5.824829E0,5.798538E0,5.733446E0,4.7564163E0,6.884018E0,0E0,1.7401123E0,6.566229E0,4.0889606E0,2.4314442E0,0E0,5.4722695E0,3.9086237E0,1.4630761E0,9.989929E-1,5.1509037E0,3.4973602E0,1.3637695E0,1.7550564E0,4.0104365E0,2.9260716E0,0E0,1.2612667E0,2.6157918E0,3.0870934E0,4.3113117E0,4.0451765E0,1.878334E0,0E0,0E0,4.5129776E-1,1.3519876E0,2.4372828E0,7.7926903E0,0E0,0E0,8.933161E-1,2.434082E-1,8.543625E-1,1.7387252E0,0E0,1.8916925E0,0E0,1.1906595E0,0E0,2.1502771E0,4.5467186E-1,2.2013597E0,0E0,0E0,0E0,0E0,0E0,0E0,0E0,0E0,0E0,0E0,0E0,0E0,0E0,0E0,0E0,0E0,0E0,0E0,0E0,0E0,0E0,0E0,0E0,0E0,0E0,0E0,0E0,0E0,0E0,0E0,0E0,0E0,0E0,0E0],"parents":[2147483647,0,0,1,1,2,2,3,3,4,4,5,5,6,6,7,7,8,8,9,9,11,11,12,12,13,13,14,14,16,16,17,17,18,18,19,19,20,20,21,21,22,22,23,23,24,24,25,25,27,27,28,28,29,29,30,30,31,31,32,32,35,35,36,36,37,37,38,38,41,41,42,42,43,43,44,44,46,46,48,48,50,50,51,51,52,52],"right_children":[2,4,6,8,10,12,14,16,18,20,-1,22,24,26,28,-1,30,32,34,36,38,40,42,44,46,48,-1,50,52,54,56,58,60,-1,-1,62,64,66,68,-1,-1,70,72,74,76,-1,78,-1,80,-1,82,84,86,-1,-1,-1,-1,-1,-1,-1,-1,-1,-1,-1,-1,-1,-1,-1,-1,-1,-1,-1,-1,-1,-1,-1,-1,-1,-1,-1,-1,-1,-1,-1,-1,-1,-1],"split_conditions":[3.3E0,1.36E2,4.75E2,1.01E1,1.47E2,2.03E2,1.52E2,1.3E2,5.64E1,6E1,1.1388149E-1,3.2E0,1E0,1.3947672E2,2.1E1,-6.118151E-2,1.15E2,2.1484375E1,7.5E1,1.652E1,2.7E0,1.52E2,8.1E0,4.6E0,1E1,1.12E0,-5.4675426E-2,1.15E2,5.65E2,3.6E1,3.4E0,9E0,1.8E2,-9.03733E-3,8.55582E-2,1.6649324E1,2.72E1,6E1,5.45E2,6.0408566E-2,-5.938492E-2,1.05E0,1.8E2,1.09E0,2E2,8.94269E-2,1.7E1,-2.1468785E-2,1.6E1,-7.494418E-2,4.2E0,9.6E1,4.4E0,-4.360815E-2,4.3067705E-2,-2.1135274E-2,8.325163E-2,9.721256E-2,-1.9541278E-2,-7.350754E-2,1.5746752E-2,-3.1186847E-2,-7.450398E-2,3.0508375E-2,-4.618754E-2,8.0004215E-2,-3.1289605E-3,-4.5809627E-2,7.4046575E-2,-4.252329E-2,2.7946267E-2,-7.630676E-2,-2.7056674E-2,-7.491147E-2,-2.2961529E-2,-4.9921997E-2,1.7774032E-2,2.38627E-2,-4.288294E-2,1.29798995E-2,1.1204752E-1,-6.730647E-2,-5.695941E-3,-2.3156716E-3,-6.081432E-2,-2.7270012E-2,6.784866E-2],"split_indices":[12,6,4,5,16,10,6,16,8,0,0,17,2,16,11,0,10,3,0,7,12,6,5,17,11,9,0,10,4,11,17,14,13,0,0,3,8,4,4,0,0,15,13,9,4,0,14,0,11,0,17,10,17,0,0,0,0,0,0,0,0,0,0,0,0,0,0,0,0,0,0,0,0,0,0,0,0,0,0,0,0,0,0,0,0,0,0],"split_type":[0,0,0,0,0,0,0,0,0,0,0,0,0,0,0,0,0,0,0,0,0,0,0,0,0,0,0,0,0,0,0,0,0,0,0,0,0,0,0,0,0,0,0,0,0,0,0,0,0,0,0,0,0,0,0,0,0,0,0,0,0,0,0,0,0,0,0,0,0,0,0,0,0,0,0,0,0,0,0,0,0,0,0,0,0,0,0],"sum_hessian":[2.1139539E3,1.6772865E2,1.9462252E3,4.813139E1,1.1959727E2,1.8964434E3,4.978185E1,2.5336765E1,2.2794626E1,1.1802294E2,1.5743284E0,1.8520359E3,4.440746E1,7.073431E0,4.2708416E1,2.4891796E0,2.2847586E1,1.9885633E1,2.9089918E0,4.4157806E1,7.386513E1,4.1610494E0,1.8478749E3,3.4776043E1,9.631416E0,4.9025383E0,2.1708927E0,3.4606102E1,8.102314E0,7.5534186E0,1.5294167E1,9.226228E0,1.0659407E1,1.1088196E0,1.8001723E0,3.9879433E1,4.2783747E0,1.5606984E1,5.825815E1,1.1412953E0,3.019754E0,2.1153183E0,1.8457595E3,2.7566765E1,7.209276E0,1.5847472E0,8.046669E0,1.6753867E0,3.2271519E0,2.2382421E1,1.2223681E1,4.359173E0,3.7431412E0,4.5848265E0,2.9685922E0,2.2225173E0,1.307165E1,1.0402609E0,8.1859665E0,9.502333E0,1.1570741E0,3.5002794E0,3.6379154E1,1.0558386E0,3.2225363E0,1.2908449E0,1.4316139E1,5.5912544E1,2.3456032E0,1.0939077E0,1.0214106E0,1.8437932E3,1.9662907E0,2.4457695E1,3.1090703E0,4.325121E0,2.884155E0,3.2011976E0,4.845472E0,1.2667751E0,1.9603766E0,6.013631E0,6.21005E0,1.000329E0,3.358844E0,1.7642863E0,1.9788548E0],"tree_param":{"num_deleted":"0","num_feature":"18","num_nodes":"87","size_leaf_vector":"1"}},{"base_weights":[-9.377252E-1,-3.5127673E-1,-9.901707E-1,-5.2036685E-1,1.1216763E-1,-1.0004075E0,-5.597101E-1,-3.1696696E-2,-6.4977825E-1,-1.7414288E-1,4.6715063E-1,-1.0078621E0,-7.0873743E-1,-7.103626E-1,5.7448375E-1,-4.5668724E-1,5.1501644E-1,-7.003971E-1,7.831626E-1,1.615324E-1,-7.234603E-1,6.454556E-1,-3.258972E-1,-1.0150454E0,-6.7964727E-1,-7.75953E-1,3.1297728E-1,-8.437318E-1,4.480889E-1,1.1635102E-1,-2.9488385E-1,4.8205274E-1,-6.9261813E-1,-3.7555376E-1,8.4860396E-1,-1.8766826E-1,-7.994135E-1,-1.6575415E-2,1.0716293E-1,8.132628E-1,-2.5036168E-1,2.534125E-2,-7.231796E-2,-6.2438898E-2,8.452512E-1,-6.1666507E-1,2.3706986E-2,-3.8147047E-1,-1.0161271E0,5.3466346E-2,-7.433588E-1,-8.442167E-1,-1.15050316E-1,-4.247128E-2,7.1722664E-2,-8.877135E-1,-2.3934524E-1,9.1875654E-1,-2.4430702E-2,3.3045482E-2,-5.263843E-2,8.370865E-2,-4.2689048E-2,-6.633908E-2,2.3712682E-2,-5.314219E-2,2.2669414E-2,1.2346003E-1,2.0537406E-2,-3.3451684E-2,3.8050454E-2,-6.2195696E-2,1.7532917E-2,-4.8579266E-3,1.1137664E-1,-5.7433415E-2,3.46018E-2,-5.557183E-2,6.0674775E-2,1.0362583E-1,3.951232E-2,-1.4517744E-2,-5.3646054E-2,-5.6751102E-2,3.3030577E-2,-1.8795004E-2,-7.6248E-2,-6.4512976E-2,-1.098417E-2,-6.65366E-2,1.6404133E-2,-5.4237414E-2,4.0778555E-2,-4.7100876E-3,-6.853625E-2,-4.930713E-2,3.2243405E-2,1.1908819E-2,9.7474165E-2],"categories":[],"categories_nodes":[],"categories_segments":[],"categories_sizes":[],"default_left":[0,0,0,0,0,0,0,0,0,0,0,0,0,0,0,0,0,0,0,0,0,0,0,0,0,0,0,0,0,0,0,0,0,0,0,0,0,0,0,0,0,0,0,0,0,0,0,0,0,0,0,0,0,0,0,0,0,0,0,0,0,0,0,0,0,0,0,0,0,0,0,0,0,0,0,0,0,0,0,0,0,0,0,0,0,0,0,0,0,0,0,0,0,0,0,0,0,0,0],"id":18,"left_children":[1,3,5,7,9,11,13,15,17,19,21,23,25,27,29,31,33,35,37,39,41,43,45,47,49,51,53,55,57,-1,59,61,63,65,67,69,71,-1,-1,73,75,-1,-1,77,79,81,-1,83,85,-1,87,89,91,-1,-1,93,95,97,-1,-1,-1,-1,-1,-1,-1,-1,-1,-1,-1,-1,-1,-1,-1,-1,-1,-1,-1,-1,-1,-1,-1,-1,-1,-1,-1,-1,-1,-1,-1,-1,-1,-1,-1,-1,-1,-1,-1,-1,-1],"loss_changes":[6.0531006E1,1.29125805E1,7.4436035E0,7.5909348E0,4.6216135E0,3.140503E0,8.005086E0,6.3347635E0,7.447094E0,4.810812E0,3.0689468E0,3.380249E0,3.5084724E0,6.5109863E0,5.3543158E0,3.72253E0,3.8693342E0,4.540554E0,2.7258875E0,4.6646886E0,2.8399048E0,2.4345822E0,1.0116738E0,7.687988E-1,4.0787067E0,1.9287415E0,2.6049001E0,7.4297523E-1,2.0297766E0,0E0,1.4739296E0,3.0766234E0,2.7261496E0,1.1057732E0,3.6755366E0,3.1461036E0,2.5735893E0,0E0,0E0,4.030874E0,4.369151E0,0E0,0E0,3.3418276E0,1.527174E0,1.3312101E-3,0E0,1.7138689E0,4.0625E-1,0E0,2.5751781E0,2.044403E0,2.5410905E0,0E0,0E0,6.561279E-1,1.3479549E0,7.246072E-1,0E0,0E0,0E0,0E0,0E0,0E0,0E0,0E0,0E0,0E0,0E0,0E0,0E0,0E0,0E0,0E0,0E0,0E0,0E0,0E0,0E0,0E0,0E0,0E0,0E0,0E0,0E0,0E0,0E0,0E0,0E0,0E0,0E0,0E0,0E0,0E0,0E0,0E0,0E0,0E0,0E0],"parents":[2147483647,0,0,1,1,2,2,3,3,4,4,5,5,6,6,7,7,8,8,9,9,10,10,11,11,12,12,13,13,14,14,15,15,16,16,17,17,18,18,19,19,20,20,21,21,22,22,23,23,24,24,25,25,26,26,27,27,28,28,30,30,31,31,32,32,33,33,34,34,35,35,36,36,39,39,40,40,43,43,44,44,45,45,47,47,48,48,50,50,51,51,52,52,55,55,56,56,57,57],"right_children":[2,4,6,8,10,12,14,16,18,20,22,24,26,28,30,32,34,36,38,40,42,44,46,48,50,52,54,56,58,-1,60,62,64,66,68,70,72,-1,-1,74,76,-1,-1,78,80,82,-1,84,86,-1,88,90,92,-1,-1,94,96,98,-1,-1,-1,-1,-1,-1,-1,-1,-1,-1,-1,-1,-1,-1,-1,-1,-1,-1,-1,-1,-1,-1,-1,-1,-1,-1,-1,-1,-1,-1,-1,-1,-1,-1,-1,-1,-1,-1,-1,-1,-1],"split_conditions":[3.3E0,4.9E1,1.2E0,2.7E0,9.8E-1,4.6E2,1.86E2,1.32E2,5.45E2,2.5E2,2.19E0,2.03E2,8E1,6.05E2,9.5E0,1.6649324E1,1.7E1,1.8365473E1,2.33E2,1.35E2,3.5E0,1.1E2,1.652E1,3.2E0,1.32E2,1.62E2,2.3148148E1,8E1,5.94E0,1.1635102E-1,4E0,1.25E2,5E1,2.7E2,1.15E2,3.1E1,2.64E2,-1.6575415E-2,1.0716293E-1,1.05E2,3.47E1,2.534125E-2,-7.231796E-2,3.82E1,1.33E0,3.25E2,2.3706986E-2,2.2E2,8.1E0,5.3466346E-2,3.5E1,3.04E0,1E0,-4.247128E-2,7.1722664E-2,2.72E1,2.5390625E1,5.2E0,